svm_type nu_svr
kernel_type rbf
gamma 0.0555556
nr_class 2
total_sv 96
rho -46.9972
probA 4.66293
SV
-512 1:-0.995657 2:-0.970916 3:-0.768967 4:-0.994663 5:-0.974861 6:-0.74229 7:-0.998563 8:-0.998879 9:-0.893319 10:-0.783924 11:-0.558299 12:-0.315068 13:-0.78169 14:-0.454023 15:-0.492823 16:0.486367 17:-0.498489 18:-0.836145 
512 1:-0.998568 2:-0.996637 3:-0.884807 4:-0.998667 5:-0.99597 6:-0.926631 7:-1 8:-1 9:-0.999838 10:-0.78911 11:-1 12:-0.932752 13:-0.852113 14:-1 15:-0.956938 16:-0.709575 17:-0.318429 18:-0.783133 
-512 1:-0.85734 2:-0.512494 3:-0.0224884 4:-0.688618 5:-0.14185 6:0.399577 7:-0.991004 8:-0.844808 9:-0.507614 10:-0.313742 11:0.102881 12:-0.118306 13:-0.392606 14:0.272989 15:-0.00239234 16:-0.235257 17:-0.448943 18:-0.188755 
512 1:-0.999987 2:-0.999857 3:-0.998634 4:-0.999898 5:-0.999778 6:-0.997894 7:-0.999656 8:-0.999934 9:-0.999999 10:0.574762 11:-0.303155 12:-0.950187 13:0.165493 14:-0.477011 15:-0.820574 16:-0.24033 17:0.300302 18:0.450602 
-121.7161536941343 1:-0.967782 2:-0.902319 3:-0.91725 4:-0.973475 5:-0.926182 6:-0.903734 7:-0.995779 8:-0.936469 9:-0.826011 10:-0.856525 11:-0.99177 12:-0.815691 13:-0.697183 14:-0.563218 15:-0.5 16:-0.310082 17:-1 18:-1 
-512 1:-0.690164 2:-0.131023 3:0.75344 4:-0.880569 5:-0.735927 6:-0.0868924 7:-0.994107 8:-0.937392 9:-0.807458 10:-0.374244 11:0.377229 12:0.476961 13:-0.809859 14:-0.566092 15:-0.715311 16:-0.102093 17:-0.47432 18:-0.270683 
-188.6173152508742 1:-0.979277 2:-0.858422 3:-0.776544 4:-0.93941 5:-0.776047 6:-0.494737 7:-0.998341 8:-0.979442 9:-0.874608 10:-0.650821 11:-0.445816 12:-0.315068 13:-0.765845 14:-0.514368 15:-0.700957 16:0.865568 17:-0.625378 18:-0.563052 
-490.3150336746777 1:-0.999942 2:-0.999856 3:-0.997182 4:-0.99986 5:-0.999977 6:-0.998169 7:-0.998926 8:-0.999903 9:-1 10:1 11:-0.237311 12:-0.858032 13:0.769366 14:-0.393678 15:-0.947368 16:0.264426 17:0.712387 18:1 
-276.5665879117089 1:-0.733538 2:-0.363221 3:-0.138297 4:-0.828312 5:-0.67201 6:-0.679409 7:-0.941864 8:-0.486278 9:-0.185225 10:-0.0388937 11:0.500686 12:0.16812 13:0.0616197 14:0.913793 15:0.741627 16:-0.449588 17:-0.324471 18:0.0216867 
-512 1:-0.994204 2:-0.920568 3:-0.67326 4:-0.993693 5:-0.925432 6:-0.64606 7:-0.998148 8:-0.986489 9:-0.664311 10:-0.607606 11:0.141289 12:0.544209 13:-0.522887 14:0.261494 15:0.244019 16:0.977172 17:-0.279758 18:-0.140562 
512 1:-0.610287 2:-0.555184 3:-0.579112 4:-0.624948 5:-0.545979 6:-0.583682 7:-0.786475 8:-0.40381 9:-0.366655 10:-0.61452 11:-0.160494 12:-0.00871731 13:-0.336268 14:0.390805 15:0.516746 16:-0.953075 17:-0.664048 18:-0.26747 
473.4231051269509 1:-1 2:-1 3:-1 4:-1 5:-0.999989 6:-0.99993 7:-0.999602 8:-0.999922 9:-0.999997 10:0.982714 11:0.492455 12:-0.820672 13:0.413732 14:-0.267241 15:-0.811005 16:-0.147749 17:0.29426 18:0.683534 
34.71145056698518 1:-0.998473 2:-0.966424 3:-0.720829 4:-0.992873 5:-0.919234 6:-0.298186 7:-0.998191 8:-0.998046 9:-0.79446 10:-0.407087 11:0.890261 12:0.785803 13:-0.751761 14:0.543103 15:0.696172 16:0.982245 17:0.132326 18:0.230522 
-512 1:-0.937151 2:-0.897091 3:-0.852482 4:-0.965063 5:-0.938936 6:-0.864466 7:-0.9884 8:-0.926141 9:-0.86156 10:-0.640449 11:-0.45679 12:-0.529265 13:-0.704225 14:-0.356322 15:-0.301435 16:-0.746354 17:-0.830816 18:-0.678715 
-512 1:-0.900211 2:-0.740131 3:-0.680591 4:-0.932509 5:-0.816033 6:-0.703071 7:-0.987935 8:-0.838538 9:-0.584066 10:-0.277442 11:0.451303 12:0.469489 13:-0.441901 14:0.158046 15:0.181818 16:-0.382372 17:-0.418731 18:-0.172691 
512 1:-0.981702 2:-0.942211 3:-0.618258 4:-0.979235 5:-0.94596 6:-0.764314 7:-0.999729 8:-0.998585 9:-0.953455 10:-1 11:-0.824417 12:-0.653798 13:-1 14:-0.755747 15:-0.681818 16:-0.56246 17:-0.76435 18:-0.792771 
-512 1:-0.782512 2:-0.559501 3:-0.437991 4:-0.712149 5:-0.558184 6:-0.40379 7:-0.911325 8:-0.565226 9:-0.0184115 10:-0.348315 11:0.237311 12:0.516812 13:-0.34331 14:0.310345 15:0.270335 16:-0.537096 17:-0.361934 18:-0.156627 
373.5167577617755 1:-0.958027 2:-0.831463 3:-0.725313 4:-0.97006 5:-0.876998 6:-0.734935 7:-0.997443 8:-0.932683 9:-0.679721 10:-0.431288 11:0.486968 12:0.452055 13:-0.565141 14:0.140805 15:0.196172 16:0.507926 17:-0.412689 18:-0.167871 
-20.28576004226247 1:-0.99719 2:-0.988389 3:-0.841937 4:-0.99376 5:-0.979947 6:-0.869084 7:-0.998669 8:-0.999393 9:-0.970412 10:-0.757995 11:-0.593964 12:-0.711083 13:-0.765845 14:-0.413793 15:-0.375598 16:0.666455 17:-0.225378 18:-0.620884 
-512 1:-0.998644 2:-0.994387 3:-0.89245 4:-0.998221 5:-0.994725 6:-0.876518 7:-0.998589 8:-0.999854 9:-0.98638 10:-0.559205 11:-0.673525 12:-0.200498 13:-0.52993 14:-0.606322 15:-0.480861 16:0.369689 17:0.781269 18:-0.75261 
-221.2798804835221 1:-0.97562 2:-0.52798 3:-0.239703 4:-0.977525 5:-0.798332 6:-0.235415 7:-0.998048 8:-0.960517 9:-0.461708 10:-0.529818 11:-0.100137 12:0.845579 13:-0.492958 14:0.827586 15:0.547847 16:0.961953 17:-0.0259819 18:0.203213 
131.6408095654909 1:-0.912555 2:-0.762884 3:-0.620887 4:-0.930354 5:-0.775478 6:-0.665879 7:-0.993704 8:-0.853779 9:-0.584941 10:-0.713051 11:-0.0946502 12:0.0759651 13:-0.457746 14:0.431034 15:0.674641 16:-0.407736 17:-0.639879 18:-0.248193 
398.9190548864715 1:-0.993757 2:-0.893904 3:-0.310288 4:-0.996735 5:-0.978292 6:-0.539222 7:-0.998684 8:-0.999291 9:-0.898516 10:-0.85134 11:-0.497942 12:0.392279 13:-0.721831 14:-0.0574713 15:-0.174641 16:0.500317 17:-0.0827795 18:-0.272289 
-512 1:-0.994421 2:-0.976048 3:-0.808797 4:-0.986616 5:-0.961806 6:-0.837271 7:-0.998573 8:-0.995311 9:-0.931062 10:-0.809853 11:-0.418381 12:-0.66127 13:-0.823944 14:-0.215517 15:-0.342105 16:0.833862 17:-0.697885 18:-0.636948 
115.1345195631939 1:-0.379934 2:-0.206196 3:0.0626457 4:0.271379 5:0.433109 6:0.584342 7:-0.848619 8:-0.576032 9:-0.353859 10:-0.308557 11:0.100137 12:-0.0759651 13:-0.422535 14:0.247126 15:-0.0287081 16:-0.653773 17:-0.470695 18:-0.187149 
-409.3399480595165 1:-0.575183 2:-0.472455 3:-0.134161 4:-0.843471 5:-0.826118 6:-0.670823 7:-0.931867 8:-0.756886 9:-0.651278 10:-0.244598 11:0.130316 12:-0.215442 13:-0.628521 14:-0.318966 15:-0.715311 16:-0.740013 17:-0.597583 18:-0.553414 
-440.5699208503812 1:-0.912432 2:-0.514823 3:0.517902 4:-0.961491 5:-0.850928 6:-0.212821 7:-0.998344 8:-0.981846 9:-0.865281 10:-0.524633 11:0.333333 12:0.457036 13:-0.857394 14:-0.600575 15:-0.712919 16:0.738744 17:-0.453776 18:-0.275502 
-512 1:-0.962237 2:-0.912369 3:-0.888179 4:-0.965294 5:-0.885165 6:-0.826219 7:-0.997232 8:-0.952696 9:-0.845451 10:-0.719965 11:0.0534979 12:0.466999 13:-0.540493 14:0.132184 15:-0.0550239 16:0.48383 17:-0.636254 18:-0.363855 
360.6164211649569 1:-0.927772 2:-0.614172 3:-0.223386 4:-0.950009 5:-0.801843 6:-0.7232 7:-0.994045 8:-0.813388 9:-0.39993 10:-0.0648228 11:0.525377 12:0.128269 13:-0.0897887 14:0.896552 15:0.789474 16:0.112238 17:-0.314804 18:0.0297189 
-421.6961878703124 1:-0.100629 2:0.803385 3:0.662339 4:-0.31679 5:-0.264828 6:0.14944 7:-0.718108 8:-0.255158 9:0.0919918 10:-0.367329 11:0.0781893 12:0.967621 13:-0.489437 14:0.146552 15:0.0478469 16:-0.95688 17:-0.626586 18:-0.24498 
512 1:-0.99097 2:-0.931351 3:-0.753257 4:-0.990834 5:-0.966337 6:-0.866577 7:-0.999051 8:-0.995491 9:-0.894954 10:-0.754538 11:-0.198903 12:0.125778 13:-0.857394 14:-0.359195 15:-0.401914 16:0.472416 17:-0.577039 18:-0.625703 
-512 1:-0.998182 2:-0.98925 3:-0.934153 4:-0.996817 5:-0.989199 6:-0.920189 7:-0.998948 8:-0.999718 9:-0.966718 10:-0.673293 11:-0.517147 12:0.163138 13:-0.695423 14:-0.431034 15:-0.076555 16:0.679138 17:0.290634 18:-0.593574 
512 1:-0.979348 2:-0.866588 3:-0.699735 4:-0.982382 5:-0.941648 6:-0.847535 7:-0.998762 8:-0.980415 9:-0.824945 10:-0.647364 11:-0.196159 12:0.0510585 13:-0.802817 14:-0.270115 15:-0.411483 16:0.638554 17:-0.677341 18:-0.627309 
305.8349107100124 1:-0.986366 2:-0.949603 3:-0.922094 4:-0.990504 5:-0.965459 6:-0.911334 7:-0.998541 8:-0.988711 9:-0.904744 10:-0.901469 11:-0.942387 12:-0.696139 13:-0.794014 14:-0.534483 15:-0.464115 16:0.679138 17:-0.978248 18:-0.993574 
-512 1:-0.984496 2:-0.945688 3:-0.784876 4:-0.966793 5:-0.928891 6:-0.807756 7:-0.997969 8:-0.966038 9:-0.86424 10:-0.699222 11:-0.355281 12:-0.626401 13:-0.751761 14:-0.0258621 15:-0.320574 16:0.700698 17:-0.774018 18:-0.653012 
-108.2630576313839 1:-0.905831 2:-0.584234 3:-0.0536301 4:-0.792515 5:-0.274194 6:0.340033 7:-0.995294 8:-0.888693 9:-0.55223 10:-0.315471 11:0.105624 12:-0.128269 13:-0.387324 14:0.278736 15:0.00956938 16:0.104629 17:-0.439275 18:-0.187149 
-512 1:-0.725036 2:-0.706329 3:-0.614003 4:-0.840729 5:-0.805585 6:-0.767699 7:-0.938729 8:-0.834877 9:-0.768918 10:-0.858254 11:-0.714678 12:-0.599004 13:-0.75 14:-0.612069 15:-0.760766 16:-1 17:-0.879154 18:-0.812048 
512 1:-0.954975 2:-0.818741 3:-0.775493 4:-0.932835 5:-0.778961 6:-0.661941 7:-0.993951 8:-0.864172 9:-0.483011 10:-0.495246 11:0.141289 12:0.352428 13:-0.410211 14:0.462644 15:0.5311 16:-0.103361 17:-0.463444 18:-0.158233 
512 1:-0.779079 2:-0.113596 3:0.326666 4:-0.793082 5:-0.393171 6:-0.0425366 7:-0.983413 8:-0.570903 9:0.237114 10:-0.265341 11:0.465021 12:0.641345 13:-0.362676 14:0.206897 15:-0.0741627 16:-0.449588 17:-0.539577 18:-0.33012 
512 1:-0.991016 2:-0.83618 3:-0.433532 4:-0.989466 5:-0.895925 6:-0.231166 7:-0.998529 8:-0.993186 9:-0.844357 10:-0.662921 11:-0.314129 12:0.222914 13:-0.737676 14:-0.382184 15:-0.476077 16:0.784401 17:-0.608459 18:-0.479518 
337.0473285888149 1:0.179468 2:0.414908 3:1 4:-0.58878 5:-0.561321 6:0.0557147 7:-0.920251 8:-0.832553 9:-0.747593 10:-0.280899 11:0.366255 12:0.454545 13:-0.760563 14:-0.560345 15:-0.727273 16:-0.662651 17:-0.481571 18:-0.280321 
512 1:-0.997081 2:-0.980162 3:-0.905435 4:-0.9966 5:-0.98119 6:-0.845335 7:-0.998465 8:-0.999185 9:-0.920978 10:-0.780467 11:-0.363512 12:0.387298 13:-0.623239 14:0.313218 15:0.5 16:0.743817 17:0.0827795 18:-0.169478 
-512 1:-0.999762 2:-0.999113 3:-0.984488 4:-0.999581 5:-0.999007 6:-0.983317 7:-0.999502 8:-0.999907 9:-0.999947 10:-0.144339 11:-0.816187 12:-0.932752 13:-0.202465 14:-0.770115 15:-0.913876 16:-0.162968 17:0.45136 18:0.102008 
10.60320319988127 1:0.814009 2:0.173691 3:-0.0529245 4:0.150539 5:-0.393738 6:-0.619119 7:1 8:0.735368 9:0.135029 10:-0.0700086 11:0.445816 12:0.240349 13:0.0457746 14:0.887931 15:0.65311 16:-0.556119 17:-0.331722 18:0.015261 
512 1:-0.992899 2:-0.959847 3:-0.861438 4:-0.983811 5:-0.915463 6:-0.668547 7:-0.999041 8:-0.995732 9:-0.935388 10:-0.778738 11:-0.508916 12:-0.32254 13:-0.827465 14:-0.531609 15:-0.4689 16:0.585289 17:-0.767976 18:-0.807229 
-181.5939081846196 1:-0.99707 2:-0.984734 3:-0.656405 4:-0.998132 5:-0.983884 6:-0.684588 7:-0.998783 8:-0.999851 9:-0.978257 10:-0.740709 11:-0.486968 12:-0.372354 13:-0.496479 14:0.0948276 15:0.210526 16:0.731135 17:0.945619 18:-0.142169 
-475.3408272002421 1:-0.961408 2:-0.794439 3:-0.226648 4:-0.977153 5:-0.927428 6:-0.692805 7:-0.99828 8:-0.961377 9:-0.792737 10:-0.280899 11:0.22085 12:-0.315068 13:-0.737676 14:-0.33046 15:-0.717703 16:0.396322 17:-0.58429 18:-0.55502 
512 1:-0.959034 2:-0.798776 3:-0.664291 4:-0.971334 5:-0.917358 6:-0.835713 7:-0.998057 8:-0.9529 9:-0.766941 10:-0.573034 11:-0.21262 12:-0.00871731 13:-0.732394 14:-0.232759 15:-0.433014 16:0.643627 17:-0.701511 18:-0.627309 
7.212568286837238 1:-0.971956 2:-0.872671 3:-0.791273 4:-0.971393 5:-0.902126 6:-0.76849 7:-0.997976 8:-0.957214 9:-0.833836 10:-0.439931 11:0.146776 12:0.384807 13:-0.637324 14:-0.20977 15:-0.263158 16:0.327838 17:-0.753474 18:-0.653012 
-512 1:-0.988467 2:-0.943711 3:-0.845835 4:-0.983006 5:-0.952675 6:-0.831976 7:-0.998735 8:-0.988159 9:-0.850491 10:-0.825411 11:-0.38546 12:0.0261519 13:-0.827465 14:-0.20977 15:-0.069378 16:0.823716 17:-0.732931 18:-0.601606 
-400.2599807515377 1:-0.990781 2:-0.94173 3:-0.153989 4:-0.994883 5:-0.976729 6:-0.554266 7:-0.998929 8:-0.999767 9:-0.974404 10:-0.865169 11:-0.0617284 12:0.17061 13:-0.838028 14:-0.758621 15:-0.744019 16:0.661382 17:0.500906 18:-0.404016 
-64.14529207365132 1:-0.968899 2:-0.688235 3:-0.395143 4:-0.915832 5:-0.38777 6:0.414274 7:-0.997158 8:-0.855929 9:0.00166155 10:-0.0613656 11:1 12:0.952677 13:-0.214789 14:0.982759 15:0.95933 16:0.822448 17:-0.141994 18:0.238554 
-512 1:-0.948043 2:-0.863061 3:-0.82682 4:-0.915277 5:-0.751974 6:-0.586854 7:-0.99281 8:-0.936833 9:-0.842067 10:-0.624892 11:-0.541838 12:-0.317559 13:-0.721831 14:-0.591954 15:-0.5311 16:-0.472416 17:-0.8429 18:-0.816867 
512 1:-0.926986 2:-0.460814 3:0.171367 4:-0.933383 5:-0.635218 6:-0.164253 7:-0.997141 8:-0.838626 9:-0.0897738 10:-0.365601 11:0.454047 12:0.606476 13:-0.443662 14:0.192529 15:-0.0909091 16:0.292327 17:-0.535952 18:-0.333333 
221.3561552111772 1:-0.59629 2:0.128692 3:0.410393 4:-0.615382 5:-0.220006 6:0.024978 7:-0.946858 8:-0.314357 9:0.428332 10:-0.237684 11:0.465021 12:0.651308 13:-0.339789 14:0.20977 15:-0.069378 16:-0.638554 17:-0.540785 18:-0.331727 
-512 1:-0.998853 2:-0.996175 3:-0.93694 4:-0.998738 5:-0.995818 6:-0.929708 7:-0.999332 8:-0.999903 9:-0.998043 10:-0.592048 11:-0.8738 12:-0.718555 13:-0.572183 14:-0.833333 15:-0.65311 16:0.0450222 17:0.72568 18:-0.596787 
512 1:-0.923362 2:-0.800215 3:-0.779299 4:-0.924809 5:-0.842342 6:-0.747704 7:-0.989548 8:-0.884552 9:-0.774142 10:-0.3293 11:0.119342 12:0.377335 13:-0.570423 14:-0.241379 15:-0.291866 16:-0.603044 17:-0.755891 18:-0.657831 
-512 1:-0.756331 2:-0.789334 3:-0.86926 4:-0.946751 5:-0.941124 6:-0.940475 7:-0.960983 8:-0.896708 9:-0.892343 10:-0.375972 11:0.133059 12:0.466999 13:-0.471831 14:-0.20977 15:-0.363636 16:-0.628408 17:-0.621752 18:-0.373494 
89.19367066557965 1:-0.862031 2:-0.0807108 3:0.393992 4:-0.90695 5:-0.653304 6:-0.0429721 7:-0.99317 8:-0.824613 9:-0.269823 10:-0.419188 11:0.0617284 12:0.92279 13:-0.521127 14:0.137931 15:0.0406699 16:-0.37603 17:-0.616918 18:-0.246586 
12.41297195694083 1:-0.850783 2:-0.833624 3:-0.893416 4:-0.766347 5:-0.747478 6:-0.791121 7:-0.89415 8:-0.759752 9:-0.747831 10:-0.443388 11:-0.0507545 12:0.267746 13:-0.415493 14:0.0689655 15:-0.136364 16:-0.789474 17:-0.64713 18:-0.3751 
-512 1:-0.966484 2:-0.828494 3:-0.6025 4:-0.961319 5:-0.861808 6:-0.566723 7:-0.996589 8:-0.929255 9:-0.560317 10:-0.764909 11:-0.676269 12:-0.529265 13:-0.771127 14:-0.474138 15:-0.598086 16:0.0450222 17:-0.891239 18:-0.863454 
165.9811533609495 1:-0.992899 2:-0.939181 3:-0.817611 4:-0.976482 5:-0.886653 6:-0.55464 7:-0.99864 8:-0.995883 9:-0.92333 10:-0.706137 11:-0.371742 12:-0.272727 13:-0.81338 14:-0.494253 15:-0.677033 16:0.902346 17:-0.503323 18:-0.574297 
-512 1:-0.959797 2:-0.875981 3:-0.780959 4:-0.943957 5:-0.895398 6:-0.758141 7:-0.994491 8:-0.922353 9:-0.733331 10:-0.694036 11:-0.352538 12:-0.0684932 13:-0.730634 14:-0.152299 15:-0.0885167 16:-0.441978 17:-0.792145 18:-0.603213 
512 1:-0.994278 2:-0.956815 3:-0.865044 4:-0.993271 5:-0.953972 6:-0.788877 7:-0.998396 8:-0.994607 9:-0.828191 10:-0.809853 11:-0.133059 12:0.377335 13:-0.65493 14:0.462644 15:0.564593 16:0.81357 17:-0.322054 18:-0.161446 
-512 1:-0.940906 2:-0.730359 3:-0.51264 4:-0.926866 5:-0.733589 6:-0.480547 7:-0.992376 8:-0.832812 9:-0.249544 10:-0.420916 11:0.242798 12:0.529265 13:-0.383803 14:0.318966 15:0.270335 16:0.0361446 17:-0.346224 18:-0.151807 
-512 1:-0.994402 2:-0.96139 3:-0.744235 4:-0.993218 5:-0.967146 6:-0.715798 7:-0.998519 8:-0.997873 9:-0.86079 10:-0.802939 11:-0.566529 12:-0.342466 13:-0.806338 14:-0.445402 15:-0.502392 16:0.525682 17:-0.655589 18:-0.84257 
512 1:-0.999697 2:-0.997912 3:-0.987645 4:-0.999705 5:-0.999453 6:-0.986704 7:-0.999212 8:-0.999902 9:-0.999979 10:0.294728 11:-0.953361 12:-0.815691 13:0.00880282 14:-0.704023 15:-0.899522 16:0.164236 17:0.578248 18:0.738153 
33.71497364664779 1:-0.999295 2:-0.997616 3:-0.969054 4:-0.999416 5:-0.999203 6:-0.964895 7:-0.998872 8:-0.999867 9:-0.999752 10:-0.362143 11:-0.978052 12:-0.833126 13:0.0651408 14:-0.626437 15:-0.873206 16:0.31896 17:0.730514 18:-0.37992 
-512 1:-0.912613 2:-0.860658 3:-0.885629 4:-0.974014 5:-0.95478 6:-0.941331 7:-0.994988 8:-0.953416 9:-0.913268 10:-0.420916 11:0.196159 12:0.638854 13:-0.639085 14:-0.241379 15:-0.332536 16:-0.0564363 17:-0.610876 18:-0.373494 
512 1:-0.996128 2:-0.979389 3:-0.568771 4:-0.99677 5:-0.984063 6:-0.712181 7:-0.99869 8:-0.999798 9:-0.948884 10:-0.757995 11:-0.193416 12:0.0684932 13:-0.746479 14:-0.41092 15:-0.368421 16:0.421687 17:0.735347 18:-0.310843 
47.5360831402275 1:-0.219775 2:1 3:0.174255 4:-0.157492 5:0.0682291 6:0.20907 7:-0.744174 8:-0.00858845 9:0.451382 10:0.121867 11:0.127572 12:0.967621 13:-0.00528169 14:0.951149 15:0.626794 16:-0.316424 17:-0.0839879 18:0.224096 
512 1:-0.923504 2:-0.633905 3:-0.251141 4:-0.875805 5:-0.313445 6:0.246591 7:-0.995068 8:-0.859687 9:-0.467163 10:-0.488332 11:0.0891632 12:0.175592 13:-0.471831 14:0.135057 15:0.255981 16:0.173114 17:-0.561329 18:-0.339759 
-451.6040406252488 1:-0.961126 2:-0.860833 3:-0.653559 4:-0.97414 5:-0.879619 6:-0.720124 7:-0.998376 8:-0.960179 9:-0.730857 10:-0.844425 11:-0.14952 12:0.0784558 13:-0.663732 14:0.413793 15:0.688995 16:0.577679 17:-0.619335 18:-0.225703 
182.8927763955315 1:-0.904947 2:-0.828111 3:-0.81614 4:-0.776892 5:-0.783197 6:-0.688156 7:-0.957442 8:-0.847238 9:-0.815702 10:-0.583405 11:-0.429355 12:-0.344956 13:-0.72007 14:-0.321839 15:-0.315789 16:-0.823716 17:-0.869486 18:-0.651406 
512 1:-0.993438 2:-0.959499 3:-0.872662 4:-0.981816 5:-0.939529 6:-0.72705 7:-0.998896 8:-0.996275 9:-0.938744 10:-0.783924 11:-0.377229 12:-0.24533 13:-0.860915 14:-0.396552 15:-0.303828 16:0.69182 17:-0.700302 18:-0.636948 
512 1:-0.994755 2:-0.980381 3:-0.88784 4:-0.995173 5:-0.985546 6:-0.876432 7:-0.999094 8:-0.999058 9:-0.96734 10:-0.820225 11:-0.558299 12:-0.58406 13:-0.818662 14:-0.517241 15:-0.406699 16:0.355739 17:-0.417523 18:-0.661044 
-512 1:-0.999745 2:-0.999599 3:-0.989735 4:-0.999845 5:-0.999417 6:-0.991942 7:-0.999482 8:-0.999924 9:-0.999987 10:0.431288 11:-0.544582 12:-0.823163 13:-0.0510563 14:-0.770115 15:-0.942584 16:-0.00317058 17:0.586707 18:0.428112 
451.3890220956451 1:-0.998146 2:-0.991663 3:-0.889875 4:-0.99805 5:-0.993673 6:-0.925047 7:-0.999379 8:-0.999896 9:-0.989345 10:-0.650821 11:-0.489712 12:0.115816 13:-0.744718 14:-0.715517 15:-0.5311 16:0.022194 17:0.672508 18:-0.590361 
-512 1:-0.970379 2:-0.920258 3:-0.901426 4:-0.985661 5:-0.968124 6:-0.942912 7:-0.998658 8:-0.985301 9:-0.938576 10:-0.529818 11:0.256516 12:0.686177 13:-0.795775 14:-0.33046 15:-0.351675 16:0.780596 17:-0.575831 18:-0.373494 
283.08231585855 1:-0.999816 2:-0.998921 3:-0.992178 4:-0.999367 5:-0.998451 6:-0.980524 7:-0.999055 8:-0.999897 9:-0.999511 10:0.171997 11:-0.890261 12:0.0261519 13:-0.160211 14:-0.747126 15:-0.504785 16:0.468611 17:0.815106 18:-0.208032 
-512 1:-0.966797 2:-0.91952 3:-0.887471 4:-0.971453 5:-0.896998 6:-0.830581 7:-0.997693 8:-0.962399 9:-0.856492 10:-0.75108 11:0.0397805 12:0.449564 13:-0.568662 14:0.135057 15:-0.0502392 16:0.689283 17:-0.633837 18:-0.362249 
-120.3182920214637 1:-0.998883 2:-0.990618 3:-0.874644 4:-0.998761 5:-0.992443 6:-0.860292 7:-0.998371 8:-0.999784 9:-0.957797 10:-0.446845 11:-0.44856 12:0.479452 13:-0.299296 14:-0.221264 15:0.129187 16:0.922638 17:0.906949 18:-0.0714859 
-295.8311785825848 1:-0.998626 2:-0.99323 3:-0.934476 4:-0.995224 5:-0.984321 6:-0.828096 7:-0.999125 8:-0.999868 9:-0.992343 10:-0.635264 11:-0.648834 12:-0.337484 13:-0.774648 14:-0.689655 15:-0.42823 16:0.443247 17:0.834441 18:-0.567871 
512 1:-0.996132 2:-0.979229 3:-0.542581 4:-0.997364 5:-0.989303 6:-0.804746 7:-0.99905 8:-0.999724 9:-0.968145 10:-0.775281 11:0.0315501 12:-0.479452 13:-0.71831 14:-0.597701 15:-0.779904 16:0.444515 17:0.249547 18:-0.574297 
512 1:-0.991472 2:-0.946581 3:-0.822012 4:-0.9926 5:-0.961449 6:-0.813077 7:-0.99886 8:-0.994574 9:-0.918508 10:-0.728608 11:0.0534979 12:0.32005 13:-0.732394 14:-0.201149 15:-0.251196 16:0.39759 17:-0.696677 18:-0.641767 
436.0396084357288 1:-0.97959 2:-0.646649 3:0.0659074 4:-0.988352 5:-0.891181 6:-0.276806 7:-0.998475 8:-0.981936 9:-0.644763 10:-0.692308 11:-0.100137 12:0.745953 13:-0.658451 14:0.0804598 15:-0.0239234 16:0.575143 17:-0.589124 18:-0.253012 
-380.3139617223083 1:-0.936548 2:-0.681831 3:-0.488364 4:-0.922084 5:-0.717431 6:-0.475588 7:-0.99366 8:-0.777348 9:-0.0564714 10:-0.351772 11:0.415638 12:0.374844 13:-0.43662 14:0.554598 15:0.349282 16:-0.122384 17:-0.450151 18:-0.15502 
512 1:-0.98134 2:-0.858967 3:-0.276952 4:-0.986606 5:-0.948083 6:-0.708364 7:-0.998743 8:-0.982113 9:-0.837871 10:-0.3535 11:0.251029 12:-0.337484 13:-0.771127 14:-0.359195 15:-0.722488 16:0.534559 17:-0.570997 18:-0.556627 
512 1:-0.686808 2:-0.520473 3:-0.589212 4:-0.850153 5:-0.824912 6:-0.812357 7:-0.918422 8:-0.716794 9:-0.606879 10:-0.507347 11:-0.300412 12:-0.185554 13:-0.521127 14:-0.244253 15:-0.545455 16:-0.750159 17:-0.707553 18:-0.625703 
-126.5599410367029 1:-0.975984 2:-0.796568 3:-0.363697 4:-0.962432 5:-0.603684 6:0.0812807 7:-0.99789 8:-0.95794 9:-0.641148 10:-0.583405 11:0.037037 12:0.178082 13:-0.573944 14:0.0632184 15:0.210526 16:0.972099 17:-0.556495 18:-0.338153 
512 1:-0.8715 2:-0.761357 3:-0.776866 4:-0.87989 5:-0.809694 6:-0.741079 7:-0.970429 8:-0.830167 9:-0.747762 10:-0.327571 11:0.0891632 12:0.3599 13:-0.549296 14:-0.255747 15:-0.311005 16:-0.805961 17:-0.754683 18:-0.659438 
-53.38273233286636 1:-0.24594 2:0.0859232 3:-0.136768 4:0.721269 5:1 6:1 7:-0.559758 8:0.495753 9:1 10:0.0458081 11:0.898491 12:1 13:0.0316901 14:0.988506 15:0.997608 16:-0.481294 17:-0.190332 18:0.243373 
512 1:-0.998834 2:-0.997098 3:-0.936242 4:-0.999427 5:-0.998667 6:-0.970734 7:-0.998915 8:-0.999856 9:-0.99957 10:-0.426102 11:-0.906722 12:-0.765878 13:-0.0915493 14:-0.732759 15:-0.677033 16:0.369689 17:0.801813 18:-0.35743 
175.8523222450686 1:-0.996566 2:-0.991361 3:-0.757668 4:-0.996655 5:-0.989655 6:-0.850962 7:-0.99995 8:-0.999985 9:-0.998245 10:-0.904927 11:-0.99177 12:-0.830635 13:-0.93838 14:-0.971264 15:-0.842105 16:-0.680406 17:-0.260423 18:-0.765462 
512 1:-0.988875 2:-0.927843 3:-0.794659 4:-0.990037 5:-0.944482 6:-0.791283 7:-0.998619 8:-0.988443 9:-0.819168 10:-0.647364 11:0.486968 12:0.43462 13:-0.734155 14:0.0948276 15:0.186603 16:0.916297 17:-0.376435 18:-0.15502 
87.88881756658296 1:-0.766435 2:-0.188822 3:-0.107024 4:-0.757901 5:-0.448043 6:0.223359 7:-0.981817 8:-0.791791 9:-0.518915 10:-0.476232 11:-0.21262 12:0.272727 13:-0.646127 14:-0.321839 15:-0.471292 16:-0.601776 17:-0.691843 18:-0.48755 
