svm_type nu_svr
kernel_type rbf
gamma 0.0555556
nr_class 2
total_sv 97
rho -34.0383
probA 3.74053
SV
-68.9271804107575 1:-0.980957 2:-0.86936 3:-0.610548 4:-0.981159 5:-0.874878 6:-0.55658 7:-0.988021 8:-0.958812 9:-0.626443 10:-0.495632 11:-0.80554 12:-0.808564 13:-0.440469 14:-0.863473 15:-0.886598 16:0.293471 17:-0.703436 18:-0.840741 
512 1:-0.980772 2:-0.981882 3:-0.874539 4:-0.980177 5:-0.948747 6:-0.829883 7:-0.985001 8:-0.97268 9:-0.906484 10:-0.0483401 11:-0.498021 12:-0.730479 13:0.00410557 14:-0.439521 15:-0.634021 16:0.520275 17:-0.439421 18:-0.617284 
89.89930731572186 1:-0.622503 2:-0.521696 3:-0.759687 4:-0.616672 5:-0.450265 6:-0.587861 7:-0.641602 8:-0.574979 9:-0.267394 10:0.767036 11:0.47541 12:0.144836 13:0.632845 14:0.250299 15:0.0451031 16:0.693471 17:0.635925 18:0.276543 
-512 1:-0.962648 2:-0.740844 3:-0.48452 4:-0.957811 5:-0.713701 6:-0.431562 7:-0.987525 8:-0.906568 9:-0.352417 10:-0.430402 11:-0.432448 12:-0.240554 13:-0.521408 14:-0.583234 15:-0.399485 16:0.191753 17:-0.3044 18:-0.354321 
-116.8499257340059 1:-0.669986 2:-0.321304 3:-0.1924 4:-0.649789 5:0.0362329 6:0.355941 7:-0.724925 8:-0.626728 9:-0.288098 10:0.647059 11:0.0695308 12:-0.244332 13:0.540176 14:-0.252695 15:-0.204897 16:0.75945 17:0.520193 18:-0.0222222 
512 1:-0.957578 2:-0.87291 3:-0.719915 4:-0.974924 5:-0.897718 6:-0.826004 7:-0.985856 8:-0.973299 9:-0.898632 10:-0.805475 11:-0.777275 12:-0.779597 13:-0.656305 14:-0.916168 15:-0.963918 16:-0.289347 17:-0.641953 18:-0.745679 
-512 1:-0.991195 2:-0.992734 3:-0.878211 4:-0.990981 5:-0.958624 6:-0.834419 7:-0.995637 8:-0.983175 9:-0.913067 10:-0.527082 11:-0.642736 12:-0.764484 13:-0.485044 14:-0.613174 15:-0.671392 16:-0.127148 17:-0.693791 18:-0.718519 
394.3244533537654 1:-0.900586 2:-0.2305 3:-0.0589969 4:-0.929878 5:-0.506126 6:0.343536 7:-0.992263 8:-0.930282 9:-0.662203 10:-0.756552 11:-0.65065 12:-0.356423 13:-0.895601 14:-0.863473 15:-0.800258 16:-0.540893 17:-0.654008 18:-0.593827 
-495.3022169081955 1:-0.929807 2:-0.372479 3:0.218167 4:-0.927919 5:-0.447995 6:0.911371 7:-0.993776 8:-0.947912 9:-0.675037 10:-0.926616 11:-0.756925 12:-0.617128 13:-0.928446 14:-0.865868 15:-0.818299 16:-0.534021 17:-0.662447 18:-0.638272 
372.4593958451549 1:0.273713 2:0.597798 3:-0.176476 4:0.251894 5:0.339556 6:-0.19279 7:0.231845 8:0.263146 9:0.343032 10:0.889342 11:0.659695 12:0.799748 13:0.868622 14:0.846707 15:0.479381 16:0.905155 17:0.869801 18:0.777778 
-512 1:-0.839697 2:0.399708 3:0.124089 4:-0.854477 5:-0.264269 6:0.178458 7:-0.934796 8:-0.74363 9:-0.016636 10:0.114735 11:-0.448276 12:0.02267 13:0.028739 14:-0.239521 15:-0.175258 16:0.616495 17:0.134418 18:-0.00740741 
-512 1:-0.869743 2:-0.765797 3:-0.593751 4:-0.871241 5:-0.773818 6:-0.530412 7:-0.876098 8:-0.852709 9:-0.525128 10:0.684333 11:-0.297908 12:-0.661209 13:0.68563 14:-0.243114 15:-0.725515 16:0.824055 17:0.322483 18:-0.493827 
294.9118571202379 1:-0.893728 2:-0.229119 3:-0.0618453 4:-0.922657 5:-0.503682 6:0.332586 7:-0.984408 8:-0.92379 9:-0.654715 10:-0.623762 11:-0.622386 12:-0.350126 13:-0.744282 14:-0.823952 15:-0.791237 16:0.0900344 17:-0.521398 18:-0.539506 
-512 1:-0.882286 2:0.424327 3:0.15675 4:-0.899102 5:-0.288846 6:0.202008 7:-0.982996 8:-0.785203 9:-0.0295604 10:-0.336051 11:-0.511588 12:-0.00125945 13:-0.468622 14:-0.348503 15:-0.21134 16:-0.117526 17:-0.11513 18:-0.0777778 
512 1:0.982243 2:0.966247 3:-0.49179 4:0.998914 5:0.901969 6:-0.172187 7:0.988229 8:0.974079 9:0.879545 10:0.952242 11:0.891464 12:0.925693 13:0.973021 14:0.983234 15:0.684278 16:0.940893 17:0.971067 18:0.807407 
91.59009846905842 1:-0.856383 2:-0.81466 3:-0.906287 4:-0.892437 5:-0.89485 6:-0.961566 7:-0.890998 8:-0.896143 9:-0.897999 10:0.520093 11:0.139627 12:0.0768262 13:0.764223 14:0.441916 15:-0.068299 16:0.810309 17:0.657625 18:0.395062 
-512 1:-0.992249 2:-0.992618 3:-0.99776 4:-0.992038 5:-0.961624 6:-0.957432 7:-0.992245 8:-0.986939 9:-0.911775 10:-0.440885 11:-0.906162 12:-0.952141 13:-0.180059 14:-0.851497 15:-0.811856 16:0.371821 17:-0.799879 18:-0.922222 
512 1:1 2:0.931432 3:-0.432192 4:0.992817 5:1 6:-0.251252 7:0.983723 8:0.9593 9:0.941745 10:0.969715 11:1 12:0.734257 13:0.96129 14:1 15:0.900773 16:0.960137 17:1 18:0.901235 
-512 1:0.613205 2:0.616668 3:-0.546512 4:0.627101 5:0.591519 6:-0.331524 7:0.616645 8:0.617648 9:0.69452 10:0.920792 11:0.929904 12:0.88539 13:0.909677 14:0.962874 15:0.936856 16:0.934021 17:0.89994 18:0.925926 
-512 1:-0.890082 2:-0.867451 3:-0.776351 4:-0.889703 5:-0.824883 6:-0.704244 7:-0.897175 8:-0.879574 9:-0.73641 10:0.47583 11:-0.0322216 12:-0.406801 13:0.453372 14:-0.102994 15:-0.386598 16:0.649485 17:0.142857 18:-0.275309 
512 1:-0.80453 2:-0.629791 3:-0.637445 4:-0.820027 5:-0.59963 6:-0.593564 7:-0.851752 8:-0.747778 9:-0.513275 10:0.167152 11:-0.192764 12:-0.375315 13:0.424047 14:-0.0994012 15:-0.125 16:0.637113 17:0.0596745 18:-0.0555556 
512 1:-0.786882 2:0.306096 3:0.595094 4:-0.846165 5:-0.46489 6:0.0970476 7:-0.918707 8:-0.770011 9:-0.247186 10:-0.266162 11:-0.447145 12:0.0277078 13:-0.266862 14:-0.481437 15:-0.454897 16:0.183505 17:-0.268234 18:-0.31358 
298.8814962136239 1:-0.346422 2:-0.122945 3:-0.476325 4:-0.345019 5:-0.15296 6:-0.36303 7:-0.374942 8:-0.255346 9:0.229553 10:0.796156 11:0.562465 12:0.185139 13:0.768915 14:0.588024 15:0.255155 16:0.778694 17:0.809524 18:0.444444 
512 1:-0.825902 2:0.320794 3:0.658866 4:-0.886473 5:-0.487248 6:0.142224 7:-0.963257 8:-0.811249 9:-0.259871 10:-0.588818 11:-0.512719 12:0.011335 13:-0.663343 14:-0.621557 15:-0.493557 16:-0.512027 17:-0.545509 18:-0.393827 
-512 1:-0.949642 2:-0.732609 3:-0.490984 4:-0.944637 5:-0.703756 6:-0.433124 7:-0.97402 8:-0.89356 9:-0.348801 10:-0.140361 11:-0.372527 12:-0.232997 13:-0.235191 14:-0.522156 15:-0.362113 16:0.546392 17:-0.144063 18:-0.32963 
-512 1:-0.71319 2:-0.493493 3:-0.617137 4:-0.749135 5:-0.690113 6:-0.788096 7:-0.76107 8:-0.721819 9:-0.564213 10:0.592312 11:-0.0186546 12:-0.2267 13:0.771261 14:0.360479 15:-0.212629 16:0.75945 17:0.644364 18:0.193827 
-512 1:0.66148 2:0.631092 3:-0.535729 4:0.656971 5:0.602808 6:-0.339847 7:0.667476 8:0.662106 9:0.681488 10:0.980198 11:0.908423 12:0.837531 13:0.944868 14:0.88024 15:0.95232 16:0.945017 17:0.936106 18:0.95679 
512 1:-0.936506 2:-0.800345 3:-0.791943 4:-0.927962 5:-0.710496 6:-0.634933 7:-0.96294 8:-0.869659 9:-0.500579 10:-0.386139 11:-0.365743 12:-0.254408 13:-0.48739 14:-0.506587 15:-0.284794 16:-0.245361 17:-0.342978 18:-0.276543 
153.3430528150814 1:-0.361278 2:0.0224188 3:-0.321763 4:-0.304009 5:0.391485 6:0.499363 7:-0.413914 8:-0.246815 9:0.408 10:0.726267 11:0.449406 12:0.24937 13:0.710264 14:0.282635 15:0.251289 16:0.71134 17:0.635925 18:0.509877 
-299.2511412657036 1:-0.838076 2:-0.073253 3:0.957427 4:-0.952885 5:-0.74632 6:0.0192763 7:-0.983316 8:-0.977589 9:-0.889983 10:-0.499126 11:-0.381572 12:-0.261965 13:-0.68563 14:-0.898204 15:-0.925258 16:0.558763 17:-0.0825799 18:-0.303704 
131.2090577294344 1:-0.92295 2:-0.7078 3:-0.772406 4:-0.899929 5:-0.591206 6:-0.471182 7:-0.960724 8:-0.943501 9:-0.879633 10:-0.254514 11:-0.65065 12:-0.68262 13:-0.551906 14:-0.888623 15:-0.935567 16:0.671478 17:-0.0102471 18:-0.369136 
-512 1:0.977334 2:0.948417 3:-0.449862 4:0.971629 5:0.935662 6:-0.253464 7:0.992103 8:0.945898 9:1 10:0.969715 11:0.938949 12:0.933249 13:0.97654 14:0.803593 15:0.905928 16:0.994502 17:0.931284 18:0.965432 
-512 1:-0.954628 2:-0.7346 3:-0.776045 4:-0.931471 5:-0.619978 6:-0.475437 7:-0.9926 8:-0.975034 9:-0.910451 10:-0.815958 11:-0.788581 12:-0.724181 13:-0.969501 14:-1 15:-0.981959 16:-0.334708 17:-0.593731 18:-0.617284 
-512 1:-0.0355326 2:0.539246 3:-0.229784 4:-0.0426492 5:0.200751 6:-0.105491 7:-0.0794691 8:0.00705796 9:0.356262 10:0.825277 11:0.329565 12:0.390428 13:0.855718 14:0.716168 15:0.563144 16:0.802062 17:0.984328 18:0.658025 
-512 1:-0.91373 2:-0.480068 3:-0.109395 4:-0.888913 5:-0.0587271 6:0.482212 7:-0.978595 8:-0.864078 9:-0.464856 10:-0.555038 11:-0.486716 12:-0.411839 13:-0.594135 14:-0.658683 15:-0.384021 16:0.0405498 17:-0.473177 18:-0.467901 
-203.8867764563794 1:-0.323705 2:0.330742 3:0.144606 4:-0.358633 5:0.0564578 6:-0.0751477 7:-0.43532 8:-0.241423 9:0.380246 10:0.622598 11:0.287733 12:0.144836 13:0.65044 14:0.231138 15:-0.100515 16:0.693471 17:0.535865 18:0.2 
512 1:-0.485649 2:0.335464 3:0.289517 4:-0.529852 5:-0.254187 6:0.00647483 7:-0.581271 8:-0.480846 9:-0.107675 10:0.576005 11:-0.093273 12:0.221662 13:0.614076 14:0.173653 15:-0.170103 16:0.656357 17:0.581676 18:0.203704 
-512 1:0.98362 2:0.942866 3:-0.460686 4:0.993837 5:0.903439 6:-0.259009 7:0.994853 8:0.970429 9:0.93985 10:0.974374 11:0.891464 12:0.871537 13:0.990616 14:0.994012 15:0.903351 16:0.975258 17:0.946956 18:0.844444 
-85.08634081685361 1:-0.98247 2:-0.96912 3:-0.978404 4:-0.974538 5:-0.863279 6:-0.842347 7:-0.992818 8:-0.967389 9:-0.89416 10:-0.658707 11:-0.590729 12:-0.450882 13:-0.713783 14:-0.698204 15:-0.614691 16:-0.529897 17:-0.61302 18:-0.496296 
512 1:-0.891685 2:-0.614692 3:-0.238257 4:-0.961868 5:-0.887714 6:-0.746169 7:-0.975844 8:-0.937156 9:-0.801403 10:-0.401281 11:-0.432448 12:-0.525189 13:-0.422874 14:-0.704192 15:-0.882732 16:0.178007 17:-0.317661 18:-0.523457 
-512 1:0.98048 2:1 3:-0.449527 4:0.973587 5:0.90518 6:-0.259085 7:0.999307 8:1 9:0.900933 10:0.956902 11:0.903901 12:0.925693 13:0.970674 14:0.902994 15:0.953608 16:1 17:0.901145 18:0.824691 
512 1:0.993366 2:0.95723 3:-0.477294 4:0.995306 5:0.897848 6:-0.263683 7:1 8:0.964478 9:0.948522 10:0.979033 11:0.875636 12:0.798489 13:0.963636 14:0.82994 15:0.95232 16:0.973883 17:0.94575 18:0.888889 
-211.0563051297621 1:-0.84958 2:-0.068151 3:1 4:-0.965029 5:-0.749171 6:0.0366809 7:-0.997258 8:-0.990567 9:-0.901772 10:-0.663366 11:-0.420011 12:-0.269521 13:-1 14:-0.971257 15:-0.938144 16:-0.294845 17:-0.433394 18:-0.435802 
-484.9916778704533 1:-0.0947778 2:0.0938107 3:-0.254746 4:-0.0657504 5:0.338824 6:0.105711 7:-0.148934 8:-0.122984 9:0.00135397 10:0.828771 11:0.673262 12:0.0503778 13:0.772434 14:0.512575 15:0.0180412 16:0.785567 17:0.861362 18:0.801235 
-46.86652662558621 1:-0.893297 2:-0.473416 3:-0.128329 4:-0.867913 5:-0.0568449 6:0.458459 7:-0.956938 8:-0.843472 9:-0.453817 10:-0.301107 11:-0.418881 12:-0.389169 13:-0.370088 14:-0.608383 15:-0.360825 16:0.487285 17:-0.3044 18:-0.437037 
-307.9631461747402 1:-0.989053 2:-0.996665 3:-0.930953 4:-1 5:-0.98285 6:-0.936101 7:-0.998127 8:-0.997948 9:-0.965477 10:-0.77053 11:-0.72866 12:-0.721662 13:-0.616422 14:-0.835928 15:-0.699742 16:-0.573883 17:-0.770946 18:-0.719753 
73.04887578732209 1:-0.965827 2:-0.966632 3:-0.992018 4:-0.965142 5:-0.936525 6:-0.946115 7:-0.96569 8:-0.959957 9:-0.886362 10:0.267327 11:-0.701526 12:-0.845088 13:0.482698 14:-0.54012 15:-0.655928 16:0.72921 17:-0.352622 18:-0.765432 
184.3096807530824 1:-0.856413 2:-0.856738 3:-0.964017 4:-0.857015 5:-0.834899 6:-0.910691 7:-0.855952 8:-0.853331 9:-0.769292 10:0.762376 11:-0.158847 12:-0.539043 13:0.809971 14:0.155689 15:-0.305412 16:0.80756 17:0.375527 18:-0.312346 
49.40034868396696 1:-0.965678 2:-0.953119 3:-0.97372 4:-0.958054 5:-0.849137 6:-0.836223 7:-0.976567 8:-0.951418 9:-0.879712 10:-0.157833 11:-0.41662 12:-0.365239 13:-0.260997 14:-0.561677 15:-0.534794 16:0.37732 17:-0.310428 18:-0.34321 
512 1:-0.764547 2:0.211654 3:0.530293 4:-0.805129 5:-0.181479 6:0.133775 7:-0.930337 8:-0.633177 9:0.219717 10:-0.295282 11:-0.285472 12:-0.138539 13:-0.325513 14:-0.518563 15:-0.515464 16:0.228866 17:-0.316456 18:-0.379012 
-34.06482357284616 1:-0.829991 2:-0.665023 3:-0.656779 4:-0.846942 5:-0.735108 6:-0.684422 7:-0.861065 8:-0.808051 9:-0.589969 10:0.559697 11:0.104579 12:-0.0302267 13:0.61173 14:-0.0263473 15:-0.20232 16:0.731959 17:0.46956 18:0.037037 
178.9640204174228 1:-0.905992 2:-0.626757 3:-0.230041 4:-0.975983 5:-0.899569 6:-0.742763 7:-0.990277 8:-0.951157 9:-0.812003 10:-0.596971 11:-0.491238 12:-0.546599 13:-0.79824 14:-0.837126 15:-0.920103 16:-0.472165 17:-0.534659 18:-0.624691 
-512 1:0.664431 2:0.66893 3:-0.538642 4:0.645468 5:0.599435 6:-0.340655 7:0.643129 8:0.638053 9:0.605628 10:0.989517 11:0.885811 12:0.853904 13:0.933138 14:0.972455 15:0.800258 16:0.964261 17:0.962628 18:0.828395 
431.9550906622715 1:-0.966402 2:-0.878269 3:-0.714117 4:-0.984059 5:-0.905373 6:-0.827087 7:-0.995318 8:-0.9822 9:-0.904946 10:-1 11:-0.842849 12:-0.802267 13:-0.951906 14:-1 15:-1 16:-0.876289 17:-0.836046 18:-0.828395 
-476.240777191512 1:-0.775269 2:-0.502379 3:-0.248964 4:-0.844405 5:-0.776295 6:-0.712211 7:-0.857242 8:-0.820212 9:-0.688585 10:0.278975 11:-0.130582 12:-0.40932 13:0.460411 14:-0.125749 15:-0.68299 16:0.620619 17:0.374322 18:-0.134568 
479.2653341802239 1:-0.98807 2:-0.956465 3:-0.906309 4:-0.983933 5:-0.831675 6:-0.646011 7:-0.997538 8:-0.998726 9:-0.943519 10:-0.784508 11:-0.745619 12:-0.65995 13:-0.902639 14:-0.99521 15:-0.856959 16:-0.477663 17:-0.780591 18:-0.833333 
-512 1:-0.985436 2:-0.87358 3:-0.613923 4:-0.985765 5:-0.878247 6:-0.556828 7:-0.992685 8:-0.963162 9:-0.631671 10:-0.67385 11:-0.838327 12:-0.819899 13:-0.635191 14:-0.908982 15:-0.899485 16:0.00618557 17:-0.781796 18:-0.865432 
109.6284595253188 1:-0.506722 2:-0.50953 3:-0.856809 4:-0.498578 5:-0.428176 6:-0.68435 7:-0.51036 8:-0.498577 9:-0.443397 10:0.827606 11:0.713963 12:0.530227 13:0.804106 14:0.578443 15:0.259021 16:0.817182 17:0.855335 18:0.671605 
512 1:-0.983817 2:-0.956988 3:-0.891861 4:-0.967662 5:-0.883442 6:-0.763751 7:-0.990588 8:-0.978495 9:-0.935463 10:-0.461852 11:-0.615602 12:-0.639798 13:-0.766569 14:-0.796407 15:-0.695876 16:0.162887 17:-0.699819 18:-0.630864 
-137.542843329666 1:-0.829365 2:-0.743159 3:-0.839618 4:-0.842945 5:-0.744865 6:-0.757773 7:-0.860342 8:-0.831355 9:-0.749974 10:0.494467 11:0.031091 12:-0.109572 13:0.542522 14:-0.116168 15:-0.386598 16:0.709966 17:0.3261 18:-0.0518519 
512 1:-0.917797 2:-0.37551 3:0.187965 4:-0.91544 5:-0.451693 6:0.877979 7:-0.978786 8:-0.93496 9:-0.665262 10:-0.692487 11:-0.702657 12:-0.600756 13:-0.68915 14:-0.801198 15:-0.798969 16:0.34433 17:-0.418927 18:-0.551852 
512 1:-0.580381 2:-0.45033 3:-0.531236 4:-0.576029 5:-0.419015 6:-0.478961 7:-0.593739 8:-0.554486 9:-0.116252 10:0.699476 11:0.43697 12:0.0428212 13:0.668035 14:0.377246 15:-0.00902062 16:0.683849 17:0.729958 18:0.212346 
282.6120855651624 1:-0.529357 2:-0.0359159 3:-0.179666 4:-0.552647 5:-0.253689 6:0.191459 7:-0.600111 8:-0.564153 9:-0.371485 10:0.70763 11:0.0186546 12:-0.0352645 13:0.653959 14:0.0419162 15:-0.524485 16:0.784192 17:0.72393 18:0.351852 
277.4575594645596 1:0.998895 2:0.943338 3:-0.485125 4:0.991644 5:0.947458 6:-0.234591 7:0.997931 8:0.964363 9:0.94688 10:1 11:0.832674 12:0.991184 13:0.998827 14:0.980838 15:0.840206 16:0.969759 17:0.94575 18:0.841975 
512 1:-0.92789 2:-0.573024 3:-0.424465 4:-0.926975 5:-0.590899 6:-0.355577 7:-0.975663 8:-0.774103 9:-0.0427914 10:-0.50961 11:-0.389486 12:-0.293451 13:-0.577713 14:-0.498204 15:-0.369845 16:-0.34433 17:-0.438216 18:-0.325926 
220.23852516068 1:-0.713909 2:-0.537532 3:-0.72559 4:-0.691573 5:-0.41708 6:-0.438819 7:-0.743784 8:-0.729078 9:-0.687866 10:0.692487 11:-0.0356133 12:-0.410579 13:0.441642 14:-0.415569 15:-0.728093 16:0.808935 17:0.795057 18:0.402469 
-512 1:-0.508634 2:-0.259067 3:-0.471148 4:-0.507763 5:-0.26119 6:-0.357738 7:-0.539576 8:-0.391759 9:0.171506 10:0.732091 11:0.450537 12:0.0352645 13:0.729032 14:0.403593 15:0.10567 16:0.72646 17:0.621459 18:0.201235 
-512 1:-0.962649 2:-0.918801 3:-0.935015 4:-0.99901 5:-1 6:-1 7:-0.99856 8:-1 9:-1 10:-0.722772 11:-0.511588 12:-0.353904 13:-0.703226 14:-0.791617 15:-0.765464 16:-0.485911 17:-0.599759 18:-0.487654 
512 1:-0.942429 2:-0.848527 3:-0.86198 4:-0.956427 5:-0.852392 6:-0.782658 7:-0.974511 8:-0.942683 9:-0.85275 10:-0.284799 11:-0.430187 12:-0.328715 13:-0.352493 14:-0.667066 15:-0.661082 16:0.165636 17:-0.451477 18:-0.588889 
-512 1:-0.957371 2:-0.782066 3:-0.667455 4:-0.976558 5:-0.853135 6:-0.716518 7:-0.990587 8:-0.93272 9:-0.699207 10:-0.485149 11:-0.344262 12:-0.243073 13:-0.680938 14:-0.643114 15:-0.475515 16:-0.554639 17:-0.422544 18:-0.367901 
138.6364032838591 1:-0.785076 2:-0.216076 3:-0.217274 4:-0.698194 5:0.3475 6:0.902804 7:-0.866996 8:-0.584506 9:0.368483 10:0.251019 11:-0.0276993 12:0.0566751 13:0.0217009 14:-0.215569 15:0.0386598 16:0.635739 17:0.0729355 18:0.0518519 
-54.61738576316056 1:-0.878539 2:-0.45182 3:-0.0046516 4:-0.814217 5:0.018196 6:0.58362 7:-0.979952 8:-0.905782 9:-0.597972 10:-0.607455 11:-0.493499 12:-0.502519 13:-0.78651 14:-0.637126 15:-0.559278 16:-0.307216 17:-0.423749 18:-0.353086 
512 1:0.647396 2:0.610776 3:-0.583505 4:0.667182 5:0.604184 6:-0.384758 7:0.66023 8:0.612722 9:0.67733 10:0.961561 11:0.899378 12:0.906801 13:0.96129 14:0.934132 15:0.854381 16:0.998625 17:0.918023 18:0.835802 
168.8839206852629 1:-0.252535 2:0.0424425 3:-0.260453 4:-0.313156 5:-0.183884 6:-0.555066 7:-0.331454 8:-0.205474 9:0.0484237 10:0.77286 11:0.49463 12:0.103275 13:0.807625 14:0.68024 15:0.529639 16:0.797938 17:0.750452 18:0.650617 
-512 1:-0.941076 2:-0.767066 3:-0.665757 4:-0.960135 5:-0.836538 6:-0.710602 7:-0.974096 8:-0.916644 9:-0.687898 10:-0.129878 11:-0.266252 12:-0.206549 13:-0.205865 14:-0.522156 15:-0.436856 16:0.292096 17:-0.210368 18:-0.307407 
-8.519062578927763 1:-0.810921 2:-0.57896 3:-0.626861 4:-0.852635 5:-0.784796 6:-0.825363 7:-0.863578 8:-0.816282 9:-0.661632 10:0.324403 11:-0.226682 12:-0.391688 13:0.609384 14:0.0179641 15:-0.463918 16:0.758076 17:0.411694 18:-0.128395 
512 1:-0.901724 2:-0.716596 3:-0.642591 4:-0.919957 5:-0.679672 6:-0.589202 7:-0.954677 8:-0.839669 9:-0.593897 10:-0.537566 11:-0.518372 12:-0.488665 13:-0.248094 14:-0.435928 15:-0.256443 16:0.0171821 17:-0.446655 18:-0.335802 
-512 1:-0.524063 2:-0.409943 3:-0.641615 4:-0.541211 5:-0.447945 6:-0.618084 7:-0.550323 8:-0.508945 9:-0.351364 10:0.758882 11:0.499152 12:0.323678 13:0.764223 14:0.543713 15:0.207474 16:0.742955 17:0.751658 18:0.496296 
-295.0534118082099 1:-0.952386 2:-0.909268 3:-0.931791 4:-0.988963 5:-0.989471 6:-0.996236 7:-0.988477 8:-0.989854 9:-0.98894 10:-0.403611 11:-0.394008 12:-0.297229 13:0.0428152 14:-0.511377 15:-0.649485 16:0.528522 17:-0.218807 18:-0.288889 
233.2712707405471 1:-0.83456 2:-0.839116 3:-0.846868 4:-0.83614 5:-0.811128 6:-0.779309 7:-0.839108 8:-0.834346 9:-0.774776 10:0.788002 11:0.368005 12:-0.434509 13:0.814663 14:0.51018 15:-0.318299 16:0.833677 17:0.609403 18:0.0419753 
512 1:-0.694789 2:-0.665576 3:-0.874085 4:-0.728346 5:-0.733265 6:-0.894091 7:-0.730539 8:-0.730462 9:-0.735781 10:0.741409 11:0.590729 12:0.382872 13:0.795894 14:0.737725 15:0.454897 16:0.828179 17:0.810729 18:0.737037 
-512 1:-0.755654 2:-0.73524 3:-0.836552 4:-0.743684 5:-0.677807 6:-0.691329 7:-0.76409 8:-0.755206 9:-0.726237 10:0.769365 11:0.449406 12:-0.124685 13:0.652786 14:0.219162 15:-0.238402 16:0.800687 17:0.686558 18:0.495062 
512 1:-0.762531 2:-0.583363 3:-0.529425 4:-0.759416 5:-0.565071 6:-0.47123 7:-0.779459 8:-0.721639 9:-0.226079 10:0.636575 11:0.157716 12:-0.093199 13:0.558944 14:0.0431138 15:-0.217784 16:0.627491 17:0.511754 18:-0.0407407 
-512 1:-0.93668 2:-0.685675 3:-0.645953 4:-0.977981 5:-0.906225 6:-0.864226 7:-0.98993 8:-0.94123 9:-0.778454 10:-0.788002 11:-0.687959 12:-0.624685 13:-0.753666 14:-0.822754 15:-0.850515 16:-0.586254 17:-0.672092 18:-0.682716 
205.6413208047057 1:-0.830749 2:-0.795858 3:-0.861457 4:-0.827745 5:-0.691734 6:-0.610116 7:-0.840672 8:-0.841627 9:-0.785609 10:0.725102 11:0.207462 12:-0.132242 13:0.703226 14:-0.312575 15:-0.579897 16:0.832302 17:0.679325 18:0.125926 
457.6523887969695 1:-0.778322 2:-0.725055 3:-0.729937 4:-0.797316 5:-0.740358 6:-0.789269 7:-0.80233 8:-0.792747 9:-0.734709 10:0.21025 11:-0.14528 12:-0.531486 13:0.296188 14:-0.176048 15:-0.622423 16:0.298969 17:0.31525 18:-0.0481481 
512 1:0.152261 2:0.337336 3:-0.393294 4:0.117737 5:0.182056 6:-0.478415 7:0.10696 8:0.173658 9:0.268993 10:0.921957 11:0.730921 12:0.411839 13:0.88739 14:0.891018 15:0.809278 16:0.9189 17:0.866184 18:0.788889 
-512 1:-0.79636 2:0.211061 3:0.573733 4:-0.839372 5:-0.19522 6:0.153705 7:-0.96861 8:-0.666122 9:0.213102 10:-0.605125 11:-0.373657 12:-0.164987 13:-0.702053 14:-0.647904 15:-0.57732 16:-0.742955 17:-0.546715 18:-0.481481 
-512 1:-0.415688 2:-0.350877 3:-0.759008 4:-0.431246 5:-0.362841 6:-0.642393 7:-0.44013 8:-0.41727 9:-0.364519 10:0.754222 11:0.641605 12:0.458438 13:0.759531 14:0.704192 15:0.23067 16:0.785567 17:0.816757 18:0.546914 
-51.55519622635708 1:-0.680372 2:-0.278447 3:-0.0354314 4:-0.684607 5:-0.344084 6:0.531266 7:-0.730981 8:-0.70643 9:-0.49487 10:0.430402 11:-0.232335 12:-0.423174 13:0.364223 14:-0.274251 15:-0.661082 16:0.560137 17:0.475588 18:0.0864198 
512 1:0.862279 2:0.865183 3:-0.492396 4:0.858845 5:0.870653 6:-0.168526 7:0.866447 8:0.84637 9:0.905738 10:0.944089 11:0.993217 12:0.803526 13:0.944868 14:0.91497 15:0.81701 16:0.924399 17:0.886679 18:1 
-334.2252621368838 1:0.998178 2:0.959394 3:-0.499126 4:1 5:0.912045 6:-0.251268 7:0.995929 8:0.999725 9:0.899498 10:0.980198 11:0.936687 12:0.861461 13:1 14:0.863473 15:0.939433 16:0.964261 17:0.9566 18:0.867901 
-512 1:-0.828512 2:-0.352302 3:-0.159039 4:-0.913654 5:-0.688124 6:-0.682232 7:-0.951465 8:-0.735441 9:-0.341473 10:-0.496797 11:-0.368005 12:-0.352645 13:-0.407625 14:-0.330539 15:-0.180412 16:-0.516151 17:-0.344183 18:-0.216049 
512 1:-0.898503 2:-0.823477 3:-0.725931 4:-0.91626 5:-0.842243 6:-0.812943 7:-0.925725 8:-0.913124 9:-0.838694 10:-0.21025 11:-0.507066 12:-0.695214 13:0.00527859 14:-0.585629 15:-0.838918 16:0.18488 17:-0.0753466 18:-0.423457 
512 1:-0.92202 2:-0.729158 3:-0.641323 4:-0.940644 5:-0.694547 6:-0.595954 7:-0.976028 8:-0.859135 9:-0.604623 10:-0.807804 11:-0.615602 12:-0.52267 13:-0.612903 14:-0.543713 15:-0.306701 16:-0.697595 17:-0.626281 18:-0.416049 
45.95920928041748 1:-0.66162 2:-0.0232414 3:0.699576 4:-0.763062 5:-0.606355 6:-0.0860491 7:-0.785232 8:-0.788531 9:-0.70459 10:0.308096 11:-0.085359 12:-0.164987 13:0.439296 14:-0.28024 15:-0.775773 16:0.641237 17:0.622664 18:0.388889 
396.456787346148 1:0.626522 2:0.621495 3:-0.555437 4:0.626554 5:0.588848 6:-0.383383 7:0.645265 8:0.604405 9:0.650789 10:0.945253 11:0.932165 12:0.832494 13:0.939003 14:0.913772 15:0.970361 16:0.942268 17:0.907173 18:0.834568 
