svm_type epsilon_svr
kernel_type rbf
gamma 0.0555556
nr_class 2
total_sv 143
rho -71.4806
probA 13.9041
SV
-32 1:-0.999169 2:-0.998504 3:-0.91485 4:-0.999262 5:-0.998601 6:-0.903722 7:-0.999149 8:-0.999844 9:-0.983384 10:0.0634328 11:-0.1264 12:0.231084 13:0.135593 14:-0.169877 15:0.277162 16:0.873732 17:0.29994 18:-0.232687 
-32 1:-0.999175 2:-0.998518 3:-0.914465 4:-0.999258 5:-0.998591 6:-0.903531 7:-0.999123 8:-0.999847 9:-0.983239 10:0.0771144 11:-0.112 12:0.249489 13:0.140436 14:-0.182137 15:0.283814 16:0.900789 17:0.351841 18:-0.231302 
-32 1:-0.829881 2:-0.707049 3:-0.464106 4:-0.833512 5:-0.717883 6:-0.453589 7:-0.884783 8:-0.66245 9:-0.0260596 10:-0.431592 11:-0.1712 12:0.331288 13:-0.479419 14:-0.257443 15:0.308204 16:-0.423901 17:-0.355462 18:-0.132964 
-32 1:-0.628601 2:-0.535209 3:-0.420709 4:-0.618625 5:-0.536391 6:-0.400484 7:-0.63206 8:-0.373907 9:0.0154726 10:-0.516169 11:-0.224 12:0.347648 13:-0.57385 14:-0.297723 15:0.277162 16:-0.448703 17:-0.332529 18:-0.15097 
32 1:-0.998602 2:-0.998095 3:-0.94421 4:-0.999313 5:-0.998433 6:-0.950164 7:-0.998062 8:-0.999613 9:-0.938122 10:-0.343284 11:-0.2992 12:-0.165644 13:-0.315981 14:-0.707531 15:-0.470067 16:-0.277339 17:-0.413398 18:-0.66205 
32 1:-0.802408 2:-0.825573 3:-0.859439 4:-0.943806 5:-0.95573 6:-0.939694 7:-0.905214 8:-0.895541 9:-0.887709 10:-0.465174 11:-0.2592 12:0.0245399 13:-0.730024 14:-0.567426 15:-0.356984 16:-0.704622 17:-0.567894 18:-0.33241 
32 1:-0.999684 2:-0.999714 3:-0.985875 4:-0.999769 5:-0.999764 6:-0.980214 7:-0.999127 8:-0.999888 9:-0.997516 10:0.323383 11:0.1504 12:-0.0899796 13:0.180387 14:-0.360771 15:-0.616408 16:0.569335 17:0.391672 18:-0.626039 
32 1:-0.601048 2:-0.940095 3:-0.888821 4:-0.93926 5:-0.983097 6:-0.94364 7:-0.571024 8:-0.945636 9:-0.899645 10:-0.90796 11:-0.7184 12:0.108384 13:-0.90799 14:-0.833625 15:-0.297118 16:-0.927847 17:-0.861195 18:-0.391967 
-32 1:-0.551255 2:-0.759755 3:-0.854792 4:-0.927435 5:-0.939572 6:-0.938811 7:-0.81635 8:-0.840538 9:-0.887673 10:-0.567164 11:-0.3024 12:0.134969 13:-0.696126 14:-0.616462 15:-0.379157 16:-0.615558 17:-0.58962 18:-0.361496 
-32 1:-0.999612 2:-0.999158 3:-0.930959 4:-0.999686 5:-0.999304 6:-0.937176 7:-0.999623 8:-0.999949 9:-0.995142 10:0.13806 11:-0.376 12:-0.417178 13:0.290557 14:-0.352014 15:-0.299335 16:0.790304 17:0.779119 18:-0.569252 
-7.134586510877893 1:-0.950124 2:-0.926084 3:-0.72995 4:-0.964665 5:-0.950777 6:-0.70184 7:-0.966075 8:-0.943117 9:-0.677296 10:-0.911692 11:-0.872 12:-0.239264 13:-0.904358 14:-0.870403 15:-0.195122 16:-0.905299 17:-0.990344 18:-0.581717 
-32 1:-0.779856 2:-0.813937 3:-0.707826 4:-0.78742 5:-0.811631 6:-0.658007 7:-0.560758 8:-0.674712 9:-0.644426 10:-0.762438 11:-0.5632 12:-0.220859 13:-0.785714 14:-0.604203 15:-0.0864745 16:-0.844419 17:-0.757393 18:-0.552632 
-32 1:-0.853884 2:-0.846618 3:-0.705675 4:-0.85615 5:-0.85874 6:-0.675816 7:-0.750782 8:-0.771601 9:-0.646391 10:-0.777363 11:-0.5744 12:-0.206544 13:-0.815981 14:-0.605954 15:-0.10643 16:-0.906426 17:-0.768256 18:-0.534626 
-32 1:-0.77885 2:-0.812821 3:-0.706946 4:-0.794034 5:-0.818988 6:-0.663767 7:-0.560018 8:-0.673447 9:-0.641747 10:-0.758706 11:-0.5456 12:-0.222904 13:-0.785714 14:-0.597198 15:-0.0997783 16:-0.844419 17:-0.752565 18:-0.540166 
32 1:-0.832172 2:-0.622288 3:0.527926 4:-0.872193 5:-0.778445 6:-0.0804634 7:-0.939728 8:-0.894652 9:-0.100638 10:-0.814677 11:-0.6688 12:0.766871 13:-0.855932 14:-0.793345 15:-0.150776 16:-0.901917 17:-0.931201 18:-0.368421 
-32 1:-0.644992 2:-0.441289 3:0.534437 4:-0.764444 5:-0.638715 6:0.0185182 7:-0.829322 8:-0.735077 9:0.0522929 10:-0.788557 11:-0.552 12:0.730061 13:-0.790557 14:-0.670753 15:0.0133038 16:-0.905299 17:-0.851539 18:-0.216066 
32 1:-0.998442 2:-0.996807 3:-0.812674 4:-0.998975 5:-0.998021 6:-0.857885 7:-0.999243 8:-0.999782 9:-0.983797 10:-0.0572139 11:-0.1344 12:0.429448 13:-0.135593 14:-0.231173 15:0.0576497 16:0.760992 17:-0.0633675 18:-0.275623 
-2.480988625234884 1:-0.456991 2:-0.166225 3:0.546158 4:-0.643309 5:-0.469547 6:0.0502251 7:-0.73756 8:-0.475205 9:0.0953442 10:-0.549751 11:-0.24 12:0.754601 13:-0.670702 14:-0.507881 15:0.0886918 16:-0.73168 17:-0.691008 18:-0.247922 
32 1:0.63866 2:0.925654 3:0.693189 4:-0.0226876 5:-0.219255 6:0.105726 7:0.313805 8:0.16879 9:-0.073828 10:-0.531095 11:-0.2928 12:0.736196 13:-0.673123 14:-0.390543 15:-1.11022e-016 16:-0.735062 17:-0.566687 18:-0.260388 
32 1:-0.999396 2:-0.998642 3:-0.932871 4:-0.999592 5:-0.999113 6:-0.9377 7:-0.999536 8:-0.999908 9:-0.989523 10:-0.0771144 11:-0.4304 12:-0.155419 13:0.297821 14:-0.220665 15:0.0687361 16:0.81398 17:0.55341 18:-0.504155 
32 1:-0.321296 2:-0.581518 3:-0.578947 4:-0.4592 5:-0.596284 6:-0.568052 7:0.132799 8:-0.219778 9:-0.36577 10:-0.570896 11:-0.2656 12:-0.132924 13:-0.398305 14:-0.0420315 15:0.40133 16:-0.694476 17:-0.431503 18:-0.261773 
32 1:-0.56093 2:-0.636457 3:-0.584514 4:-0.619645 5:-0.629123 6:-0.56908 7:-0.338716 8:-0.464148 9:-0.349766 10:-0.691542 11:-0.4192 12:-0.188139 13:-0.552058 14:-0.169877 15:0.456763 16:-0.817362 17:-0.569101 18:-0.236842 
32 1:-0.920557 2:-0.902154 3:-0.609115 4:-0.937039 5:-0.920314 6:-0.588206 7:-0.929844 8:-0.870217 9:-0.470522 10:-0.951493 11:-0.8816 12:-0.114519 13:-0.929782 14:-0.870403 15:0.392461 16:-0.94814 17:-1 18:-0.350416 
32 1:-0.236188 2:-0.528802 3:-0.574092 4:-0.449218 5:-0.512553 6:-0.556354 7:0.159521 8:-0.0653388 9:-0.342773 10:-0.751244 11:-0.4928 12:-0.124744 13:-0.598063 14:-0.241681 15:0.427938 16:-0.774521 17:-0.608932 18:-0.243767 
32 1:-0.989603 2:-0.965553 3:-0.170933 4:-0.977549 5:-0.986444 6:-0.666884 7:-0.986367 8:-0.997462 9:-0.13209 10:-0.378109 11:-0.4368 12:0.116564 13:-0.917676 14:-0.371278 15:0.396896 16:-0.899662 17:-0.793603 18:-0.102493 
-32 1:0.574249 2:-0.036075 3:-0.107029 4:-0.27091 5:-0.53675 6:-0.65989 7:0.950183 8:0.55373 9:0.0156679 10:-0.381841 11:-0.1328 12:0.141104 13:-0.369249 14:-0.0472855 15:0.478936 16:-0.439684 17:-0.29994 18:-0.00969529 
32 1:0.571218 2:-0.0360736 3:-0.11481 4:-0.254598 5:-0.516657 6:-0.669747 7:0.969903 8:0.561313 9:-0.00370427 10:-0.379353 11:-0.1376 12:0.120654 13:-0.361985 14:-0.0140105 15:0.432373 16:-0.436302 17:-0.304768 18:-0.0567867 
13.13028879415929 1:0.551834 2:-0.0740499 3:-0.105917 4:-0.25491 5:-0.524739 6:-0.650577 7:1 8:0.571063 9:0.0238163 10:-0.356965 11:-0.0976 12:0.157464 13:-0.336562 14:0.0437828 15:0.636364 16:-0.426156 17:-0.28787 18:0.00277008 
-32 1:0.57512 2:-0.0340702 3:-0.104421 4:-0.238841 5:-0.509071 6:-0.639431 7:0.978224 8:0.568085 9:0.0274893 10:-0.369403 11:-0.1328 12:0.159509 13:-0.355932 14:0.0192644 15:0.640798 16:-0.431793 17:-0.31201 18:-0.00277008 
32 1:-0.999951 2:-0.999931 3:-0.999562 4:-0.999916 5:-0.999975 6:-0.999722 7:-0.999547 8:-0.999948 9:-0.999959 10:0.763682 11:-0.0864 12:-0.106339 13:0.807506 14:1 15:0.937916 16:0.448703 17:0.742909 18:0.84349 
32 1:-0.698401 2:-0.584484 3:-0.412202 4:-0.705792 5:-0.608958 6:-0.502788 7:-0.762498 8:-0.397495 9:0.306146 10:-0.590796 11:-0.3744 12:0.147239 13:-0.631961 14:-0.371278 15:0.259424 16:-0.661781 17:-0.595655 18:-0.15097 
32 1:-0.324686 2:-0.344354 3:-0.37377 4:-0.367652 5:-0.381276 6:-0.354678 7:0.052477 8:0.352039 9:0.0911909 10:-0.50995 11:-0.2016 12:0.237219 13:-0.550847 14:-0.227671 15:0.314856 16:-0.59301 17:-0.413398 18:-0.0470914 
-32 1:-0.324344 2:-0.318114 3:-0.364885 4:-0.361964 5:-0.358703 6:-0.326646 7:0.0472262 8:0.369238 9:0.418549 10:-0.506219 11:-0.168 12:0.243354 13:-0.550847 14:-0.196147 15:0.334812 16:-0.591883 17:-0.419433 18:-0.163435 
32 1:-0.800289 2:-0.71356 3:-0.405261 4:-0.814192 5:-0.756352 6:-0.361111 7:-0.849334 8:-0.590791 9:0.347094 10:-0.7699 11:-0.6368 12:0.186094 13:-0.800242 14:-0.647986 15:0.345898 16:-0.817362 17:-0.828606 18:-0.16759 
32 1:-0.608862 2:-0.269729 3:0.426735 4:-0.809247 5:-0.696169 6:-0.219745 7:-0.923008 8:-0.800231 9:0.521124 10:-0.751244 11:-0.6128 12:0.417178 13:-0.81477 14:-0.74606 15:-0.037694 16:-0.812852 17:-0.858781 18:-0.350416 
27.59798408992362 1:-0.999887 2:-0.999923 3:-0.997393 4:-0.999958 5:-0.999884 6:-0.998221 7:-0.999763 8:-0.999954 9:-0.999958 10:0.810945 11:0.7184 12:-0.294479 13:0.686441 14:-0.395797 15:-0.230599 16:0.45885 17:0.72239 18:0.855956 
32 1:0.971415 2:0.696893 3:0.564902 4:0.43678 5:0.101638 6:0.109199 7:0.544567 8:0.850986 9:0.713399 10:-0.43408 11:-0.0992 12:0.472393 13:-0.559322 14:-0.392294 15:-0.0864745 16:-0.512965 17:-0.487025 18:-0.34072 
32 1:1 2:0.720087 3:0.576376 4:0.474569 5:0.152526 6:0.142703 7:0.577599 8:1 9:0.808591 10:-0.432836 11:-0.0944 12:0.464213 13:-0.554479 14:-0.376532 15:-0.0332594 16:-0.507328 17:-0.466506 18:-0.308864 
-32 1:0.983158 2:0.658848 3:0.572079 4:0.50476 5:0.200812 6:0.150553 7:0.576652 8:0.981418 9:0.800593 10:-0.43408 11:-0.1248 12:0.451943 13:-0.547215 14:-0.345009 15:-0.0354767 16:-0.508455 17:-0.467713 18:-0.304709 
-32 1:-0.998465 2:-0.997076 3:-0.924206 4:-0.998518 5:-0.996932 6:-0.907265 7:-0.999262 8:-0.999769 9:-0.797489 10:-0.66791 11:-0.8608 12:-0.903885 13:-0.51816 14:-0.716287 15:-0.563193 16:0.65389 17:-0.0971635 18:-0.885042 
32 1:-0.999188 2:-0.998483 3:-0.964469 4:-0.999296 5:-0.998848 6:-0.961901 7:-0.999292 8:-0.999855 9:-0.917297 10:-0.633085 11:-0.9504 12:-1 13:-0.484262 14:-0.845884 15:-0.773836 16:0.502818 17:0.150272 18:-1 
-32 1:-0.912481 2:-0.867786 3:-0.916183 4:-0.933644 5:-0.895737 6:-0.901748 7:-0.884889 8:-0.795519 9:-0.773735 10:-0.900498 11:-0.9776 12:-0.907975 13:-0.800242 14:-0.859895 15:-0.563193 16:-0.834273 17:-0.926373 18:-0.883657 
-32 1:-0.941679 2:-0.90211 3:-0.917044 4:-0.962846 5:-0.940634 6:-0.904147 7:-0.96541 8:-0.896626 9:-0.778364 10:-0.940299 11:-1 12:-0.90593 13:-0.87046 14:-0.924694 15:-0.554324 16:-0.825254 17:-0.950513 18:-0.886427 
-32 1:-0.915201 2:-0.869488 3:-0.916047 4:-0.940173 5:-0.905364 6:-0.901705 7:-0.896449 8:-0.805171 9:-0.773063 10:-0.920398 11:-0.9872 12:-0.912065 13:-0.817191 14:-0.865149 15:-0.552106 16:-0.875986 17:-0.940857 18:-0.883657 
-32 1:-0.999912 2:-0.999898 3:-0.997939 4:-0.999853 5:-0.999907 6:-0.996214 7:-0.99937 8:-0.999907 9:-0.999943 10:0.99005 11:0.0928 12:0.323108 13:0.912833 14:0.374781 15:0.250554 16:0.76212 17:0.95172 18:1 
32 1:-0.99871 2:-0.999639 3:-0.999895 4:-0.999176 5:-0.999833 6:-0.999809 7:-0.996744 8:-0.999391 9:-0.999922 10:-0.819652 11:-0.8048 12:0.474438 13:-0.736077 14:-0.621716 15:0.494457 16:-0.657272 17:-0.694629 18:-0.319945 
-32 1:-0.988995 2:-0.919839 3:0.0234414 4:-0.991744 5:-0.967161 6:-0.0363506 7:-0.998541 8:-0.998862 9:0.282994 10:0.223881 11:-0.5184 12:1 13:-0.0326877 14:-0.325744 15:0.665188 16:0.643743 17:-0.214243 18:0.182825 
-32 1:0.136916 2:1 3:0.18767 4:-0.0557503 5:0.0421404 6:0.199342 7:-0.14232 8:0.301528 9:0.473299 10:-0.175373 11:-0.2848 12:0.730061 13:-0.342615 14:0.028021 15:0.554324 16:-0.142052 17:-0.0319855 18:0.1759 
6.825396036619885 1:0.15402 2:0.984933 3:0.0744262 4:-0.0687193 5:0.000753361 6:0.15747 7:-0.135572 8:0.305272 9:0.328282 10:-0.172886 11:-0.2656 12:0.345603 13:-0.337772 14:0.0385289 15:0.629712 16:-0.137542 17:-0.0271575 18:0.0789474 
32 1:-0.999097 2:-0.998301 3:-0.913127 4:-0.998731 5:-0.997512 6:-0.807514 7:-0.999295 8:-0.999788 9:-0.984903 10:-0.100746 11:-0.3552 12:-0.0920245 13:-0.173123 14:-0.297723 15:0.0243902 16:0.75761 17:-0.0718165 18:-0.724377 
32 1:-0.595721 2:-0.891244 3:-0.99631 4:-0.298121 5:-0.757555 6:-0.987516 7:-0.267916 8:-0.569396 9:-0.990531 10:-0.689055 11:-0.5232 12:-0.118609 13:-0.716707 14:-0.597198 15:0.509978 16:-0.598647 17:-0.56548 18:-0.304709 
32 1:-0.405715 2:-0.226554 3:-0.17303 4:-0.0986164 5:0.303575 6:0.708525 7:-0.539418 8:0.0775474 9:0.918498 10:-0.242537 11:0.1168 12:0.754601 13:-0.219128 14:0.175131 15:1 16:-0.269448 17:-0.169584 18:0.160665 
-32 1:0.160743 2:0.0885361 3:-0.12706 4:0.987847 5:0.996248 6:1 7:0.421164 8:0.892307 9:1 10:-0.29602 11:0.104 12:0.756646 13:-0.330508 14:0.110333 15:0.946785 16:-0.295378 17:-0.182861 18:0.174515 
-14.64195824463116 1:0.178752 2:0.0963373 3:-0.206025 4:1 5:1 6:0.93812 7:0.443562 8:0.962248 9:0.994659 10:-0.282338 11:0.136 12:0.386503 13:-0.325666 14:0.115587 15:0.789357 16:-0.284104 17:-0.175619 18:0.168975 
32 1:-0.879271 2:-0.8159 3:-0.689805 4:-0.908853 5:-0.867101 6:-0.78767 7:-0.938789 8:-0.872548 9:-0.76267 10:-0.791045 11:-0.7344 12:-0.556237 13:-0.866828 14:-0.908932 15:-0.800443 16:-0.800451 17:-0.812915 18:-0.718837 
32 1:-0.808418 2:-0.849364 3:-0.734683 4:-0.922373 5:-0.891582 6:-0.785782 7:-0.948276 8:-0.908031 9:-0.774701 10:-0.900498 11:-0.7296 12:-0.588957 13:-0.857143 14:-0.861646 15:-0.716186 16:-0.80947 17:-0.817743 18:-0.660665 
32 1:-0.99777 2:-0.994319 3:-0.909386 4:-0.99785 5:-0.994681 6:-0.91387 7:-0.999093 8:-0.998948 9:-0.904003 10:-0.633085 11:-0.7632 12:-0.789366 13:-0.769976 14:-0.938704 15:-0.900222 16:0.200676 17:-0.691008 18:-0.873961 
-32 1:-0.62944 2:-0.722228 3:-0.642974 4:-0.827216 5:-0.811509 6:-0.774205 7:-0.756959 8:-0.765192 9:-0.756998 10:-0.904229 11:-0.7776 12:-0.578732 13:-0.891041 14:-0.896673 15:-0.776053 16:-0.889515 17:-0.833434 18:-0.716066 
-32 1:-0.594996 2:-0.710433 3:-0.643403 4:-0.795299 5:-0.80291 6:-0.774842 7:-0.648465 8:-0.740053 9:-0.756673 10:-0.865672 11:-0.7536 12:-0.576687 13:-0.858354 14:-0.877408 15:-0.776053 16:-0.825254 17:-0.796017 18:-0.716066 
-32 1:-0.999546 2:-0.999345 3:-0.960783 4:-0.999464 5:-0.999267 6:-0.945217 7:-0.999236 8:-0.999867 9:-0.991246 10:0.190299 11:0.032 12:0.186094 13:0.0992736 14:0.0472855 15:0.177384 16:0.615558 17:0.162342 18:-0.293629 
32 1:-0.999478 2:-0.999357 3:-0.960812 4:-0.999256 5:-0.999265 6:-0.944858 7:-0.988631 8:-0.99976 9:-0.991224 10:-0.0659204 11:0.0768 12:0.157464 13:-0.33414 14:0.0630473 15:0.175166 16:-0.936866 17:-0.419433 18:-0.299169 
-32 1:-0.508706 2:-0.638659 3:-0.720551 4:-0.447309 5:-0.550305 6:-0.594495 7:0.102569 8:-0.249246 9:-0.272974 10:-0.618159 11:-0.2816 12:0.222904 13:-0.641646 14:-0.278459 15:0.432373 16:-0.7531 17:-0.485818 18:-0.202216 
-32 1:-0.494041 2:-0.635341 3:-0.718749 4:-0.444646 5:-0.548861 6:-0.596672 7:0.118573 8:-0.210233 9:-0.217447 10:-0.61194 11:-0.2656 12:0.216769 13:-0.636804 14:-0.267951 15:0.4102 16:-0.749718 17:-0.462885 18:-0.196676 
-32 1:-0.999942 2:-0.99994 3:-0.998575 4:-0.999897 5:-0.999952 6:-0.998156 7:-0.999667 8:-0.999941 9:-0.999948 10:0.824627 11:0.5104 12:0.165644 13:0.767554 14:0.76007 15:-0.0643016 16:0.53664 17:0.805673 18:0.925208 
28.10823687665502 1:-0.931384 2:-0.905353 3:-0.0676493 4:-0.924814 5:-0.873405 6:0.461802 7:-0.980474 8:-0.944844 9:-0.436651 10:-0.771144 11:-0.6544 12:-0.118609 13:-0.802663 14:-0.725044 15:0.0310421 16:-0.744081 17:-0.904647 18:-0.253463 
32 1:-0.998781 2:-0.997048 3:-0.810308 4:-0.998487 5:-0.997644 6:-0.822173 7:-0.999408 8:-0.999887 9:-0.990208 10:-0.156716 11:-0.4208 12:-0.249489 13:-0.144068 14:0.0507881 15:0.186253 16:0.89177 17:0.479783 18:-0.265928 
32 1:-0.980384 2:-0.964405 3:-0.0498247 4:-0.964534 5:-0.959567 6:0.435326 7:-0.962138 8:-0.99067 9:-0.439128 10:-0.66791 11:-0.4752 12:-0.153374 13:-0.705811 14:-0.357268 15:0.0487805 16:-0.897407 17:-0.834641 18:-0.247922 
9.444505492261083 1:-0.999902 2:-0.999841 3:-0.996565 4:-0.999844 5:-0.999866 6:-0.992652 7:-0.999594 8:-0.999933 9:-0.999904 10:0.868159 11:-0.2016 12:0.0552147 13:0.769976 14:0.136602 15:0.135255 16:0.693348 17:0.866023 18:0.134349 
32 1:-1 2:-0.999996 3:-1 4:-1 5:-1 6:-1 7:-1 8:-1 9:-0.99999 10:0.460199 11:0.6416 12:0.351738 13:0.361985 14:0.656743 15:0.288248 16:0.0868095 17:0.445987 18:0.416898 
-32 1:-0.772293 2:-0.841448 3:-0.899315 4:-0.721587 5:-0.749399 6:-0.79245 7:-0.663642 8:-0.676016 9:-0.778195 10:-0.671642 11:-0.4848 12:-0.0408998 13:-0.654964 14:-0.474606 15:-0.13082 16:-0.697858 17:-0.616174 18:-0.436288 
-32 1:-0.848954 2:-0.869726 3:-0.895845 4:-0.836834 5:-0.813481 6:-0.789562 7:-0.855606 8:-0.789572 9:-0.751328 10:-0.606965 11:-0.4128 12:-0.0184049 13:-0.572639 14:-0.401051 15:-0.117517 16:-0.609921 17:-0.490646 18:-0.369806 
-32 1:-0.771982 2:-0.831846 3:-0.898215 4:-0.719421 5:-0.746507 6:-0.789955 7:-0.659585 8:-0.668061 9:-0.756507 10:-0.659204 11:-0.4688 12:-0.0981595 13:-0.64891 14:-0.460595 15:-0.117517 16:-0.695603 17:-0.618588 18:-0.419668 
-32 1:-0.772087 2:-0.83219 3:-0.897109 4:-0.721168 5:-0.746558 6:-0.789214 7:-0.661625 8:-0.668133 9:-0.76077 10:-0.65796 11:-0.4656 12:-0.0184049 13:-0.646489 14:-0.457093 15:-0.119734 16:-0.691094 17:-0.608932 18:-0.382271 
32 1:-0.983743 2:-0.978941 3:-0.998844 4:-0.988275 5:-0.983455 6:-0.999156 7:-0.990933 8:-0.977556 9:-0.996152 10:-0.788557 11:-0.8144 12:-0.443763 13:-0.811138 14:-0.823117 15:-0.170732 16:-0.613303 17:-0.821364 18:-0.717452 
-32 1:-0.743334 2:-0.681665 3:-0.60164 4:-0.861253 5:-0.79731 6:-0.681771 7:-0.871368 8:-0.743367 9:-0.482149 10:-0.36194 11:-0.1424 12:0.325153 13:-0.578692 14:-0.341506 15:0.0487805 16:-0.487035 17:-0.437538 18:-0.216066 
-32 1:-0.753372 2:-0.687376 3:-0.603474 4:-0.859745 5:-0.805944 6:-0.705902 7:-0.862331 8:-0.703636 9:-0.54544 10:-0.333333 11:-0.1024 12:0.335378 13:-0.585956 14:-0.380035 15:0.13969 16:-0.450958 17:-0.357876 18:-0.246537 
32 1:-0.507744 2:-0.621396 3:-0.596877 4:-0.715292 5:-0.768207 6:-0.682636 7:-0.50512 8:-0.532255 9:-0.473761 10:-0.105721 11:0.1856 12:0.339468 13:-0.460048 14:-0.19965 15:0.104213 16:-0.418264 17:-0.147858 18:-0.15651 
-32 1:-0.5441 2:-0.588713 3:-0.596948 4:-0.745889 5:-0.736185 6:-0.670043 7:-0.510883 8:-0.47953 9:-0.467173 10:-0.380597 11:-0.0832 12:0.335378 13:-0.604116 14:-0.37303 15:0.144124 16:-0.555806 17:-0.389258 18:-0.17036 
32 1:-0.955175 2:-0.935971 3:-0.815658 4:-0.974224 5:-0.96603 6:-0.805387 7:-0.974004 8:-0.943648 9:-0.799078 10:-0.79602 11:-0.776 12:-0.546012 13:-0.699758 14:-0.588441 15:-0.372506 16:-0.710259 17:-0.880507 18:-0.580332 
32 1:-0.910195 2:-0.891463 3:-0.801322 4:-0.941166 5:-0.922876 6:-0.792014 7:-0.925699 8:-0.849419 9:-0.784089 10:-0.675373 11:-0.5856 12:-0.533742 13:-0.581114 14:-0.42732 15:-0.259424 16:-0.680947 17:-0.713941 18:-0.603878 
-32 1:-0.857265 2:-0.86364 3:-0.799419 4:-0.877898 5:-0.883792 6:-0.784832 7:-0.805279 8:-0.783529 9:-0.768556 10:-0.640547 11:-0.5744 12:-0.527607 13:-0.612591 14:-0.416813 15:-0.261641 16:-0.639233 17:-0.694629 18:-0.591413 
-32 1:-0.880987 2:-0.879715 3:-0.799547 4:-0.90958 5:-0.910148 6:-0.785813 7:-0.864602 8:-0.801412 9:-0.773531 10:-0.669154 11:-0.5632 12:-0.519427 13:-0.636804 14:-0.437828 15:-0.243902 16:-0.685457 17:-0.721183 18:-0.585873 
-32 1:-0.998246 2:-0.995567 3:-0.801933 4:-0.99842 5:-0.994991 6:-0.799233 7:-0.999133 8:-0.999708 9:-0.79763 10:-0.405473 11:-0.5472 12:-0.535787 13:-0.312349 14:-0.574431 15:-0.297118 16:0.770011 17:-0.277007 18:-0.595568 
6.697476535714737 1:-0.999973 2:-0.999955 3:-0.999331 4:-0.999916 5:-0.999953 6:-0.998526 7:-0.999797 8:-0.999961 9:-0.999965 10:0.514925 11:0.16 12:-0.402863 13:0.579903 14:0.67951 15:0.0643016 16:0.26832 17:0.748944 18:0.82133 
32 1:-0.99981 2:-0.999578 3:-0.9718 4:-0.999749 5:-0.999651 6:-0.970096 7:-0.999638 8:-0.99995 9:-0.997478 10:0.181592 11:-0.5376 12:-0.693252 13:0.263923 14:-0.157618 15:-0.301552 16:0.509583 17:0.83102 18:-0.605263 
-32 1:-0.998899 2:-0.996547 3:-0.877193 4:-0.998836 5:-0.996422 6:-0.885397 7:-0.999493 8:-0.999806 9:-0.866374 10:-0.36194 11:-0.5984 12:-0.566462 13:-0.3523 14:-0.637478 15:-0.223947 16:0.773393 17:0.0814725 18:-0.584488 
-32 1:-0.880658 2:-0.892228 3:-0.852326 4:-0.955713 5:-0.929866 6:-0.879078 7:-0.883813 8:-0.875882 9:-0.857847 10:-0.777363 11:-0.6416 12:-0.456033 13:-0.790557 14:-0.718039 15:-0.288248 16:-0.883878 17:-0.785154 18:-0.624654 
32 1:-0.845793 2:-0.880324 3:-0.852246 4:-0.945661 5:-0.930458 6:-0.879278 7:-0.829493 8:-0.846062 9:-0.841851 10:-0.718905 11:-0.592 12:-0.458078 13:-0.749395 14:-0.69352 15:-0.274945 16:-0.836528 17:-0.728425 18:-0.596953 
-32 1:-0.997318 2:-0.993991 3:-0.719295 4:-0.995499 5:-0.986934 6:-0.459012 7:-0.999421 8:-0.999805 9:-0.851382 10:-0.531095 11:-0.5776 12:-0.558282 13:-0.707022 14:-0.847636 15:-0.733925 16:0.860203 17:0.144237 18:-0.567867 
32 1:-0.989982 2:-0.998563 3:-0.99856 4:-0.980006 5:-0.997281 6:-0.930411 7:-0.983586 8:-0.995457 9:-0.999785 10:-1 11:-1 12:-0.0961145 13:-1 14:-1 15:-0.986696 16:-0.915445 17:-0.981895 18:-0.355956 
32 1:-0.797261 2:-0.695235 3:-0.707696 4:-0.684594 5:-0.557095 6:-0.44974 7:-0.953127 8:-0.8969 9:-0.775793 10:-0.793532 11:-0.7392 12:-0.470348 13:-0.877724 14:-0.887916 15:-0.75388 16:-0.697858 17:-0.762221 18:-0.48892 
32 1:-0.726437 2:-0.676255 3:-0.707475 4:-0.64881 5:-0.555392 6:-0.452822 7:-0.888713 8:-0.850621 9:-0.767456 10:-0.745025 11:-0.6736 12:-0.456033 13:-0.828087 14:-0.854641 15:-0.72949 16:-0.719278 17:-0.652384 18:-0.48338 
-12.18169569455609 1:-0.997047 2:-0.993541 3:-0.705891 4:-0.995413 5:-0.986752 6:-0.456566 7:-0.999374 8:-0.999824 9:-0.815134 10:-0.487562 11:-0.5184 12:-0.476483 13:-0.708232 14:-0.847636 15:-0.731707 16:0.863585 17:0.233555 18:-0.565097 
32 1:-0.634071 2:-0.891165 3:-0.996492 4:-0.853151 5:-0.962156 6:-0.996553 7:-0.699029 8:-0.862277 9:-0.996276 10:-0.768657 11:-0.6736 12:-0.0879346 13:-0.878935 14:-0.858144 15:-0.554324 16:-0.806088 17:-0.771877 18:-0.603878 
32 1:-0.158514 2:-0.867431 3:-0.196652 4:-0.801749 5:-0.959962 6:-0.738432 7:0.212825 8:-0.824331 9:-0.736116 10:-0.935323 11:-0.72 12:-0.394683 13:-0.972155 14:-0.917688 15:-0.643016 16:-0.94814 17:-0.917924 18:-0.631579 
-32 1:-0.0868475 2:-0.405541 3:-0.186717 4:-0.742232 5:-0.799897 6:-0.707729 7:-0.523812 8:-0.587927 9:-0.732228 10:-0.473881 11:-0.2832 12:-0.186094 13:-0.771186 14:-0.684764 15:-0.618625 16:-0.648253 17:-0.542547 18:-0.501385 
32 1:-0.748599 2:-0.729356 3:-0.225066 4:-0.92638 5:-0.89227 6:-0.707696 7:-0.94251 8:-0.877005 9:-0.656381 10:-0.768657 11:-0.68 12:-0.206544 13:-0.858354 14:-0.8669 15:-0.607539 16:-0.760992 17:-0.834641 18:-0.487535 
32 1:-0.99461 2:-0.981568 3:-0.179169 4:-0.998255 5:-0.994564 6:-0.737034 7:-0.99941 8:-0.999638 9:-0.674611 10:-0.401741 11:-0.4208 12:-0.253579 13:-0.445521 14:-0.616462 15:-0.594235 16:0.651635 17:-0.264937 18:-0.470914 
32 1:-0.994689 2:-0.976351 3:-0.221558 4:-0.97605 5:-0.918212 6:-0.106653 7:-0.999034 8:-0.999278 9:-0.546402 10:-0.455224 11:-0.5888 12:-0.323108 13:-0.92615 14:-0.956217 15:-0.288248 16:0.400225 17:-0.488232 18:-0.530471 
32 1:-0.739622 2:-0.459488 3:-0.0506746 4:-0.782238 5:-0.582768 6:0.21766 7:-0.927857 8:-0.793067 9:-0.464606 10:-0.743781 11:-0.6288 12:-0.278119 13:-0.693705 14:-0.607706 15:-0.303769 16:-0.677565 17:-0.699457 18:-0.515235 
32 1:-0.997008 2:-0.987533 3:-0.435197 4:-0.997637 5:-0.985643 6:-0.482623 7:-0.999314 8:-0.999656 9:-0.818143 10:-0.575871 11:-0.7504 12:-0.570552 13:-0.575061 14:-0.835377 15:-0.567627 16:0.514092 17:-0.345806 18:-0.864266 
-32 1:-0.264053 2:-0.0402348 3:0.253984 4:-0.259026 5:-0.209145 6:0.822493 7:-0.653762 8:-0.550278 9:-0.434203 10:-0.789801 11:-0.6208 12:-0.276074 13:-0.790557 14:-0.642732 15:-0.43459 16:-0.709132 17:-0.656005 18:-0.51108 
-32 1:-0.2468 2:-0.0406066 3:0.256913 4:-0.256935 5:-0.209914 6:0.821993 7:-0.654273 8:-0.554756 9:-0.502755 10:-0.793532 11:-0.624 12:-0.284254 13:-0.789346 14:-0.644483 15:-0.43459 16:-0.709132 17:-0.660833 18:-0.569252 
32 1:-0.99779 2:-0.991606 3:-0.79497 4:-0.99873 5:-0.997796 6:-0.890235 7:-0.99956 8:-0.999798 9:-0.918998 10:-0.512438 11:-0.8112 12:-0.564417 13:-0.543584 14:-0.686515 15:-0.676275 16:0.590755 17:-0.163549 18:-0.736842 
32 1:-0.992176 2:-0.980556 3:-0.640417 4:-0.994274 5:-0.989147 6:-0.822445 7:-0.998036 8:-0.997306 9:-0.618304 10:-0.618159 11:-0.6672 12:-0.361963 13:-0.767554 14:-0.82662 15:-0.545455 16:-0.171364 17:-0.821364 18:-0.569252 
32 1:-0.843973 2:-0.895589 3:-0.619722 4:-0.930617 5:-0.948796 6:-0.838916 7:-0.81262 8:-0.935051 9:-0.62479 10:-0.951493 11:-0.8064 12:-0.302658 13:-0.952785 14:-0.894921 15:-0.609756 16:-1 17:-0.938443 18:-0.562327 
-32 1:-0.6796 2:-0.621206 3:-0.581299 4:-0.887144 5:-0.858774 6:-0.811877 7:-0.882591 8:-0.743954 9:-0.586495 10:-0.689055 11:-0.5744 12:-0.304703 13:-0.691283 14:-0.635727 15:-0.543237 16:-0.616685 17:-0.627037 18:-0.555402 
-32 1:-0.321427 2:-0.450315 3:-0.577298 4:-0.751343 5:-0.805944 6:-0.810732 7:-0.432694 8:-0.504859 9:-0.578994 10:-0.681592 11:-0.5472 12:-0.298569 13:-0.744552 14:-0.663748 15:-0.547672 16:-0.719278 17:-0.656005 18:-0.552632 
-32 1:-0.997835 2:-0.994218 3:-0.834746 4:-0.996548 5:-0.991411 6:-0.623088 7:-0.999491 8:-0.999821 9:-0.83078 10:-0.45398 11:-0.6192 12:-0.357873 13:-0.692494 14:-0.728546 15:-0.574279 16:0.622322 17:0.104406 18:-0.716066 
-32 1:-0.99967 2:-0.999549 3:-0.973731 4:-0.999698 5:-0.99951 6:-0.960844 7:-0.9998 8:-0.999946 9:-0.997275 10:0.121891 11:-0.08 12:-0.355828 13:-0.0702179 14:-0.350263 15:-0.521064 16:0.499436 17:0.868437 18:-0.610803 
-32 1:-0.998266 2:-0.995805 3:-0.877495 4:-0.996561 5:-0.991402 6:-0.622338 7:-0.999491 8:-0.999822 9:-0.833165 10:-0.485075 11:-0.6208 12:-0.439673 13:-0.692494 14:-0.728546 15:-0.567627 16:0.650507 17:0.123718 18:-0.717452 
-32 1:-0.896508 2:-0.857606 3:-0.825456 4:-0.86154 5:-0.753104 6:-0.60678 7:-0.947235 8:-0.90465 9:-0.814281 10:-0.686567 11:-0.6288 12:-0.355828 13:-0.823245 14:-0.8669 15:-0.543237 16:-0.633596 17:-0.733253 18:-0.718837 
-32 1:-0.805152 2:-0.810813 3:-0.835475 4:-0.792042 5:-0.69655 6:-0.60653 7:-0.814166 8:-0.827111 9:-0.808297 10:-0.748756 11:-0.6496 12:-0.437628 13:-0.823245 14:-0.847636 15:-0.543237 16:-0.792559 17:-0.769463 18:-0.720222 
32 1:-0.999999 2:-1 3:-0.999845 4:-0.999963 5:-0.99995 6:-0.999379 7:-0.999712 8:-0.99999 9:-1 10:0.731343 11:1 12:0.134969 13:0.657385 14:-0.348511 15:-0.490022 16:0.373168 17:0.699457 18:0.923823 
32 1:-0.999272 2:-0.998701 3:-0.924498 4:-0.999174 5:-0.997547 6:-0.816375 7:-0.999239 8:-0.999886 9:-0.989572 10:-0.146766 11:-0.4832 12:-0.423313 13:0.150121 14:-0.381786 15:0.0665188 16:1 17:0.436331 18:-0.385042 
32 1:-0.844071 2:-0.751923 3:-0.343548 4:-0.820197 5:-0.614567 6:0.358517 7:-0.910687 8:-0.77921 9:-0.219405 10:-0.776119 11:-0.664 12:0.0368098 13:-0.737288 14:-0.644483 15:0.359202 16:-0.830891 17:-0.880507 18:-0.342105 
-32 1:-0.20325 2:-0.200609 3:-0.0559582 4:0.00296234 5:0.418484 6:0.47396 7:-0.437267 8:-0.158432 9:-0.15719 10:-0.589552 11:-0.3072 12:0.0429448 13:-0.575061 14:-0.378284 15:0.290466 16:-0.565953 17:-0.520821 18:-0.310249 
-32 1:-0.999904 2:-0.999918 3:-0.99727 4:-0.999867 5:-0.999879 6:-0.997252 7:-0.999327 8:-0.999924 9:-0.999937 10:0.837065 11:0.1664 12:-0.202454 13:1 14:-0.14711 15:0.527716 16:0.797069 17:1 18:0.459834 
23.83778323812822 1:-0.788844 2:-0.501286 3:0.481048 4:-0.929671 5:-0.854532 6:-0.335937 7:-0.989398 8:-0.974954 9:-0.792903 10:-0.84204 11:-0.7216 12:0.462168 13:-0.952785 14:-0.975482 15:-0.64745 16:-0.656144 17:-0.89137 18:-0.307479 
32 1:-0.736021 2:-0.886031 3:0.251075 4:-0.894312 5:-0.961999 6:-0.498861 7:-0.947567 8:-0.972388 9:-0.804535 10:-0.808458 11:-0.3792 12:0.773006 13:-0.960048 14:-0.798599 15:-0.554324 16:-0.766629 17:-0.814122 18:-0.245152 
-32 1:-0.527628 2:-0.211396 3:0.4969 4:-0.879734 5:-0.775195 6:-0.259279 7:-0.931921 8:-0.905718 9:-0.77354 10:-0.495025 11:-0.288 12:0.488753 13:-0.79661 14:-0.789842 15:-0.580931 16:-0.733935 17:-0.578757 18:-0.242382 
-32 1:0.554847 2:0.31206 3:0.795741 4:-0.618311 5:-0.586528 6:0.023915 7:-0.806294 8:-0.796747 9:-0.770004 10:-0.460199 11:-0.1024 12:0.265849 13:-0.848668 14:-0.810858 15:-0.651885 16:-0.48929 17:-0.437538 18:-0.339335 
-32 1:0.568044 2:0.378633 3:1 4:-0.612961 5:-0.580564 6:0.044285 7:-0.800606 8:-0.794729 9:-0.748059 10:-0.451493 11:-0.136 12:0.296524 13:-0.849879 14:-0.814361 15:-0.649667 16:-0.494927 17:-0.435124 18:-0.259003 
-32 1:-0.999686 2:-0.999523 3:-0.97184 4:-0.999707 5:-0.999472 6:-0.954817 7:-0.999666 8:-0.999947 9:-0.996425 10:0.118159 11:-0.2496 12:-0.402863 13:0.255448 14:-0.33275 15:-0.40133 16:0.674183 17:0.923959 18:-0.555402 
-32 1:-0.82957 2:-0.825117 3:-0.816544 4:-0.706431 5:-0.782747 6:-0.732991 7:-0.779279 8:-0.746692 9:-0.826665 10:-0.761194 11:-0.6192 12:-0.372188 13:-0.837772 14:-0.681261 15:-0.365854 16:-0.806088 17:-0.820157 18:-0.614958 
-32 1:-0.892331 2:-0.852731 3:-0.813703 4:-0.763332 5:-0.81358 6:-0.723897 7:-0.87008 8:-0.813185 9:-0.825089 10:-0.687811 11:-0.5952 12:-0.372188 13:-0.825666 14:-0.656743 15:-0.279379 16:-0.78354 17:-0.809294 18:-0.610803 
-32 1:-0.829903 2:-0.821695 3:-0.814231 4:-0.701258 5:-0.779268 6:-0.715477 7:-0.778002 8:-0.744501 9:-0.808007 10:-0.758706 11:-0.608 12:-0.380368 13:-0.83414 14:-0.674256 15:-0.288248 16:-0.802706 17:-0.817743 18:-0.581717 
-32 1:-0.830125 2:-0.821273 3:-0.814525 4:-0.700468 5:-0.779689 6:-0.715935 7:-0.778497 8:-0.742907 9:-0.807794 10:-0.753731 11:-0.608 12:-0.378323 13:-0.83293 14:-0.672504 15:-0.288248 16:-0.798196 17:-0.810501 18:-0.583102 
32 1:-0.999878 2:-0.999946 3:-0.999678 4:-0.999627 5:-0.999466 6:-0.970074 7:-0.999275 8:-0.999923 9:-0.998252 10:1 11:0.5264 12:0.284254 13:-0.299031 14:-0.831874 15:-1 16:0.559188 17:0.8793 18:-0.963989 
32 1:-0.99995 2:-0.999945 3:-0.999707 4:-0.999934 5:-0.999954 6:-0.997906 7:-0.999744 8:-0.99996 9:-0.999956 10:0.812189 11:0.648 12:0.511247 13:0.686441 14:0.49387 15:-0.43459 16:0.467869 17:0.882921 18:0.965374 
16.79755801183818 1:-0.00645537 2:0.121739 3:-0.0192389 4:-0.301871 5:-0.234961 6:0.327112 7:-0.583422 8:-0.496073 9:-0.423769 10:-0.626866 11:-0.4992 12:0.149284 13:-0.760291 14:-0.660245 15:-0.419069 16:-0.64938 17:-0.634279 18:-0.441828 
32 1:-0.0378457 2:0.0808718 3:-0.019761 4:-0.303624 5:-0.235519 6:0.333361 7:-0.590206 8:-0.47716 9:-0.42163 10:-0.640547 11:-0.4592 12:0.151329 13:-0.765133 14:-0.670753 15:-0.416851 16:-0.683202 17:-0.648763 18:-0.443213 
32 1:-0.45171 2:-0.0699166 3:-0.0205493 4:-0.569253 5:-0.359388 6:0.292538 7:-0.861089 8:-0.66351 9:-0.424886 10:-0.641791 11:-0.4848 12:0.155419 13:-0.779661 14:-0.684764 15:-0.421286 16:-0.643743 17:-0.647556 18:-0.433518 
32 1:-0.998617 2:-0.998026 3:-0.883799 4:-0.998737 5:-0.997952 6:-0.877695 7:-0.999243 8:-0.999876 9:-0.934284 10:-0.39801 11:-0.5104 12:-0.541922 13:-0.366828 14:-0.597198 15:-0.560976 16:0.543405 17:0.403742 18:-0.904432 
-32 1:-0.994228 2:-0.989807 3:-0.578826 4:-0.995033 5:-0.991525 6:-0.560542 7:-0.998939 8:-0.999601 9:-0.452188 10:-0.636816 11:-0.672 12:-0.627812 13:-0.640436 14:-0.702277 15:-0.629712 16:0.417136 17:-0.257695 18:-0.764543 
-32 1:-0.877096 2:-0.781279 3:-0.550089 4:-0.904089 5:-0.820319 6:-0.523782 7:-0.9289 8:-0.815929 9:-0.401354 10:-0.84204 11:-0.8112 12:-0.629857 13:-0.835351 14:-0.824869 15:-0.643016 16:-0.760992 17:-0.804466 18:-0.785319 
-32 1:-0.826374 2:-0.708365 3:-0.547083 4:-0.853499 5:-0.771915 6:-0.520112 7:-0.76205 8:-0.640587 9:-0.377303 10:-0.864428 11:-0.8208 12:-0.638037 13:-0.854722 14:-0.817863 15:-0.614191 16:-0.855693 17:-0.837055 18:-0.763158 
-32 1:-0.825038 2:-0.708166 3:-0.546309 4:-0.854417 5:-0.771236 6:-0.519745 7:-0.76347 8:-0.63889 9:-0.379027 10:-0.865672 11:-0.8224 12:-0.629857 13:-0.855932 14:-0.821366 15:-0.611973 16:-0.854566 17:-0.835848 18:-0.767313 
32 1:-0.998117 2:-0.996406 3:-0.862627 4:-0.997734 5:-0.992711 6:-0.775241 7:-0.999453 8:-0.999871 9:-0.862135 10:-0.396766 11:-0.4624 12:-0.374233 13:-0.543584 14:-0.791594 15:-0.485588 16:0.72717 17:0.587206 18:-0.761773 
32 1:-0.627966 2:-0.730666 3:-0.813452 4:-0.713955 5:-0.759021 6:-0.746837 7:-0.563774 8:-0.656022 9:-0.717125 10:-0.655473 11:-0.4672 12:0.0204499 13:-0.773608 14:-0.688266 15:-0.365854 16:-0.820744 17:-0.724804 18:-0.598338 
-32 1:-0.74465 2:-0.754149 3:-0.787716 4:-0.800041 5:-0.798142 6:-0.741039 7:-0.823236 8:-0.755906 9:-0.710637 10:-0.577114 11:-0.408 12:0.132924 13:-0.749395 14:-0.646235 15:-0.321508 16:-0.741826 17:-0.672903 18:-0.596953 
32 1:-0.824302 2:-0.800623 3:-0.80175 4:-0.863817 5:-0.827926 6:-0.742032 7:-0.906154 8:-0.811076 9:-0.711944 10:-0.618159 11:-0.4928 12:-0.0552147 13:-0.738499 14:-0.656743 15:-0.323725 16:-0.754228 17:-0.765842 18:-0.588643 
-32 1:-0.724474 2:-0.745217 3:-0.789074 4:-0.772338 5:-0.784185 6:-0.741602 7:-0.756858 8:-0.727546 9:-0.741876 10:-0.579602 11:-0.4 12:0.126789 13:-0.751816 14:-0.630473 15:-0.323725 16:-0.773393 17:-0.682559 18:-0.605263 
