svm_type c_svc
kernel_type rbf
gamma 0.0555556
nr_class 5
total_sv 442
rho -3.34849 -2.80331 -5.22201 -1.89263 -0.464234 -0.323847 1.16415 3.73672 6.4876 8.30597
label 1 2 3 4 5
probA -2.63448 -2.38166 -1.59324 -1.52104 -2.94882 -1.99182 -1.70381 -2.80845 -3.02429 -2.40705
probB -0.359165 0.226667 -0.223533 0.0622987 0.12642 -0.221987 0.28512 -0.388718 -0.247202 -0.296221
nr_sv 113 128 24 57 120
SV
64 0 0 64 1:-0.882602 2:0.425178 3:0.18766 4:-0.901394 5:-0.28914 6:0.161548 7:-0.985639 8:-0.791957 9:0.00548823 10:-0.321503 11:-0.497537 12:0.0420673 13:-0.446345 14:-0.310231 15:-0.133934 16:-0.327784 17:-0.179229 18:-0.0157068 
64 0 0 64 1:-0.962382 2:-0.732594 3:-0.593775 4:-0.978074 5:-0.844786 6:-0.679739 7:-0.994489 8:-0.937958 9:-0.634638 10:-0.641962 11:-0.485495 12:-0.188702 13:-0.815448 14:-0.746975 15:-0.384985 16:-0.814776 17:-0.710776 18:-0.364747 
64 0 0 0 1:-0.917962 2:-0.258422 3:-0.0146916 4:-0.94259 5:-0.533432 6:0.260072 7:-0.995882 8:-0.952195 9:-0.618713 10:-0.787056 11:-0.696771 12:-0.344952 13:-0.866252 14:-0.815182 15:-0.710511 16:-0.830385 17:-0.814629 18:-0.613729 
46.91058786187717 0 0 0 1:-0.859102 2:-0.368654 3:-0.106797 4:-0.935788 5:-0.728491 6:-0.661015 7:-0.971169 8:-0.795514 9:-0.314085 10:-0.65762 11:-0.504105 12:-0.301683 13:-0.667185 14:-0.533553 15:-0.166366 16:-0.745057 17:-0.592406 18:-0.250727 
64 0 0 0 1:-0.985205 2:-0.888632 3:-0.813792 4:-0.973835 5:-0.866789 6:-0.722503 7:-0.997292 8:-0.968453 9:-0.874709 10:-0.881002 11:-0.80405 12:-0.638221 13:-0.944012 14:-0.856986 15:-0.646847 16:-0.947971 17:-0.941932 18:-0.718441 
64 0 0 0 1:-0.919127 2:-0.522494 3:0.0650512 4:-0.840375 5:-0.0754635 6:0.502864 7:-0.994017 8:-0.947295 9:-0.609656 10:-0.811065 11:-0.683634 12:-0.49399 13:-0.797823 14:-0.666667 15:-0.478679 16:-0.83871 17:-0.768844 18:-0.455497 
64 0 15.5328007330765 64 1:-0.929498 2:-0.509808 3:-0.366368 4:-0.930933 5:-0.571432 6:-0.34927 7:-0.982668 8:-0.771112 9:-0.00513517 10:-0.597077 11:-0.438424 12:-0.241587 13:-0.637118 14:-0.477448 15:-0.273273 16:-0.655567 17:-0.498604 18:-0.280977 
64 0 0 64 1:-0.927146 2:-0.320711 3:0.240344 4:-0.928804 5:-0.460853 6:0.782016 7:-0.995455 8:-0.941233 9:-0.608118 10:-0.850731 11:-0.754789 12:-0.548077 13:-0.837221 14:-0.760176 15:-0.697297 16:-0.800208 17:-0.752094 18:-0.596277 
64 0 64 64 1:-0.901548 2:-0.55224 3:-0.174898 4:-0.972591 5:-0.863974 6:-0.704757 7:-0.991814 8:-0.928284 9:-0.745695 10:-0.553236 11:-0.483306 12:-0.484375 13:-0.795749 14:-0.761276 15:-0.804204 16:-0.650364 17:-0.577889 18:-0.579988 
0 0 64 64 1:-0.967621 2:-0.695767 3:-0.428782 4:-0.965744 5:-0.712424 6:-0.425194 7:-0.995939 8:-0.923364 9:-0.307707 10:-0.708768 11:-0.561029 12:-0.18149 13:-0.741835 14:-0.629263 15:-0.312913 16:-0.718002 17:-0.632607 18:-0.317045 
-0 0 0 9.893680695123605 1:-0.9559 2:-0.776993 3:-0.7183 4:-0.949717 5:-0.728135 6:-0.603783 7:-0.985992 8:-0.906047 9:-0.45546 10:-0.790188 11:-0.637657 12:-0.272837 13:-0.80508 14:-0.654565 15:-0.25045 16:-0.884495 17:-0.740927 18:-0.320535 
64 0 64 64 1:-0.841214 2:-0.0143326 3:1 4:-0.959308 5:-0.714908 6:0.0115411 7:-0.996384 8:-0.964049 9:-0.827123 10:-0.537578 11:-0.388068 12:-0.216346 13:-0.858994 14:-0.838284 15:-0.81021 16:-0.583767 17:-0.495254 18:-0.378709 
0 0 0 64 1:-0.988623 2:-0.929389 3:-0.90407 4:-0.983563 5:-0.883346 6:-0.806367 7:-0.998655 8:-0.981935 9:-0.857233 10:-0.935282 11:-0.875205 12:-0.526442 13:-0.913945 14:-0.847085 15:-0.603604 16:-0.952133 17:-0.948632 18:-0.659104 
0 0 0 7.753385738502247 1:-0.990127 2:-0.889136 3:-0.497966 4:-0.991396 5:-0.897119 6:-0.518217 7:-0.999858 8:-0.997747 9:-0.570664 10:-0.977035 11:-0.914614 12:-0.455529 13:-0.984448 14:-0.947195 15:-0.574775 16:-0.808533 17:-0.888331 18:-0.689354 
64 0 64 64 1:-0.9564 2:-0.835093 3:-0.85514 4:-0.994113 5:-0.967356 6:-0.944085 7:-0.997767 8:-0.980189 9:-0.928403 10:-0.695198 11:-0.584018 12:-0.341346 13:-0.8507 14:-0.865787 15:-0.704505 16:-0.725286 17:-0.73311 18:-0.550902 
64 0 0 0 1:-0.920758 2:-0.532286 3:0.0227763 4:-0.840178 5:-0.0805527 6:0.458148 7:-0.993868 8:-0.948836 9:-0.610477 10:-0.812109 11:-0.68254 12:-0.519231 13:-0.799896 14:-0.671067 15:-0.502703 16:-0.841831 17:-0.768844 18:-0.465969 
64 59.88019808628525 49.0211466851001 64 1:-0.877402 2:0.456199 3:0.191316 4:-0.896321 5:-0.263048 6:0.168444 7:-0.984571 8:-0.768841 9:0.0115957 10:-0.279749 11:-0.473454 12:0.0432692 13:-0.403836 14:-0.264026 15:-0.13033 16:-0.261186 17:-0.108878 18:0.00639907 
0 0 0 64 1:-0.960352 2:-0.839537 3:-0.848353 4:-0.995336 5:-0.972956 6:-0.944977 7:-0.998113 8:-0.983979 9:-0.929122 10:-0.730689 11:-0.617953 12:-0.388221 13:-0.894246 14:-0.943894 15:-0.724925 16:-0.742976 17:-0.787828 18:-0.569517 
64 0 0 9.105164094647146 1:-0.962994 2:-0.801103 3:-0.790075 4:-0.97234 5:-0.84712 6:-0.751269 7:-0.993837 8:-0.949128 9:-0.802198 10:-0.769311 11:-0.640941 12:-0.347356 13:-0.870399 14:-0.829483 15:-0.668468 16:-0.895942 17:-0.859296 18:-0.714951 
28.98788007355829 0 0 0 1:-0.910652 2:-0.326367 3:-0.137202 4:-0.824003 5:0.251261 6:0.933924 7:-0.985592 8:-0.772306 9:0.400817 10:-0.583507 11:-0.399015 12:0.0348558 13:-0.57802 14:-0.39714 15:0.0666667 16:-0.628512 17:-0.515355 18:-0.0773706 
64 0 0 64 1:-0.992126 2:-0.930767 3:-0.808613 4:-0.992963 5:-0.953127 6:-0.795185 7:-0.998998 8:-0.980947 9:-0.864612 10:-0.911273 11:-0.875205 12:-0.745192 13:-0.896319 14:-0.833883 15:-0.663664 16:-0.915713 17:-0.956449 18:-0.76498 
0 0 0 64 1:-0.988832 2:-0.929761 3:-0.904117 4:-0.984202 5:-0.886277 6:-0.806965 7:-0.998777 8:-0.983784 9:-0.857632 10:-0.938413 11:-0.8763 12:-0.527644 13:-0.926387 14:-0.862486 15:-0.603604 16:-0.966701 17:-0.968733 18:-0.663758 
64 0 0 64 1:-0.982623 2:-0.906813 3:-0.851525 4:-0.994132 5:-0.94726 6:-0.883269 7:-0.997404 8:-0.975003 9:-0.892111 10:-0.848643 11:-0.797482 12:-0.659856 13:-0.870399 14:-0.834983 15:-0.628829 16:-0.898023 17:-0.86823 18:-0.716114 
64 0 0 0 1:-0.953009 2:-0.667761 3:-0.703377 4:-0.931239 5:-0.601558 6:-0.463355 7:-0.996009 8:-0.961981 9:-0.8417 10:-0.830898 11:-0.817187 12:-0.670673 13:-0.892172 14:-0.89549 15:-0.865465 16:-0.754422 17:-0.731993 18:-0.636998 
64 0 0 0 1:-0.973243 2:-0.839695 3:-0.797094 4:-0.977615 5:-0.873471 6:-0.760875 7:-0.99652 8:-0.966747 9:-0.827953 10:-0.865344 11:-0.779967 12:-0.433894 13:-0.917055 14:-0.882288 15:-0.708108 16:-0.9282 17:-0.912898 18:-0.787086 
64 0 0 0 1:-0.986568 2:-0.900379 3:-0.831807 4:-0.982251 5:-0.827517 6:-0.617957 7:-0.998701 8:-0.986526 9:-0.883712 10:-0.895616 11:-0.83908 12:-0.653846 13:-0.952307 14:-0.938394 15:-0.771772 16:-0.939646 17:-0.947515 18:-0.838278 
64 0 0 64 1:-0.958437 2:-0.789742 3:-0.640268 4:-0.978281 5:-0.866902 6:-0.782757 7:-0.994578 8:-0.955599 9:-0.832988 10:-0.882046 11:-0.814997 12:-0.730769 13:-0.869362 14:-0.881188 15:-0.87988 16:-0.800208 17:-0.800112 18:-0.763816 
64 26.37434014374061 64 64 1:-0.979909 2:-0.864431 3:-0.827126 4:-0.978106 5:-0.794776 6:-0.616212 7:-0.996699 8:-0.97143 9:-0.868799 10:-0.746347 11:-0.735085 12:-0.59976 13:-0.812338 14:-0.858086 15:-0.742943 16:-0.648283 17:-0.757677 18:-0.76847 
64 0 3.548141678708662 64 1:-0.980235 2:-0.864761 3:-0.826883 4:-0.978444 5:-0.79535 6:-0.615891 7:-0.996978 8:-0.971866 9:-0.868743 10:-0.789144 11:-0.749316 12:-0.59976 13:-0.846553 14:-0.865787 15:-0.745345 16:-0.762747 17:-0.781128 18:-0.76847 
15.12373650887282 0 5.988153823757845 64 1:-0.845455 2:-0.0242488 3:0.989777 4:-0.963775 5:-0.732361 6:-0.0168006 7:-0.9973 8:-0.976075 9:-0.832268 10:-0.60334 11:-0.440613 12:-0.207933 13:-0.930534 14:-0.907591 15:-0.816216 16:-0.677419 17:-0.644891 18:-0.464805 
64 0 0 64 1:-0.984478 2:-0.913092 3:-0.852163 4:-0.994399 5:-0.952752 6:-0.886416 7:-0.997777 8:-0.979868 9:-0.896676 10:-0.865344 11:-0.816092 12:-0.68149 13:-0.87351 14:-0.852585 15:-0.63964 16:-0.894901 17:-0.87158 18:-0.732403 
64 39.27007233186414 64 64 1:-0.953624 2:-0.827554 3:-0.854287 4:-0.992097 5:-0.95855 6:-0.941074 7:-0.996626 8:-0.971917 9:-0.922667 10:-0.63048 11:-0.501916 12:-0.295673 13:-0.731467 14:-0.721672 15:-0.663664 16:-0.62435 17:-0.605807 18:-0.44968 
64 0 0 0 1:-0.955916 2:-0.684121 3:-0.572396 4:-0.986865 5:-0.918292 6:-0.821509 7:-0.997471 8:-0.967692 9:-0.740967 10:-0.854906 11:-0.781062 12:-0.614183 13:-0.927424 14:-0.914191 15:-0.813814 16:-0.903226 17:-0.862647 18:-0.719604 
64 56.84265246053415 64 64 1:-0.98466 2:-0.901184 3:-0.800515 4:-0.986621 5:-0.921369 6:-0.788296 7:-0.99629 8:-0.958742 9:-0.841297 10:-0.717119 11:-0.69896 12:-0.700721 13:-0.696216 14:-0.616062 15:-0.573574 16:-0.704475 17:-0.752094 18:-0.669575 
64 64 64 64 1:-0.960548 2:-0.66179 3:-0.420977 4:-0.957866 5:-0.680456 6:-0.417853 7:-0.992932 8:-0.887769 9:-0.30484 10:-0.573069 11:-0.439518 12:-0.183894 13:-0.60705 14:-0.50495 15:-0.306907 16:-0.473465 17:-0.356784 18:-0.287958 
0 0 0 64 1:-0.939479 2:-0.57605 3:-0.363543 4:-0.939471 5:-0.62445 6:-0.352624 7:-0.985864 8:-0.833463 9:-0.0324511 10:-0.664927 11:-0.541325 12:-0.247596 13:-0.708657 14:-0.59516 15:-0.304505 16:-0.74922 17:-0.619207 18:-0.321699 
64 0 0 64 1:-0.979656 2:-0.895349 3:-0.898179 4:-0.974087 5:-0.845445 6:-0.799459 7:-0.995265 8:-0.956429 9:-0.829264 10:-0.807933 11:-0.731801 12:-0.4375 13:-0.789528 14:-0.711771 15:-0.545946 16:-0.832466 17:-0.781128 18:-0.519488 
0 0 0 64 1:-0.968713 2:-0.770094 3:-0.600001 4:-0.980811 5:-0.866874 6:-0.698225 7:-0.996034 8:-0.954288 9:-0.665231 10:-0.727557 11:-0.59168 12:-0.246394 13:-0.85381 14:-0.79648 15:-0.434234 16:-0.858481 17:-0.798995 18:-0.433392 
64 0 0 64 1:-0.9198 2:-0.652939 3:-0.573743 4:-0.940482 5:-0.662341 6:-0.568985 7:-0.98112 8:-0.839768 9:-0.542356 10:-0.783925 11:-0.623426 12:-0.459135 13:-0.644375 14:-0.479648 15:-0.231231 16:-0.762747 17:-0.629257 18:-0.370564 
64 0 0 64 1:-0.989492 2:-0.930817 3:-0.85801 4:-0.995695 5:-0.96042 6:-0.896695 7:-0.998829 8:-0.987444 9:-0.907741 10:-0.913361 11:-0.866448 12:-0.72476 13:-0.907724 14:-0.886689 15:-0.65045 16:-0.940687 17:-0.930765 18:-0.766143 
0 0 0 40.479772179449 1:-0.936602 2:-0.371608 3:0.476758 4:-0.957424 5:-0.632501 6:-0.00824587 7:-0.999127 8:-0.986623 9:-0.0906221 10:-0.843424 11:-0.713191 12:-0.332933 13:-0.921203 14:-0.821782 15:-0.60961 16:-0.914672 17:-0.798995 18:-0.576498 
64 23.31323342319897 64 64 1:-0.952221 2:-0.778168 3:-0.788004 4:-0.968308 5:-0.830852 6:-0.74842 7:-0.991828 8:-0.934812 9:-0.79831 10:-0.612735 11:-0.542419 12:-0.3125 13:-0.782271 14:-0.727173 15:-0.636036 16:-0.768991 17:-0.709659 18:-0.65096 
64 0 0 0 1:-0.964097 2:-0.705471 3:-0.711164 4:-0.936456 5:-0.634603 6:-0.470048 7:-0.99808 8:-0.983047 9:-0.860723 10:-0.919624 11:-0.885057 12:-0.731971 13:-0.956454 14:-0.949395 15:-0.888288 16:-0.893861 17:-0.892797 18:-0.744037 
0 0 0 64 1:-0.981952 2:-0.884141 3:-0.710292 4:-0.981164 5:-0.888774 6:-0.667931 7:-0.995424 8:-0.96295 9:-0.756578 10:-0.899791 11:-0.814997 12:-0.521635 13:-0.913945 14:-0.828383 15:-0.523123 16:-0.957336 17:-0.917365 18:-0.683537 
64 0 0 64 1:-0.845147 2:-0.0232902 3:0.989878 4:-0.96386 5:-0.732441 6:-0.0167907 7:-0.997304 8:-0.976933 9:-0.832306 10:-0.604384 11:-0.440613 12:-0.207933 13:-0.930534 14:-0.907591 15:-0.816216 16:-0.682622 17:-0.642658 18:-0.464805 
64 0 0 0 1:-0.992582 2:-0.913171 3:-0.918127 4:-0.994575 5:-0.940646 6:-0.906156 7:-0.998795 8:-0.975234 9:-0.849765 10:-1 11:-1 12:-0.950721 13:-0.957491 14:-0.961496 15:-0.804204 16:-0.980229 17:-1 18:-0.954625 
64 0 0 0 1:-0.928817 2:-0.484267 3:-0.0716267 4:-0.904173 5:-0.107078 6:0.407186 7:-0.99235 8:-0.89761 9:-0.450311 10:-0.767223 11:-0.649699 12:-0.359375 13:-0.731467 14:-0.653465 15:-0.321321 16:-0.770031 17:-0.750977 18:-0.528796 
64 0 0 64 1:-0.99182 2:-0.92622 3:-0.807311 4:-0.992765 5:-0.950334 6:-0.792262 7:-0.998962 8:-0.979665 9:-0.864355 10:-0.90501 11:-0.868637 12:-0.737981 13:-0.890098 14:-0.823982 15:-0.648048 16:-0.912591 17:-0.954216 18:-0.76847 
64 0 64 64 1:-0.977193 2:-0.866517 3:-0.711623 4:-0.977574 5:-0.870706 6:-0.670559 7:-0.992995 8:-0.946071 9:-0.754367 10:-0.787056 11:-0.667214 12:-0.513221 13:-0.80197 14:-0.70077 15:-0.502703 16:-0.810614 17:-0.754327 18:-0.612565 
64 0 0 64 1:-0.929746 2:-0.606043 3:-0.579252 4:-0.973543 5:-0.868824 6:-0.817047 7:-0.990378 8:-0.916086 9:-0.711855 10:-0.713987 11:-0.667214 12:-0.564904 13:-0.75635 14:-0.743674 15:-0.758559 16:-0.670135 17:-0.652708 18:-0.630017 
9.289475986098834 0 0 64 1:-0.982085 2:-0.790957 3:-0.548342 4:-0.984633 5:-0.845823 6:-0.537424 7:-0.996407 8:-0.941545 9:-0.575327 10:-0.858038 11:-0.850027 12:-0.757212 13:-0.844479 14:-0.839384 15:-0.792192 16:-0.780437 17:-0.826912 18:-0.802211 
1.559342583191761 0 0 0 1:-0.96425 2:-0.705466 3:-0.710883 4:-0.936679 5:-0.634216 6:-0.471451 7:-0.998167 8:-0.984654 9:-0.860862 10:-0.920668 11:-0.886152 12:-0.731971 13:-0.957491 14:-0.950495 15:-0.891892 16:-0.903226 17:-0.902848 18:-0.745201 
0 0 0 14.22226227825183 1:-0.99539 2:-0.924802 3:-0.501403 4:-0.941092 5:-0.458637 6:0.569254 7:-0.9997 8:-0.995182 9:-0.567958 10:-0.94572 11:-0.954023 12:-0.566106 13:-0.896319 14:-0.79868 15:-0.237237 16:-0.866805 17:-0.855946 18:-0.53694 
64 0 0 64 1:-0.930632 2:-0.374688 3:0.23874 4:-0.934363 5:-0.492252 6:0.772827 7:-0.996342 8:-0.957536 9:-0.632986 10:-0.874739 11:-0.782157 12:-0.563702 13:-0.861068 14:-0.788779 15:-0.702102 16:-0.830385 17:-0.786711 18:-0.614892 
64 0 0 0 1:-0.985285 2:-0.888739 3:-0.81359 4:-0.973833 5:-0.866812 6:-0.722269 7:-0.997291 8:-0.968436 9:-0.875723 10:-0.882046 11:-0.80405 12:-0.638221 13:-0.945049 14:-0.856986 15:-0.648048 16:-0.947971 17:-0.943049 18:-0.732403 
64 54.59633970603646 0 64 1:-0.793142 2:0.221281 3:0.574912 4:-0.839104 5:-0.187797 6:0.110772 7:-0.969112 8:-0.662176 9:0.23753 10:-0.528184 11:-0.3815 12:-0.122596 13:-0.609124 14:-0.555556 15:-0.483483 16:-0.584807 17:-0.516471 18:-0.427574 
64 0 0 64 1:-0.960023 2:-0.794009 3:-0.642851 4:-0.980134 5:-0.870187 6:-0.782155 7:-0.995569 8:-0.960525 9:-0.83285 10:-0.916493 11:-0.829228 12:-0.731971 13:-0.916019 14:-0.90319 15:-0.884685 16:-0.898023 17:-0.850363 18:-0.776614 
64 0 0 64 1:-0.93016 2:-0.606932 3:-0.579465 4:-0.973804 5:-0.869512 6:-0.817287 7:-0.990546 8:-0.917042 9:-0.712032 10:-0.729645 11:-0.674877 12:-0.569712 13:-0.77916 14:-0.756876 15:-0.763363 16:-0.705515 17:-0.675042 18:-0.635835 
0 0 0 29.08178792958481 1:-0.985349 2:-0.903379 3:-0.724506 4:-0.983558 5:-0.906576 6:-0.677372 7:-0.996849 8:-0.973936 9:-0.77978 10:-0.922756 11:-0.847838 12:-0.545673 13:-0.944012 14:-0.862486 15:-0.556757 16:-0.983351 17:-0.959799 18:-0.706806 
0 0 0 64 1:-0.972086 2:-0.878642 3:-0.86063 4:-0.996162 5:-0.978119 6:-0.950859 7:-0.998571 8:-0.989823 9:-0.939606 10:-0.820459 11:-0.696771 12:-0.457933 13:-0.940902 14:-0.970297 15:-0.754955 16:-0.872008 17:-0.860413 18:-0.655614 
0 0 26.20974134456163 0 1:-0.980854 2:-0.75414 3:0.21996 4:-0.992505 5:-0.965629 6:-0.667313 7:-0.999962 8:-0.999447 9:-0.943021 10:-0.962422 11:-0.905857 12:-0.6875 13:-1 14:-1 15:-0.96036 16:-0.569199 17:-0.920715 18:-0.869692 
64 0 0 0 1:-0.923819 2:-0.447574 3:-0.0594056 4:-0.899466 5:-0.0643893 6:0.417442 7:-0.991626 8:-0.877549 9:-0.426669 10:-0.719207 11:-0.582923 12:-0.358173 13:-0.692068 14:-0.608361 15:-0.298498 16:-0.74922 17:-0.715243 18:-0.448517 
64 0 64 64 1:-0.952826 2:-0.703888 3:-0.597302 4:-0.973226 5:-0.82392 6:-0.681421 7:-0.991711 8:-0.915663 9:-0.632909 10:-0.507307 11:-0.360701 12:-0.182692 13:-0.697252 14:-0.605061 15:-0.370571 16:-0.663892 17:-0.500838 18:-0.297266 
64 0 0 64 1:-0.933489 2:-0.526361 3:-0.361891 4:-0.934904 5:-0.582529 6:-0.344233 7:-0.983809 8:-0.792906 9:-0.0103304 10:-0.611691 11:-0.469075 12:-0.245192 13:-0.65267 14:-0.517052 15:-0.291291 16:-0.675338 17:-0.536572 18:-0.296102 
64 0 0 0 1:-0.986806 2:-0.907086 3:-0.81768 4:-0.976674 5:-0.883168 6:-0.733046 7:-0.997188 8:-0.973578 9:-0.884958 10:-0.902923 11:-0.83908 12:-0.65024 13:-0.968896 14:-0.894389 15:-0.69009 16:-0.975026 17:-0.958682 18:-0.748691 
64 0 0 64 1:-0.890234 2:-0.285898 3:-0.135023 4:-0.803616 5:0.279405 6:0.925018 7:-0.978399 8:-0.726136 9:0.374259 10:-0.507307 11:-0.318008 12:0.0600962 13:-0.497149 14:-0.333333 15:0.0810811 16:-0.506764 17:-0.369068 18:-0.0354857 
0 0 64 0 1:-0.997786 2:-0.97584 3:-0.724377 4:-0.997785 5:-0.977153 6:-0.853886 7:-0.999978 8:-0.999799 9:-0.929483 10:-0.973904 11:-0.941981 12:-0.694712 13:-1 14:-1 15:-0.742943 16:0.140479 17:-0.806812 18:-0.815009 
64 0 0 0 1:-0.912411 2:-0.578162 3:-0.176841 4:-0.977841 5:-0.890563 6:-0.722869 7:-0.994316 8:-0.952952 9:-0.775086 10:-0.685804 11:-0.57526 12:-0.483173 13:-0.913945 14:-0.908691 15:-0.831832 16:-0.816857 17:-0.780011 18:-0.666085 
0 0 0 64 1:-0.997191 2:-0.967891 3:-0.855236 4:-0.988897 5:-0.872725 6:-0.637145 7:-0.999893 8:-0.99924 9:-0.911833 10:-0.979123 11:-0.975917 12:-0.728365 13:-0.987558 14:-0.974697 15:-0.837838 16:-0.8564 17:-0.917365 18:-0.892961 
64 0 0 64 1:-0.980555 2:-0.864995 3:-0.826709 4:-0.978806 5:-0.795345 6:-0.615479 7:-0.997329 8:-0.972546 9:-0.869043 10:-0.846555 11:-0.777778 12:-0.609375 13:-0.890098 14:-0.880088 15:-0.747748 16:-0.880333 17:-0.853713 18:-0.791739 
35.77833284390859 0 0 0 1:-0.921762 2:0.299085 3:0.199372 4:-0.934217 5:-0.40739 6:0.141839 7:-0.995279 8:-0.917843 9:0.00128204 10:-0.553236 11:-0.617953 12:0.0420673 13:-0.659927 14:-0.520352 15:-0.172372 16:-0.721124 17:-0.616974 18:-0.121582 
64 0 0 7.612404977869785 1:-0.860581 2:-0.100479 3:0.977843 4:-0.968234 5:-0.757654 6:-0.047249 7:-0.997052 8:-0.983324 9:-0.849432 10:-0.658664 11:-0.495348 12:-0.222356 13:-0.944012 14:-0.937294 15:-0.827027 16:-0.745057 17:-0.637074 18:-0.51018 
64 0 51.33396228867485 64 1:-0.924852 2:-0.310214 3:0.248788 4:-0.924739 5:-0.439313 6:0.795304 7:-0.993952 8:-0.927049 9:-0.610486 10:-0.826722 11:-0.728517 12:-0.551683 13:-0.815448 14:-0.743674 15:-0.702102 16:-0.759625 17:-0.695142 18:-0.591623 
64 0 0 0 1:-0.958915 2:-0.684131 3:-0.705363 4:-0.933361 5:-0.608597 6:-0.465664 7:-0.997454 8:-0.974311 9:-0.849264 10:-0.899791 11:-0.863164 12:-0.698317 13:-0.933644 14:-0.927393 15:-0.878679 16:-0.865765 17:-0.845896 18:-0.697499 
64 0 0 64 1:-0.946656 2:-0.736635 3:-0.717838 4:-0.940065 5:-0.694719 6:-0.607905 7:-0.980711 8:-0.866265 9:-0.450327 10:-0.704593 11:-0.510673 12:-0.258413 13:-0.710731 14:-0.523652 15:-0.222823 16:-0.782518 17:-0.558906 18:-0.291449 
49.5131661406508 0 0 0 1:-0.996028 2:-0.946429 3:-0.932253 4:-0.997963 5:-0.977815 6:-0.934427 7:-0.999742 8:-0.993244 9:-0.893472 10:-1 11:-1 12:-1 13:-1 14:-1 15:-0.912312 16:-0.947971 17:-1 18:-1 
0 0 64 64 1:-0.999151 2:-0.986992 3:-0.672902 4:-0.999164 5:-0.991714 6:-0.690323 7:-0.999979 8:-0.999895 9:-0.8512 10:-0.907098 11:-0.975917 12:-0.875 13:-0.932608 14:-0.963696 15:-0.899099 16:0.0187305 17:-0.671692 18:-0.955788 
64 0 0 64 1:-0.978555 2:-0.871974 3:-0.709472 4:-0.978697 5:-0.873747 6:-0.668807 7:-0.993917 8:-0.952716 9:-0.752645 10:-0.849687 11:-0.731801 12:-0.515625 13:-0.864178 14:-0.755776 15:-0.512312 16:-0.913632 17:-0.859296 18:-0.631181 
64 0 0 0 1:-0.935454 2:-0.617291 3:-0.578694 4:-0.978367 5:-0.881831 6:-0.818446 7:-0.994096 8:-0.93613 9:-0.713426 10:-0.805846 11:-0.727422 12:-0.579327 13:-0.867289 14:-0.834983 15:-0.783784 16:-0.825182 17:-0.784478 18:-0.676556 
64 0 0 0 1:-0.840108 2:0.333885 3:0.702851 4:-0.904076 5:-0.509909 6:0.115906 7:-0.979228 8:-0.838095 9:-0.234587 10:-0.648225 11:-0.533662 12:0.0456731 13:-0.77916 14:-0.660066 15:-0.425826 16:-0.818939 17:-0.689559 18:-0.405468 
64 0 0 40.91088482122347 1:-0.841815 2:0.0335725 3:0.570387 4:-0.887207 5:-0.316274 6:0.0918809 7:-0.984192 8:-0.795118 9:0.172402 10:-0.660752 11:-0.495348 12:-0.138221 13:-0.728357 14:-0.620462 15:-0.497898 16:-0.708637 17:-0.643774 18:-0.458988 
0 0 0 64 1:-0.983499 2:-0.815184 3:-0.480239 4:-0.983927 5:-0.837646 6:-0.487617 7:-0.999335 8:-0.983978 9:-0.454831 10:-0.886221 11:-0.792009 12:-0.346154 13:-0.908761 14:-0.830583 15:-0.461862 16:-0.905307 17:-0.905081 18:-0.514834 
64 0 0 0 1:-0.861421 2:0.259603 3:0.703139 4:-0.921307 5:-0.543464 6:0.0859176 7:-0.985751 8:-0.86643 9:-0.231839 10:-0.708768 11:-0.597154 12:0.0420673 13:-0.823743 14:-0.713971 15:-0.455856 16:-0.868887 17:-0.769961 18:-0.462478 
64 0 0 64 1:-0.888542 2:0.417464 3:0.188093 4:-0.909157 5:-0.327299 6:0.15571 7:-0.988544 8:-0.823636 9:0.0223717 10:-0.391441 11:-0.504105 12:0.0444712 13:-0.540695 14:-0.392739 15:-0.127928 16:-0.420395 17:-0.318816 18:0.00290867 
0 14.03668792719181 64 64 1:-0.999155 2:-0.991438 3:-0.942612 4:-0.999838 5:-0.995583 6:-0.834771 7:-0.99999 8:-0.999951 9:-0.98346 10:-0.998956 11:-1 12:-0.890625 13:-0.722136 14:-0.917492 15:-0.872673 16:0.0457856 17:-0.564489 18:-0.884817 
64 0 0 44.02921772175241 1:-0.962717 2:-0.803747 3:-0.643613 4:-0.982389 5:-0.877424 6:-0.7834 7:-0.996629 8:-0.966563 9:-0.838347 10:-0.93737 11:-0.847838 12:-0.735577 13:-0.934681 14:-0.918592 15:-0.887087 16:-0.926119 17:-0.87493 18:-0.784759 
64 0 0 56.37961814452144 1:-0.948713 2:-0.655012 3:-0.703498 4:-0.927763 5:-0.589486 6:-0.463346 7:-0.993422 8:-0.951653 9:-0.839627 10:-0.784969 11:-0.781062 12:-0.65024 13:-0.85381 14:-0.874587 15:-0.857057 16:-0.709677 17:-0.692909 18:-0.585806 
0 0 0 64 1:-0.987163 2:-0.857676 3:-0.279909 4:-0.999174 5:-0.99405 6:-0.871097 7:-0.99969 8:-0.996772 9:-0.875738 10:-0.973904 11:-0.922277 12:-0.597356 13:-0.960601 14:-0.948295 15:-0.746547 16:-0.968783 17:-1 18:-0.687027 
64 0 0 0 1:-0.901293 2:-0.195433 3:-0.0124348 4:-0.93031 5:-0.497203 6:0.26234 7:-0.994154 8:-0.93035 9:-0.59279 10:-0.73382 11:-0.651888 12:-0.308894 13:-0.836185 14:-0.781078 15:-0.691291 16:-0.760666 17:-0.73646 18:-0.560209 
0 0 0 0.2279117578630495 1:-0.99439 2:-0.972663 3:-0.73386 4:-0.997839 5:-0.988762 6:-0.784636 7:-0.999938 8:-0.999331 9:-0.935956 10:-1 11:-0.989053 12:-0.74399 13:-1 14:-0.973597 15:-0.786186 16:-0.722164 17:-0.969849 18:-0.835951 
0 0 0 64 1:-0.980157 2:-0.777727 3:-0.445044 4:-0.979646 5:-0.791587 6:-0.444846 7:-0.998578 8:-0.967923 9:-0.36935 10:-0.832985 11:-0.738369 12:-0.253606 13:-0.870399 14:-0.793179 15:-0.345345 16:-0.877211 17:-0.859296 18:-0.385689 
64 0 0 64 1:-0.982867 2:-0.872784 3:-0.815037 4:-0.969097 5:-0.85162 6:-0.724155 7:-0.996898 8:-0.9592 9:-0.868621 10:-0.831942 11:-0.743842 12:-0.612981 13:-0.874546 14:-0.768977 15:-0.613213 16:-0.847034 17:-0.845896 18:-0.661431 
64 0 0 0 1:-0.981406 2:-0.869538 3:-0.828177 4:-0.979588 5:-0.80078 6:-0.617192 7:-0.997653 8:-0.977273 9:-0.870039 10:-0.863257 11:-0.795293 12:-0.61899 13:-0.913945 14:-0.89989 15:-0.754955 16:-0.91155 17:-0.896147 18:-0.802211 
64 0 0 64 1:-0.98366 2:-0.904966 3:-0.896402 4:-0.977682 5:-0.851353 6:-0.796694 7:-0.997104 8:-0.969835 9:-0.840522 10:-0.875783 11:-0.80624 12:-0.457933 13:-0.855884 14:-0.772277 15:-0.544745 16:-0.912591 17:-0.88498 18:-0.612565 
0 38.14723927109353 64 34.3184555884904 1:-0.999896 2:-0.997587 3:-0.855241 4:-0.999516 5:-0.996947 6:-0.905393 7:-0.999985 8:-0.99995 9:-0.955508 10:-0.689979 11:-0.913519 12:-0.917067 13:-0.976153 14:-0.970297 15:-0.91952 16:0.199792 17:-0.488554 18:-1 
64 0 0 64 1:-0.805276 2:0.154231 3:0.572553 4:-0.853379 5:-0.234613 6:0.0990142 7:-0.974439 8:-0.713065 9:0.23351 10:-0.569937 11:-0.419814 12:-0.120192 13:-0.651633 14:-0.579758 15:-0.490691 16:-0.623309 17:-0.553322 18:-0.431065 
64 0 64 64 1:-0.985982 2:-0.905698 3:-0.800268 4:-0.987755 5:-0.92635 6:-0.788545 7:-0.996932 8:-0.96316 9:-0.842828 10:-0.771399 11:-0.737274 12:-0.704327 13:-0.743909 14:-0.664466 15:-0.586787 16:-0.772112 17:-0.800112 18:-0.691681 
64 0 0 0 1:-0.993633 2:-0.924683 3:-0.921964 4:-0.995663 5:-0.955301 6:-0.912215 7:-0.999073 8:-0.982652 9:-0.861605 10:-1 11:-1 12:-0.965144 13:-0.986522 14:-0.9956 15:-0.828228 16:-0.993757 17:-1 18:-0.975567 
64 4.150467673222139 0 45.88730119480356 1:-0.894636 2:-0.171362 3:-0.0172495 4:-0.925857 5:-0.479735 6:0.291948 7:-0.992437 8:-0.908944 9:-0.600965 10:-0.683716 11:-0.6289 12:-0.300481 13:-0.795749 14:-0.749175 15:-0.684084 16:-0.704475 17:-0.672808 18:-0.542757 
64 16.92793884392604 36.21210882042201 64 1:-0.878304 2:-0.388903 3:0.0425973 4:-0.815114 5:0.0366199 6:0.518714 7:-0.98694 8:-0.893768 9:-0.538272 10:-0.610647 11:-0.499726 12:-0.439904 13:-0.695179 14:-0.544554 15:-0.458258 16:-0.644121 17:-0.512004 18:-0.298429 
0 0 8.389130913350575 64 1:-0.999228 2:-0.973287 3:0.156175 4:-0.99383 5:-0.96373 6:-0.511316 7:-0.999938 8:-0.99925 9:-0.883252 10:-0.755741 11:-0.812808 12:-0.688702 13:-1 14:-0.9989 15:-0.847447 16:-0.770031 17:-0.998883 18:-0.733566 
64 0 0 0 1:-0.964839 2:-0.82196 3:-0.648124 4:-0.985327 5:-0.889456 6:-0.788664 7:-0.997231 8:-0.976491 9:-0.850546 10:-0.969729 11:-0.883963 12:-0.745192 13:-0.97408 14:-0.953795 15:-0.901502 16:-0.98231 17:-0.947515 18:-0.818499 
64 0 0 0 1:-0.833002 2:0.359654 3:0.69363 4:-0.89633 5:-0.47349 6:0.113362 7:-0.976384 8:-0.810495 9:-0.221643 10:-0.609603 11:-0.508484 12:0.0492788 13:-0.73043 14:-0.594059 15:-0.417417 16:-0.770031 17:-0.621441 18:-0.363583 
0 0 0 36.80919713834306 1:-0.992458 2:-0.900522 3:-0.576212 4:-0.995113 5:-0.942491 6:-0.581533 7:-0.999879 8:-0.997892 9:-0.654104 10:-0.966597 11:-0.973727 12:-0.8125 13:-0.968896 14:-0.981298 15:-0.852252 16:-0.806452 17:-0.967616 18:-0.894124 
64 0 0 64 1:-0.926131 2:-0.674586 3:-0.573788 4:-0.946671 5:-0.68854 6:-0.567717 7:-0.984511 8:-0.863107 9:-0.545531 10:-0.843424 11:-0.704433 12:-0.46875 13:-0.73043 14:-0.576458 15:-0.234835 16:-0.862643 17:-0.745394 18:-0.404305 
64 0 0 64 1:-0.930736 2:-0.608916 3:-0.579698 4:-0.974117 5:-0.871558 6:-0.817745 7:-0.990823 8:-0.919654 9:-0.713081 10:-0.751566 11:-0.689108 12:-0.578125 13:-0.814412 14:-0.787679 15:-0.772973 16:-0.761707 17:-0.720826 18:-0.655614 
64 0 64 64 1:-0.976009 2:-0.879449 3:-0.896021 4:-0.970207 5:-0.828485 6:-0.79699 7:-0.993466 8:-0.944455 9:-0.82286 10:-0.726514 11:-0.634373 12:-0.397837 13:-0.708657 14:-0.629263 15:-0.53033 16:-0.746098 17:-0.685092 18:-0.468296 
64 0 24.24640647499633 64 1:-0.903346 2:-0.551883 3:-0.176406 4:-0.974057 5:-0.872684 6:-0.70474 7:-0.992647 8:-0.935118 9:-0.745005 10:-0.582463 11:-0.489874 12:-0.478365 13:-0.848626 14:-0.826183 15:-0.801802 16:-0.73257 17:-0.659408 18:-0.584642 
64 0 0 64 1:-0.877501 2:-0.203456 3:-0.126924 4:-0.790781 5:0.352211 6:0.931784 7:-0.975249 8:-0.675677 9:0.404264 10:-0.411273 11:-0.230432 12:0.0588942 13:-0.43183 14:-0.268427 15:0.0750751 16:-0.440166 17:-0.269682 18:0.0122164 
64 42.36269706388254 64 64 1:-0.836435 2:-0.303866 3:-0.103252 4:-0.920668 5:-0.679437 6:-0.644382 7:-0.962414 8:-0.744071 9:-0.289098 10:-0.511482 11:-0.388068 12:-0.28125 13:-0.490928 14:-0.355336 15:-0.111111 16:-0.565036 17:-0.407035 18:-0.172775 
6.278918974255873 0 0 0 1:-0.982327 2:-0.885181 3:-0.83124 4:-0.987829 5:-0.914656 6:-0.777445 7:-0.998449 8:-0.980268 9:-0.84934 10:-0.934238 11:-0.881773 12:-0.658654 13:-0.950233 14:-0.922992 15:-0.751351 16:-0.972945 17:-0.970966 18:-0.82199 
64 0 0 64 1:-0.885713 2:-0.424291 3:0.0385161 4:-0.819591 5:0.0068899 6:0.518035 7:-0.990034 8:-0.913091 9:-0.557429 10:-0.678497 11:-0.564313 12:-0.457933 13:-0.734578 14:-0.60066 15:-0.454655 16:-0.700312 17:-0.616974 18:-0.376382 
0 64 64 64 1:-0.998854 2:-0.984454 3:-0.735777 4:-0.999755 5:-0.996918 6:-0.754202 7:-0.999979 8:-0.999884 9:-0.917577 10:-0.950939 11:-0.962781 12:-0.788462 13:-0.672369 14:-0.760176 15:-0.758559 16:0.0603538 17:-0.710776 18:-0.812682 
-0 0 0 64 1:-0.990819 2:-0.901945 3:-0.797209 4:-0.993538 5:-0.924276 6:-0.787463 7:-0.999387 8:-0.970127 9:-0.837699 10:-0.75261 11:-0.672687 12:-0.664663 13:-0.695179 14:-0.591859 15:-0.497898 16:-0.818939 17:-0.794528 18:-0.657941 
-64 0 0 0 1:-0.902634 2:-0.174478 3:-0.0329994 4:-0.932545 5:-0.487316 6:0.28079 7:-0.995557 8:-0.909532 9:-0.598234 10:-0.692067 11:-0.609195 12:-0.294471 13:-0.796786 14:-0.733773 15:-0.681682 16:-0.715921 17:-0.658291 18:-0.525305 
-64 0 0 64 1:-0.956277 2:-0.825839 3:-0.853261 4:-0.993187 5:-0.95797 6:-0.940927 7:-0.998195 8:-0.972912 9:-0.921298 10:-0.651357 11:-0.488779 12:-0.293269 13:-0.792639 14:-0.70187 15:-0.65045 16:-0.711759 17:-0.625907 18:-0.427574 
-64 0 64 64 1:-0.971626 2:-0.707286 3:-0.595015 4:-0.984 5:-0.829914 6:-0.673349 7:-0.99826 8:-0.935226 9:-0.63254 10:-0.588727 11:-0.369458 12:-0.145433 13:-0.6817 14:-0.589659 15:-0.322523 16:-0.664932 17:-0.573423 18:-0.339151 
-0 0 0 64 1:-0.986413 2:-0.87195 3:-0.694902 4:-0.984837 5:-0.872754 6:-0.670955 7:-0.998989 8:-0.963982 9:-0.755975 10:-0.75261 11:-0.635468 12:-0.477163 13:-0.785381 14:-0.651265 15:-0.430631 16:-0.849116 17:-0.787828 18:-0.625364 
-0 0 0 64 1:-0.976902 2:-0.866862 3:-0.711438 4:-0.977132 5:-0.870369 6:-0.67116 7:-0.992631 8:-0.946045 9:-0.755461 10:-0.764092 11:-0.650794 12:-0.514423 13:-0.773976 14:-0.685369 15:-0.502703 16:-0.810614 17:-0.72641 18:-0.609075 
-64 0 57.08725602775256 64 1:-0.921747 2:-0.30424 3:0.252095 4:-0.922021 5:-0.416109 6:0.823666 7:-0.993195 8:-0.922335 9:-0.613461 10:-0.814196 11:-0.719759 12:-0.551683 13:-0.796786 14:-0.739274 15:-0.703303 16:-0.739854 17:-0.658291 18:-0.584642 
-64 0 0 64 1:-0.95814 2:-0.790807 3:-0.641399 4:-0.977927 5:-0.867563 6:-0.783083 7:-0.994064 8:-0.955388 9:-0.833466 10:-0.879958 11:-0.812808 12:-0.729567 13:-0.864178 14:-0.877888 15:-0.878679 16:-0.814776 17:-0.795645 18:-0.760326 
-64 0 0 64 1:-0.984831 2:-0.784435 3:-0.541149 4:-0.987941 5:-0.84663 6:-0.531634 7:-0.998883 8:-0.953887 9:-0.569795 10:-0.817328 11:-0.80624 12:-0.725962 13:-0.818559 14:-0.79978 15:-0.756156 16:-0.864724 17:-0.838079 18:-0.791739 
-64 0 0 0 1:-0.916145 2:-0.190952 3:-0.0375917 4:-0.938217 5:-0.497112 6:0.246118 7:-0.99637 8:-0.916476 9:-0.592637 10:-0.696242 11:-0.605911 12:-0.286058 13:-0.814412 14:-0.727173 15:-0.674474 16:-0.729448 17:-0.672808 18:-0.532286 
-64 0 0 64 1:-0.981579 2:-0.903978 3:-0.851543 4:-0.993963 5:-0.943152 6:-0.883412 7:-0.997882 8:-0.972127 9:-0.891627 10:-0.798539 11:-0.718664 12:-0.65024 13:-0.834111 14:-0.765677 15:-0.607207 16:-0.877211 17:-0.791178 18:-0.660268 
-64 0 0 0 1:-0.965215 2:-0.790832 3:-0.653686 4:-0.983789 5:-0.871339 6:-0.784713 7:-0.9981 8:-0.961546 9:-0.831107 10:-0.91858 11:-0.811713 12:-0.717548 13:-0.927424 14:-0.886689 15:-0.878679 16:-0.91155 17:-0.849246 18:-0.770797 
-64 0 0 45.62940168935165 1:-0.819068 2:0.220197 3:0.534312 4:-0.866465 5:-0.189974 6:0.0935869 7:-0.985775 8:-0.665209 9:0.232268 10:-0.538622 11:-0.338807 12:-0.102163 13:-0.622602 14:-0.533553 15:-0.469069 16:-0.618106 17:-0.507538 18:-0.405468 
-64 64 64 64 1:-0.953047 2:-0.827389 3:-0.853911 4:-0.991802 5:-0.958398 6:-0.940916 7:-0.996208 8:-0.971549 9:-0.922638 10:-0.606472 11:-0.487685 12:-0.298077 13:-0.67548 14:-0.694169 15:-0.664865 16:-0.58897 17:-0.554439 18:-0.440372 
-64 0 0 64 1:-0.992437 2:-0.907285 3:-0.91596 4:-0.994154 5:-0.931873 6:-0.903831 7:-0.999287 8:-0.971862 9:-0.846301 10:-0.93215 11:-0.935413 12:-0.883413 13:-0.87351 14:-0.839384 15:-0.711712 16:-0.949011 17:-0.949749 18:-0.902269 
-64 0 43.63344245065446 64 1:-0.874013 2:-0.0565852 3:0.964696 4:-0.964528 5:-0.732344 6:-0.018322 7:-0.997466 8:-0.968075 9:-0.817274 10:-0.568894 11:-0.354132 12:-0.211538 13:-0.886988 14:-0.830583 15:-0.804204 16:-0.636837 17:-0.497487 18:-0.391507 
-0 0 0 64 1:-0.977076 2:-0.726107 3:-0.5934 4:-0.98488 5:-0.833598 6:-0.663277 7:-0.998476 8:-0.946608 9:-0.651533 10:-0.651357 11:-0.475643 12:-0.209135 13:-0.670295 14:-0.589659 15:-0.324925 16:-0.755463 17:-0.620324 18:-0.400814 
-11.83021628176038 0 0 0 1:-0.935904 2:-0.269737 3:-0.129757 4:-0.862046 5:0.274798 6:0.93063 7:-0.993498 8:-0.78311 9:0.380475 10:-0.51357 11:-0.319102 12:0.0288462 13:-0.601866 14:-0.355336 15:0.0954955 16:-0.626431 17:-0.399218 18:-0.0750436 
-64 0 0 0 1:-0.983109 2:-0.871735 3:-0.815695 4:-0.969452 5:-0.851878 6:-0.726894 7:-0.997086 8:-0.959272 9:-0.86781 10:-0.822547 11:-0.706623 12:-0.605769 13:-0.874546 14:-0.748075 15:-0.608408 16:-0.878252 17:-0.826912 18:-0.638162 
-64 0 0 0 1:-0.871701 2:0.328495 3:0.647563 4:-0.929534 5:-0.481326 6:0.077227 7:-0.992076 8:-0.83242 9:-0.225766 10:-0.606472 11:-0.48659 12:0.0564904 13:-0.758424 14:-0.572057 15:-0.401802 16:-0.771072 17:-0.622557 18:-0.355439 
-64 0 0 64 1:-0.959348 2:-0.791195 3:-0.644773 4:-0.978553 5:-0.868121 6:-0.784021 7:-0.995882 8:-0.955434 9:-0.833983 10:-0.897704 11:-0.812808 12:-0.727163 13:-0.891135 14:-0.881188 15:-0.877477 16:-0.890739 17:-0.812395 18:-0.761489 
-64 0 0 0 1:-0.960107 2:-0.658124 3:-0.699949 4:-0.934473 5:-0.592866 6:-0.460852 7:-0.997905 8:-0.962276 9:-0.83074 10:-0.841336 11:-0.756979 12:-0.638221 13:-0.900467 14:-0.858086 15:-0.839039 16:-0.802289 17:-0.698492 18:-0.575334 
-64 0 0 64 1:-0.901265 2:0.460832 3:0.192399 4:-0.92175 5:-0.27928 6:0.152758 7:-0.994185 8:-0.794815 9:0.00933142 10:-0.320459 11:-0.465791 12:0.0408654 13:-0.512701 14:-0.267327 15:-0.103904 16:-0.369407 17:-0.20938 18:-0.000581734 
-17.69953551084358 0 0 0 1:-0.94691 2:-0.486512 3:-0.0993351 4:-0.936113 5:-0.137281 6:0.377525 7:-0.997249 8:-0.918382 9:-0.451063 10:-0.724426 11:-0.574165 12:-0.379808 13:-0.749093 14:-0.633663 15:-0.287688 16:-0.784599 17:-0.685092 18:-0.538104 
-64 5.999365903405369 64 64 1:-0.971289 2:-0.672583 3:-0.434801 4:-0.972143 5:-0.696434 6:-0.438989 7:-0.997912 8:-0.90862 9:-0.306748 10:-0.607516 11:-0.430761 12:-0.183894 13:-0.665111 14:-0.514851 15:-0.282883 16:-0.58897 17:-0.465103 18:-0.276323 
-0 0 0 64 1:-0.985959 2:-0.885059 3:-0.89103 4:-0.982747 5:-0.846962 6:-0.795604 7:-0.998972 8:-0.965839 9:-0.827231 10:-0.782881 11:-0.634373 12:-0.411058 13:-0.812338 14:-0.694169 15:-0.505105 16:-0.828304 17:-0.72306 18:-0.54043 
-0 0 0 64 1:-0.982259 2:-0.878547 3:-0.894116 4:-0.978082 5:-0.830824 6:-0.797646 7:-0.998216 8:-0.951116 9:-0.821859 10:-0.745303 11:-0.600438 12:-0.371394 13:-0.777087 14:-0.628163 15:-0.512312 16:-0.779396 17:-0.673925 18:-0.462478 
-0 14.50026134025165 35.40700993466327 64 1:-0.875749 2:0.457011 3:0.186276 4:-0.892245 5:-0.266729 6:0.156495 7:-0.985887 8:-0.76161 9:0.00596402 10:-0.263048 11:-0.471264 12:0.0324519 13:-0.378953 14:-0.247525 15:-0.124324 16:-0.351717 17:-0.0720268 18:-0.00639907 
-64 32.51937065562777 64 64 1:-0.947156 2:-0.653833 3:-0.704168 4:-0.926397 5:-0.58902 6:-0.463539 7:-0.992052 8:-0.948958 9:-0.839122 10:-0.736952 11:-0.750411 12:-0.651442 13:-0.820632 14:-0.854785 15:-0.852252 16:-0.653486 17:-0.582356 18:-0.553229 
-0 0 0 13.04005137637231 1:-0.944827 2:-0.733231 3:-0.720098 4:-0.938051 5:-0.690516 6:-0.609562 7:-0.978401 8:-0.859841 9:-0.454709 10:-0.631524 11:-0.447181 12:-0.251202 13:-0.645412 14:-0.474147 15:-0.219219 16:-0.728408 17:-0.437186 18:-0.276323 
-33.17761343030667 0 0 64 1:-0.898595 2:0.437581 3:0.183065 4:-0.919686 5:-0.277117 6:0.148105 7:-0.993978 8:-0.7892 9:0.0107271 10:-0.330898 11:-0.461412 12:0.0456731 13:-0.501296 14:-0.270627 15:-0.113514 16:-0.385016 17:-0.191513 18:-0.00407213 
-64 0 0 0 1:-0.827893 2:0.371009 3:0.689787 4:-0.891713 5:-0.464962 6:0.111347 7:-0.973649 8:-0.798015 9:-0.225226 10:-0.585595 11:-0.493158 12:0.0384615 13:-0.691032 14:-0.558856 15:-0.41982 16:-0.748179 17:-0.566723 18:-0.349622 
-52.93747404377851 0 0 0 1:-0.935904 2:-0.269737 3:-0.129757 4:-0.862046 5:0.274798 6:0.93063 7:-0.993498 8:-0.78311 9:0.380475 10:-0.51357 11:-0.319102 12:0.0288462 13:-0.601866 14:-0.355336 15:0.0954955 16:-0.626431 17:-0.399218 18:-0.0750436 
-64 0 0 64 1:-0.986556 2:-0.904002 3:-0.849566 4:-0.995089 5:-0.943378 6:-0.880574 7:-0.999166 8:-0.975471 9:-0.889448 10:-0.806889 11:-0.719759 12:-0.641827 13:-0.812338 14:-0.745875 15:-0.59039 16:-0.835588 17:-0.806812 18:-0.670739 
-0 0 0 64 1:-0.928499 2:-0.606485 3:-0.57985 4:-0.972483 5:-0.868943 6:-0.81763 7:-0.989284 8:-0.915662 9:-0.711539 10:-0.710856 11:-0.659551 12:-0.5625 13:-0.754277 14:-0.727173 15:-0.752553 16:-0.733611 17:-0.635958 18:-0.62071 
-64 0 0 0 1:-0.971611 2:-0.73061 3:-0.69703 4:-0.969897 5:-0.71227 6:-0.601608 7:-0.997393 8:-0.903096 9:-0.449934 10:-0.707724 11:-0.507389 12:-0.221154 13:-0.739762 14:-0.557756 15:-0.174775 16:-0.779396 17:-0.612507 18:-0.339151 
-64 0 0 64 1:-0.982745 2:-0.864789 3:-0.827146 4:-0.979665 5:-0.795827 6:-0.616635 7:-0.998558 8:-0.973664 9:-0.868715 10:-0.834029 11:-0.742748 12:-0.588942 13:-0.889062 14:-0.866887 15:-0.738138 16:-0.876171 17:-0.844779 18:-0.77196 
-64 0 0 0 1:-0.948558 2:-0.60419 3:-0.578869 4:-0.983857 5:-0.870005 6:-0.815089 7:-0.997747 8:-0.936413 9:-0.696757 10:-0.782881 11:-0.674877 12:-0.558894 13:-0.842405 14:-0.777778 15:-0.751351 16:-0.791883 17:-0.73981 18:-0.643979 
-0 0 0 64 1:-0.976849 2:-0.866892 3:-0.71123 4:-0.977157 5:-0.870333 6:-0.67123 7:-0.992745 8:-0.946021 9:-0.755514 10:-0.775574 11:-0.649699 12:-0.514423 13:-0.788491 14:-0.684268 15:-0.501502 16:-0.842872 17:-0.730877 18:-0.607912 
-64 0 0 64 1:-0.99129 2:-0.906635 3:-0.916962 4:-0.993313 5:-0.92946 6:-0.904809 7:-0.998533 8:-0.967521 9:-0.845541 10:-0.943633 11:-0.959496 12:-0.914663 13:-0.871436 14:-0.859186 15:-0.752553 16:-0.930281 17:-0.931882 18:-0.898778 
-64 0 64 64 1:-0.973013 2:-0.667679 3:-0.44118 4:-0.976041 5:-0.706954 6:-0.438815 7:-0.998224 8:-0.919774 9:-0.311067 10:-0.620042 11:-0.452655 12:-0.157452 13:-0.658891 14:-0.533553 15:-0.294895 16:-0.633715 17:-0.494137 18:-0.314718 
-64 57.1583355513149 0 64 1:-0.786379 2:0.240496 3:0.577847 4:-0.832424 5:-0.176727 6:0.107966 7:-0.964317 8:-0.644244 9:0.237244 10:-0.491649 11:-0.343186 12:-0.114183 13:-0.582167 14:-0.536854 15:-0.477477 16:-0.570239 17:-0.48632 18:-0.413613 
-0 0 0 64 1:-0.985528 2:-0.884786 3:-0.891176 4:-0.982102 5:-0.842146 6:-0.793047 7:-0.998865 8:-0.963128 9:-0.824469 10:-0.767223 11:-0.61029 12:-0.384615 13:-0.810264 14:-0.667767 15:-0.495495 16:-0.814776 17:-0.704076 18:-0.509017 
-64 0 0 0 1:-0.871631 2:0.119765 3:0.566923 4:-0.916641 5:-0.246231 6:0.157939 7:-0.993749 8:-0.802981 9:0.0997911 10:-0.662839 11:-0.459223 12:-0.0733173 13:-0.724209 14:-0.619362 15:-0.454655 16:-0.710718 17:-0.613624 18:-0.478767 
-58.98734232060565 0 0 64 1:-0.934924 2:-0.353712 3:0.215063 4:-0.953717 5:-0.496441 6:0.746133 7:-0.998538 8:-0.951645 9:-0.603435 10:-0.850731 11:-0.727422 12:-0.536058 13:-0.838258 14:-0.733773 15:-0.674474 16:-0.772112 17:-0.672808 18:-0.571844 
-0 0 0 64 1:-0.948668 2:-0.514395 3:-0.366874 4:-0.950705 5:-0.574381 6:-0.35418 7:-0.994491 8:-0.812494 9:0.0041835 10:-0.584551 11:-0.3815 12:-0.21274 13:-0.653707 14:-0.432343 15:-0.248048 16:-0.669095 17:-0.506421 18:-0.304247 
-64 0 0 0 1:-0.984584 2:-0.871568 3:-0.814943 4:-0.972103 5:-0.853082 6:-0.729795 7:-0.997688 8:-0.960938 9:-0.866782 10:-0.821503 11:-0.707718 12:-0.597356 13:-0.890098 14:-0.750275 15:-0.601201 16:-0.894901 17:-0.833613 18:-0.648633 
-64 0 0 0 1:-0.903706 2:-0.312148 3:-0.106126 4:-0.964801 5:-0.69037 6:-0.630749 7:-0.993565 8:-0.813772 9:-0.271676 10:-0.635699 11:-0.43514 12:-0.266827 13:-0.621566 14:-0.418042 15:-0.0498498 16:-0.73153 17:-0.566723 18:-0.222804 
-64 0 0 0 1:-0.961728 2:-0.66189 3:-0.700257 4:-0.936878 5:-0.600543 6:-0.459918 7:-0.99801 8:-0.964003 9:-0.828659 10:-0.841336 11:-0.756979 12:-0.643029 13:-0.90254 14:-0.859186 15:-0.839039 16:-0.805411 17:-0.705193 18:-0.583479 
-0 0 64 64 1:-0.989993 2:-0.900151 3:-0.799171 4:-0.991723 5:-0.921675 6:-0.788715 7:-0.999184 8:-0.965711 9:-0.838014 10:-0.741127 11:-0.666119 12:-0.675481 13:-0.705547 14:-0.583058 15:-0.542342 16:-0.783559 17:-0.775544 18:-0.65096 
-0 0 0 15.0134249248479 1:-0.880472 2:-0.069504 3:0.955332 4:-0.968324 5:-0.74924 6:-0.0628172 7:-0.997737 8:-0.969656 9:-0.823599 10:-0.622129 11:-0.383689 12:-0.199519 13:-0.877657 14:-0.817382 15:-0.792192 16:-0.680541 17:-0.487437 18:-0.415939 
-64 0 0 64 1:-0.982587 2:-0.790433 3:-0.54913 4:-0.985388 5:-0.846191 6:-0.537645 7:-0.997732 8:-0.94392 9:-0.575004 10:-0.882046 11:-0.848933 12:-0.753606 13:-0.870399 14:-0.836084 15:-0.784985 16:-0.895942 17:-0.85818 18:-0.806864 
-64 0 3.161842219152829 64 1:-0.981752 2:-0.79019 3:-0.547848 4:-0.98436 5:-0.845395 6:-0.537092 7:-0.996207 8:-0.940974 9:-0.575045 10:-0.85595 11:-0.843459 12:-0.75601 13:-0.843442 14:-0.832783 15:-0.790991 16:-0.83871 17:-0.813512 18:-0.79872 
-64 0.8789784677348603 0 64 1:-0.928771 2:-0.606593 3:-0.579746 4:-0.972729 5:-0.86909 6:-0.817519 7:-0.989363 8:-0.915454 9:-0.71204 10:-0.704593 11:-0.659551 12:-0.563702 13:-0.737688 14:-0.724972 15:-0.753754 16:-0.700312 17:-0.630374 18:-0.621873 
-5.608204372277159 0 0 64 1:-0.956901 2:-0.825863 3:-0.852814 4:-0.993402 5:-0.958102 6:-0.940625 7:-0.998329 8:-0.973289 9:-0.920615 10:-0.654489 11:-0.487685 12:-0.290865 13:-0.789528 14:-0.69967 15:-0.648048 16:-0.709677 17:-0.632607 18:-0.436882 
-64 0 0 64 1:-0.9868 2:-0.863403 3:-0.820939 4:-0.983156 5:-0.796734 6:-0.616751 7:-0.999088 8:-0.976594 9:-0.864198 10:-0.822547 11:-0.719759 12:-0.557692 13:-0.878694 14:-0.862486 15:-0.717718 16:-0.867846 17:-0.835846 18:-0.761489 
-64 0 0 0 1:-0.916535 2:-0.355219 3:-0.111826 4:-0.969151 5:-0.729333 6:-0.621388 7:-0.994368 8:-0.850218 9:-0.329576 10:-0.705637 11:-0.499726 12:-0.278846 13:-0.639191 14:-0.484048 15:-0.0822823 16:-0.797086 17:-0.649358 18:-0.356603 
-0 64 64 64 1:-0.961477 2:-0.666118 3:-0.430396 4:-0.957772 5:-0.687463 6:-0.429488 7:-0.994333 8:-0.886932 9:-0.309307 10:-0.565762 11:-0.426382 12:-0.180288 13:-0.600829 14:-0.492849 15:-0.303303 16:-0.565036 17:-0.3378 18:-0.283304 
-64 0 0 64 1:-0.992668 2:-0.905913 3:-0.915239 4:-0.994258 5:-0.932132 6:-0.903209 7:-0.99932 8:-0.971039 9:-0.849988 10:-0.922756 11:-0.931034 12:-0.878606 13:-0.870399 14:-0.836084 15:-0.703303 16:-0.944849 17:-0.951982 18:-0.901105 
-19.55786015004025 0 0 64 1:-0.934924 2:-0.353712 3:0.215063 4:-0.953717 5:-0.496441 6:0.746133 7:-0.998538 8:-0.951645 9:-0.603435 10:-0.850731 11:-0.727422 12:-0.536058 13:-0.838258 14:-0.733773 15:-0.674474 16:-0.772112 17:-0.672808 18:-0.571844 
-64 0 0 64 1:-0.986085 2:-0.903479 3:-0.852144 4:-0.994938 5:-0.942361 6:-0.881627 7:-0.999056 8:-0.975344 9:-0.891035 10:-0.808977 11:-0.719759 12:-0.635817 13:-0.818559 14:-0.752475 15:-0.583183 16:-0.852237 17:-0.804578 18:-0.668412 
-0 8.100531104646612 64 64 1:-0.899814 2:-0.551775 3:-0.178375 4:-0.971867 5:-0.863621 6:-0.705392 7:-0.990997 8:-0.926661 9:-0.745045 10:-0.531315 11:-0.474548 12:-0.483173 13:-0.768792 14:-0.742574 15:-0.801802 16:-0.626431 17:-0.533222 18:-0.573008 
-0 0 64 64 1:-0.988735 2:-0.900101 3:-0.799832 4:-0.99075 5:-0.92124 6:-0.789532 7:-0.998965 8:-0.962966 9:-0.839921 10:-0.744259 11:-0.662835 12:-0.683894 13:-0.716952 14:-0.570957 15:-0.553153 16:-0.773153 17:-0.755444 18:-0.653287 
-64 0 0 0 1:-0.987865 2:-0.872324 3:-0.811617 4:-0.977651 5:-0.856269 6:-0.727739 7:-0.998447 8:-0.962632 9:-0.864807 10:-0.794363 11:-0.688013 12:-0.566106 13:-0.898393 14:-0.765677 15:-0.596396 16:-0.903226 17:-0.835846 18:-0.648633 
-0 0 0 12.57990134793396 1:-0.959495 2:-0.700098 3:-0.600625 4:-0.978161 5:-0.818699 6:-0.680944 7:-0.996511 8:-0.917022 9:-0.629572 10:-0.519833 11:-0.314724 12:-0.170673 13:-0.698289 14:-0.537954 15:-0.368168 16:-0.675338 17:-0.470687 18:-0.284468 
-64 0 0 64 1:-0.985558 2:-0.863537 3:-0.821974 4:-0.982202 5:-0.796069 6:-0.61772 7:-0.999034 8:-0.975927 9:-0.868401 10:-0.821503 11:-0.73399 12:-0.573317 13:-0.886988 14:-0.865787 15:-0.727327 16:-0.854318 17:-0.838079 18:-0.778941 
-0 0 0 64 1:-0.945077 2:-0.732953 3:-0.719808 4:-0.938238 5:-0.690075 6:-0.608906 7:-0.978633 8:-0.860012 9:-0.454611 10:-0.621086 11:-0.448276 12:-0.251202 13:-0.638154 14:-0.476348 15:-0.22042 16:-0.691988 17:-0.436069 18:-0.279814 
-0 0 0 64 1:-0.976503 2:-0.878395 3:-0.896863 4:-0.970255 5:-0.828762 6:-0.799368 7:-0.99469 8:-0.942666 9:-0.823577 10:-0.712944 11:-0.584018 12:-0.391827 13:-0.703473 14:-0.591859 15:-0.513514 16:-0.78564 17:-0.610274 18:-0.436882 
-0 0 0 64 1:-0.923101 2:-0.550335 3:-0.194216 4:-0.979797 5:-0.864875 6:-0.719103 7:-0.997068 8:-0.938688 9:-0.741222 10:-0.628392 11:-0.471264 12:-0.46274 13:-0.835148 14:-0.753575 15:-0.770571 16:-0.709677 17:-0.653825 18:-0.570681 
-64 0 0 0 1:-0.989635 2:-0.898726 3:-0.866917 4:-0.982568 5:-0.789451 6:-0.607519 7:-0.999347 8:-0.982456 9:-0.903041 10:-0.839248 11:-0.775588 12:-0.659856 13:-0.914982 14:-0.875688 15:-0.754955 16:-0.926119 17:-0.87493 18:-0.767307 
-0 0 0 22.15350243317801 1:-0.993147 2:-0.934542 3:-0.85048 4:-0.992941 5:-0.923572 6:-0.833273 7:-0.999704 8:-0.990575 9:-0.916406 10:-0.878914 11:-0.761357 12:-0.730769 13:-0.877657 14:-0.764576 15:-0.627628 16:-0.914672 17:-0.859296 18:-0.687027 
-2.537611807874856 0 0 0 1:-0.903182 2:0.323718 3:0.0529668 4:-0.941732 5:-0.378274 6:0.144258 7:-0.997099 8:-0.896539 9:-0.331082 10:-0.681628 11:-0.627805 12:0.03125 13:-0.647486 14:-0.528053 15:-0.298498 16:-0.634755 17:-0.497487 18:-0.230948 
-64 0 64 64 1:-0.975666 2:-0.688004 3:-0.426783 4:-0.979618 5:-0.738249 6:-0.433545 7:-0.998848 8:-0.949204 9:-0.398745 10:-0.612735 11:-0.504105 12:-0.168269 13:-0.630897 14:-0.521452 15:-0.256456 16:-0.657648 17:-0.520938 18:-0.386853 
-64 0 0 0 1:-0.965742 2:-0.675614 3:-0.715072 4:-0.939534 5:-0.599308 6:-0.43081 7:-0.998253 8:-0.968998 9:-0.877084 10:-0.888309 11:-0.829228 12:-0.682692 13:-0.934681 14:-0.89769 15:-0.853453 16:-0.909469 17:-0.838079 18:-0.725422 
-64 0 0 0 1:-0.893034 2:-0.174739 3:-0.0288693 4:-0.924122 5:-0.479716 6:0.279818 7:-0.99285 8:-0.904804 9:-0.600535 10:-0.667015 11:-0.613574 12:-0.294471 13:-0.77605 14:-0.734873 15:-0.682883 16:-0.722164 17:-0.631491 18:-0.528796 
-64 0 0 64 1:-0.840648 2:-0.0196295 3:0.987131 4:-0.960183 5:-0.716744 6:0.00189642 7:-0.996879 8:-0.963165 9:-0.828138 10:-0.538622 11:-0.380405 12:-0.21274 13:-0.862105 14:-0.826183 15:-0.809009 16:-0.612903 17:-0.45617 18:-0.376382 
-0 0 0 61.35315404465881 1:-0.828433 2:-0.296909 3:-0.115247 4:-0.914145 5:-0.660076 6:-0.653589 7:-0.966711 8:-0.719293 9:-0.29798 10:-0.470772 11:-0.330049 12:-0.289663 13:-0.458787 14:-0.254125 15:-0.105105 16:-0.633715 17:-0.283082 18:-0.146015 
-30.22774916396527 0 0 0 1:-0.928895 2:-0.607203 3:-0.580277 4:-0.973121 5:-0.869016 6:-0.818137 7:-0.992582 8:-0.916466 9:-0.7116 10:-0.742171 11:-0.665025 12:-0.558894 13:-0.804044 14:-0.744774 15:-0.751351 16:-0.786681 17:-0.682859 18:-0.6242 
-0 0 37.90270085534406 64 1:-0.952412 2:-0.826937 3:-0.853922 4:-0.99235 5:-0.958217 6:-0.940774 7:-0.997396 8:-0.971664 9:-0.922167 10:-0.633612 11:-0.48659 12:-0.295673 13:-0.75635 14:-0.69747 15:-0.658859 16:-0.707596 17:-0.599107 18:-0.438045 
-0 0 0 64 1:-0.979962 2:-0.863977 3:-0.826719 4:-0.978065 5:-0.795044 6:-0.616664 7:-0.997228 8:-0.971478 9:-0.869277 10:-0.793319 11:-0.725233 12:-0.597356 13:-0.856921 14:-0.854785 15:-0.739339 16:-0.867846 17:-0.772194 18:-0.756835 
-64 0 0 0 1:-0.987786 2:-0.880394 3:-0.826117 4:-0.977614 5:-0.852509 6:-0.748247 7:-0.998768 8:-0.974537 9:-0.902115 10:-0.826722 11:-0.735085 12:-0.597356 13:-0.921203 14:-0.80198 15:-0.645646 16:-0.959417 17:-0.882747 18:-0.692845 
-64 0 0 0 1:-0.986847 2:-0.90753 3:-0.899195 4:-0.983655 5:-0.867873 6:-0.834212 7:-0.999269 8:-0.983969 9:-0.91514 10:-0.861169 11:-0.709907 12:-0.459135 13:-0.909798 14:-0.828383 15:-0.657658 16:-0.935484 17:-0.87158 18:-0.699825 
-64 0 0 0 1:-0.899709 2:-0.211415 3:0.651329 4:-0.963824 5:-0.734241 6:-0.198438 7:-0.997753 8:-0.969489 9:-0.832683 10:-0.750522 11:-0.538041 12:-0.18149 13:-0.897356 14:-0.818482 15:-0.762162 16:-0.848075 17:-0.682859 18:-0.450844 
-64 0 0 0 1:-0.992126 2:-0.903387 3:-0.912994 4:-0.994087 5:-0.934224 6:-0.897015 7:-0.999385 8:-0.974151 9:-0.856374 10:-0.900835 11:-0.89491 12:-0.826923 13:-0.840332 14:-0.789879 15:-0.651652 16:-0.958377 17:-0.953099 18:-0.892961 
-0 0 0 64 1:-0.97557 2:-0.879041 3:-0.89662 4:-0.969451 5:-0.828764 6:-0.798623 7:-0.993412 8:-0.941891 9:-0.823813 10:-0.692067 11:-0.580733 12:-0.394231 13:-0.679627 14:-0.588559 15:-0.513514 16:-0.762747 17:-0.590173 18:-0.434555 
-0 0 0 64 1:-0.972849 2:-0.828279 3:-0.848824 4:-0.995469 5:-0.958892 6:-0.936215 7:-0.99902 8:-0.980696 9:-0.916967 10:-0.720251 11:-0.512863 12:-0.280048 13:-0.72732 14:-0.719472 15:-0.597598 16:-0.751301 17:-0.669458 18:-0.509017 
-0 0 0 48.10636975508881 1:-0.876681 2:-0.392014 3:0.0313988 4:-0.812199 5:0.0318457 6:0.507856 7:-0.988967 8:-0.885539 9:-0.545806 10:-0.575157 11:-0.472359 12:-0.439904 13:-0.672369 14:-0.522552 15:-0.458258 16:-0.647242 17:-0.437186 18:-0.304247 
-0 0 0 17.42389826688419 1:-0.993147 2:-0.934542 3:-0.85048 4:-0.992941 5:-0.923572 6:-0.833273 7:-0.999704 8:-0.990575 9:-0.916406 10:-0.878914 11:-0.761357 12:-0.730769 13:-0.877657 14:-0.764576 15:-0.627628 16:-0.914672 17:-0.859296 18:-0.687027 
-64 0 0 0 1:-0.986847 2:-0.90753 3:-0.899195 4:-0.983655 5:-0.867873 6:-0.834212 7:-0.999269 8:-0.983969 9:-0.91514 10:-0.861169 11:-0.709907 12:-0.459135 13:-0.909798 14:-0.828383 15:-0.657658 16:-0.935484 17:-0.87158 18:-0.699825 
-64 0 0 0 1:-0.966456 2:-0.693534 3:-0.723417 4:-0.940322 5:-0.607996 6:-0.444206 7:-0.998286 8:-0.971229 9:-0.876688 10:-0.890397 11:-0.821565 12:-0.676683 13:-0.936755 14:-0.89659 15:-0.843844 16:-0.91051 17:-0.830262 18:-0.718441 
-9.472823953605746 0 0 64 1:-0.888808 2:-0.392232 3:0.0285827 4:-0.818175 5:0.0197912 6:0.496738 7:-0.992379 8:-0.892122 9:-0.54625 10:-0.608559 11:-0.471264 12:-0.432692 13:-0.705547 14:-0.523652 15:-0.454655 16:-0.600416 17:-0.46622 18:-0.284468 
-64 0 0 61.80620213293079 1:-0.972726 2:-0.804425 3:-0.653521 4:-0.989098 5:-0.877622 6:-0.787529 7:-0.998788 8:-0.967914 9:-0.835634 10:-0.921712 11:-0.819376 12:-0.715144 13:-0.927424 14:-0.89989 15:-0.873874 16:-0.925078 17:-0.873814 18:-0.785922 
-64 0 0 0 1:-0.977683 2:-0.770035 3:-0.714456 4:-0.973878 5:-0.747241 6:-0.600161 7:-0.998075 8:-0.936175 9:-0.525422 10:-0.719207 11:-0.57526 12:-0.290865 13:-0.762571 14:-0.608361 15:-0.267267 16:-0.836629 17:-0.679509 18:-0.428738 
-0 64 64 64 1:-0.984479 2:-0.900561 3:-0.800177 4:-0.98615 5:-0.920209 6:-0.789008 7:-0.997007 8:-0.957605 9:-0.841797 10:-0.691023 11:-0.650794 12:-0.695913 13:-0.672369 14:-0.553355 15:-0.574775 16:-0.752341 17:-0.695142 18:-0.65096 
-0 0 0 64 1:-0.976826 2:-0.755903 3:-0.526668 4:-0.979353 5:-0.803242 6:-0.532635 7:-0.998836 8:-0.952698 9:-0.596152 10:-0.7881 11:-0.732895 12:-0.691106 13:-0.790565 14:-0.726073 15:-0.732132 16:-0.849116 17:-0.832496 18:-0.792903 
-42.03366792056436 0 43.18899765578843 64 1:-0.873253 2:-0.204723 3:-0.137928 4:-0.780133 5:0.352643 6:0.910058 7:-0.976142 8:-0.647353 9:0.372701 10:-0.349687 11:-0.164751 12:0.0637019 13:-0.364438 14:-0.233223 15:0.0570571 16:-0.441207 17:-0.162479 18:0.0122164 
-64 0 64 64 1:-0.847116 2:-0.0199979 3:0.980286 4:-0.963726 5:-0.721732 6:1.79854e-005 7:-0.997293 8:-0.966768 9:-0.827465 10:-0.556367 11:-0.3815 12:-0.209135 13:-0.885951 14:-0.827283 15:-0.807808 16:-0.594173 17:-0.485204 18:-0.374055 
-31.37246199263152 0 0 21.82814877025999 1:-0.94787 2:-0.582776 3:-0.176653 4:-0.981823 5:-0.870257 6:-0.719005 7:-0.998038 8:-0.95438 9:-0.737911 10:-0.713987 11:-0.565408 12:-0.472356 13:-0.838258 14:-0.767877 15:-0.745345 16:-0.784599 17:-0.710776 18:-0.631181 
-64 0 0 0 1:-0.929809 2:-0.33776 3:0.206788 4:-0.931007 5:-0.500016 6:0.481953 7:-0.998572 8:-0.962148 9:-0.728039 10:-0.825678 11:-0.724138 12:-0.521635 13:-0.892172 14:-0.763476 15:-0.667267 16:-0.826223 17:-0.737577 18:-0.578825 
-64 0 0 0 1:-0.989432 2:-0.887578 3:-0.807674 4:-0.983501 5:-0.796956 6:-0.604672 7:-0.999376 8:-0.98186 9:-0.904817 10:-0.836117 11:-0.753695 12:-0.626202 13:-0.90254 14:-0.865787 15:-0.718919 16:-0.912591 17:-0.85148 18:-0.726585 
-64 0 0 64 1:-0.984133 2:-0.789673 3:-0.547371 4:-0.986211 5:-0.845849 6:-0.537186 7:-0.9983 8:-0.946763 9:-0.578986 10:-0.867432 11:-0.84127 12:-0.75 13:-0.870399 14:-0.830583 15:-0.781381 16:-0.886576 17:-0.85483 18:-0.804538 
-33.16611774762788 0 0 0 1:-0.903182 2:0.323718 3:0.0529668 4:-0.941732 5:-0.378274 6:0.144258 7:-0.997099 8:-0.896539 9:-0.331082 10:-0.681628 11:-0.627805 12:0.03125 13:-0.647486 14:-0.528053 15:-0.298498 16:-0.634755 17:-0.497487 18:-0.230948 
-64 0 0 0 1:-0.965648 2:-0.643988 3:-0.578491 4:-0.986496 5:-0.885068 6:-0.806205 7:-0.998736 8:-0.958212 9:-0.735469 10:-0.837161 11:-0.732895 12:-0.581731 13:-0.845516 14:-0.793179 15:-0.746547 16:-0.850156 17:-0.775544 18:-0.6847 
-0 0 0 64 1:-0.971538 2:-0.671805 3:-0.428381 4:-0.974203 5:-0.725918 6:-0.440853 7:-0.998781 8:-0.951261 9:-0.537325 10:-0.647182 11:-0.518336 12:-0.266827 13:-0.651633 14:-0.50385 15:-0.365766 16:-0.726327 17:-0.639308 18:-0.426411 
-64 0 0 0 1:-0.935863 2:-0.357877 3:-0.153569 4:-0.85456 5:0.271034 6:1 7:-0.993668 8:-0.82174 9:0.0685298 10:-0.580376 11:-0.43295 12:-0.132212 13:-0.62986 14:-0.447745 15:-0.027027 16:-0.682622 17:-0.513121 18:-0.230948 
-64 0 0 64 1:-0.965482 2:-0.824761 3:-0.848939 4:-0.995118 5:-0.959608 6:-0.938027 7:-0.998758 8:-0.977038 9:-0.91736 10:-0.67119 11:-0.487685 12:-0.259615 13:-0.765682 14:-0.707371 15:-0.60961 16:-0.723205 17:-0.664992 18:-0.45317 
-29.98845413288501 0 0 0 1:-0.989055 2:-0.888876 3:-0.894032 4:-0.989758 5:-0.904654 6:-0.887506 7:-0.999339 8:-0.977348 9:-0.866602 10:-0.911273 11:-0.867542 12:-0.784856 13:-0.846553 14:-0.764576 15:-0.649249 16:-0.970864 17:-0.966499 18:-0.901105 
-64 0 0 64 1:-0.789511 2:0.229695 3:0.564702 4:-0.828743 5:-0.181209 6:0.0943357 7:-0.971163 8:-0.645001 9:0.227615 10:-0.505219 11:-0.342091 12:-0.111779 13:-0.589425 14:-0.535754 15:-0.475075 16:-0.618106 17:-0.489671 18:-0.412449 
-64 0 0 7.694634478629979 1:-0.911578 2:0.391504 3:0.19971 4:-0.940536 5:-0.320066 6:0.163721 7:-0.996224 8:-0.843358 9:0.0422571 10:-0.485386 11:-0.478927 12:0.0697115 13:-0.548989 14:-0.355336 15:-0.0810811 16:-0.459938 17:-0.318816 18:-0.0796975 
-64 0 0 0 1:-0.963042 2:-0.809929 3:-0.673811 4:-0.987463 5:-0.884833 6:-0.795129 7:-0.998922 8:-0.974717 9:-0.867108 10:-0.973904 11:-0.877395 12:-0.778846 13:-0.967859 14:-0.932893 15:-0.901502 16:-0.985432 17:-0.950865 18:-0.862711 
-64 0 0 0 1:-0.929479 2:-0.431719 3:0.0641586 4:-0.84156 5:-0.00776617 6:0.534834 7:-0.99381 8:-0.902245 9:-0.554228 10:-0.736952 11:-0.564313 12:-0.449519 13:-0.773976 14:-0.59736 15:-0.436637 16:-0.774194 17:-0.571189 18:-0.304247 
-64 0 0 0 1:-0.937793 2:-0.344286 3:-0.127345 4:-0.856425 5:0.269234 6:0.909227 7:-0.993792 8:-0.82206 9:0.123934 10:-0.552192 11:-0.411056 12:-0.108173 13:-0.62675 14:-0.425743 15:0.0690691 16:-0.673257 17:-0.465103 18:-0.192554 
-64 0 0 64 1:-0.982253 2:-0.87142 3:-0.815111 4:-0.968216 5:-0.850955 6:-0.726838 7:-0.996586 8:-0.957992 9:-0.868407 10:-0.775574 11:-0.696771 12:-0.608173 13:-0.843442 14:-0.740374 15:-0.614414 16:-0.83975 17:-0.794528 18:-0.641652 
-8.091375641287463 0 0 64 1:-0.992705 2:-0.916686 3:-0.849232 4:-0.995768 5:-0.949095 6:-0.871894 7:-0.999661 8:-0.985075 9:-0.896042 10:-0.807933 11:-0.709907 12:-0.610577 13:-0.789528 14:-0.730473 15:-0.538739 16:-0.859521 17:-0.816862 18:-0.68121 
-0 0 0 64 1:-0.976826 2:-0.755903 3:-0.526668 4:-0.979353 5:-0.803242 6:-0.532635 7:-0.998836 8:-0.952698 9:-0.596152 10:-0.7881 11:-0.732895 12:-0.691106 13:-0.790565 14:-0.726073 15:-0.732132 16:-0.849116 17:-0.832496 18:-0.792903 
-64 0 0 64 1:-0.958204 2:-0.682549 3:-0.159991 4:-0.98239 5:-0.883272 6:-0.733097 7:-0.998611 8:-0.970547 9:-0.837571 10:-0.840292 11:-0.716475 12:-0.614183 13:-0.900467 14:-0.833883 15:-0.75015 16:-0.894901 17:-0.836963 18:-0.737056 
-64 0 0 0 1:-0.949166 2:-0.516209 3:-0.0642786 4:-0.93294 5:-0.158581 6:0.311148 7:-0.997142 8:-0.930259 9:-0.601967 10:-0.762004 11:-0.643131 12:-0.429087 13:-0.769829 14:-0.678768 15:-0.381381 16:-0.836629 17:-0.752094 18:-0.599767 
-64 0 0 61.68865156161929 1:-0.926299 2:-0.308924 3:0.239489 4:-0.925858 5:-0.417439 6:0.827703 7:-0.996108 8:-0.925836 9:-0.614486 10:-0.826722 11:-0.714286 12:-0.546875 13:-0.813375 14:-0.735974 15:-0.702102 16:-0.757544 17:-0.675042 18:-0.583479 
-64 0 0 0 1:-0.923279 2:-0.429696 3:-0.0995173 4:-0.967823 5:-0.758963 6:-0.622892 7:-0.994735 8:-0.883043 9:-0.494083 10:-0.769311 11:-0.585112 12:-0.365385 13:-0.721099 14:-0.557756 15:-0.26967 16:-0.854318 17:-0.747627 18:-0.496219 
-64 0 0 0 1:-0.979816 2:-0.822069 3:-0.786016 4:-0.974301 5:-0.78473 6:-0.684808 7:-0.998433 8:-0.957313 9:-0.735314 10:-0.799582 11:-0.640941 12:-0.305288 13:-0.826853 14:-0.718372 15:-0.503904 16:-0.894901 17:-0.823562 18:-0.640489 
-64 0 0 0 1:-0.987786 2:-0.880394 3:-0.826117 4:-0.977614 5:-0.852509 6:-0.748247 7:-0.998768 8:-0.974537 9:-0.902115 10:-0.826722 11:-0.735085 12:-0.597356 13:-0.921203 14:-0.80198 15:-0.645646 16:-0.959417 17:-0.882747 18:-0.692845 
-0 0 0 46.89574931829454 1:-0.898058 2:-0.211338 3:-0.147217 4:-0.812802 5:0.335067 6:0.901945 7:-0.986149 8:-0.671411 9:0.377807 10:-0.398747 11:-0.153804 12:0.0673077 13:-0.451529 14:-0.240924 15:0.0606607 16:-0.488033 17:-0.229481 18:0.0354857 
-0 0 0 24.72419907607248 1:-0.929338 2:-0.509754 3:-0.372171 4:-0.930161 5:-0.56862 6:-0.354917 7:-0.985663 8:-0.764762 9:-0.0104716 10:-0.56785 11:-0.37931 12:-0.239183 13:-0.625713 14:-0.415842 15:-0.276877 16:-0.674298 17:-0.422669 18:-0.270506 
-30.7516680048009 0 0 0 1:-0.853816 2:0.220811 3:0.525405 4:-0.909704 5:-0.192104 6:0.0976043 7:-0.991471 8:-0.72555 9:0.294073 10:-0.579332 11:-0.353038 12:-0.0817308 13:-0.651633 14:-0.535754 15:-0.460661 16:-0.630593 17:-0.542155 18:-0.406632 
-0 0 41.58841999768813 64 1:-0.971538 2:-0.671805 3:-0.428381 4:-0.974203 5:-0.725918 6:-0.440853 7:-0.998781 8:-0.951261 9:-0.537325 10:-0.647182 11:-0.518336 12:-0.266827 13:-0.651633 14:-0.50385 15:-0.365766 16:-0.726327 17:-0.639308 18:-0.426411 
-64 0 0 64 1:-0.948807 2:-0.653162 3:-0.704111 4:-0.927806 5:-0.589224 6:-0.46386 7:-0.995725 8:-0.949701 9:-0.839402 10:-0.772443 11:-0.750411 12:-0.649038 13:-0.8507 14:-0.855886 15:-0.851051 16:-0.720083 17:-0.620324 18:-0.546248 
-64 0 0 0 1:-0.965384 2:-0.675815 3:-0.609349 4:-0.984517 5:-0.885438 6:-0.811688 7:-0.998869 8:-0.965685 9:-0.822969 10:-0.858038 11:-0.766831 12:-0.620192 13:-0.871436 14:-0.816282 15:-0.78018 16:-0.890739 17:-0.836963 18:-0.71146 
-32.0012644975589 0 0 0 1:-0.989055 2:-0.888876 3:-0.894032 4:-0.989758 5:-0.904654 6:-0.887506 7:-0.999339 8:-0.977348 9:-0.866602 10:-0.911273 11:-0.867542 12:-0.784856 13:-0.846553 14:-0.764576 15:-0.649249 16:-0.970864 17:-0.966499 18:-0.901105 
-0 -0 64 44.30300661264491 1:-0.978852 2:-0.868354 3:-0.813997 4:-0.964873 5:-0.849061 6:-0.726237 7:-0.9928 8:-0.954692 9:-0.866414 10:-0.537578 11:-0.644226 12:-0.591346 13:-0.70451 14:-0.70077 15:-0.6 16:-0.0416233 17:-0.690676 18:-0.59395 
-19.49089109769031 -0 59.97879099008079 59.09079431266738 1:-0.919749 2:-0.306758 3:0.245631 4:-0.920028 5:-0.417429 6:0.809189 7:-0.990538 8:-0.919323 9:-0.609668 10:-0.726514 11:-0.701149 12:-0.543269 13:-0.70451 14:-0.713971 15:-0.694895 16:-0.16129 17:-0.539922 18:-0.543921 
-22.29035386523145 -0 3.234631157073146 24.53756977146586 1:-0.872476 2:0.451893 3:0.187054 4:-0.891329 5:-0.261641 6:0.159785 7:-0.979775 8:-0.759002 9:0.0106192 10:-0.197286 11:-0.463602 12:0.0444712 13:-0.298082 14:-0.238724 15:-0.129129 16:0.154006 17:-0.0329425 18:-0.0157068 
-0 -0 0 19.16518484036735 1:-0.846708 2:-0.727765 3:-0.826839 4:-0.88469 5:-0.854852 6:-0.905437 7:-0.887926 8:-0.868314 9:-0.823928 10:0.569937 11:0.16694 12:0.11899 13:0.791602 14:0.487349 15:0.0042042 16:0.8564 17:0.682859 18:0.429901 
-3.284943776867453 -0.6580178831006547 2.876615118567389 4.100383439314685 1:1 2:0.934715 3:-0.374661 4:0.992847 5:1 6:-0.255163 7:0.983749 8:0.959897 9:0.944018 10:0.97286 11:1 12:0.746394 13:0.965785 14:1 15:0.907508 16:0.969823 17:1 18:0.906923 
-33.28092818370566 -10.6028514115456 0 13.80102270792297 1:-0.816385 2:0.353317 3:0.665956 4:-0.878751 5:-0.455854 6:0.105055 7:-0.960068 8:-0.784665 9:-0.210703 10:-0.4238 11:-0.464696 12:0.0564904 13:-0.470192 14:-0.489549 15:-0.392192 16:-0.144641 17:-0.431602 18:-0.313554 
-5.489236454036386 -0 26.84401632817191 0 1:-0.94444 2:-0.651539 3:-0.702618 4:-0.923565 5:-0.585782 6:-0.460398 7:-0.989364 8:-0.946047 9:-0.835894 10:-0.627349 11:-0.731801 12:-0.645433 13:-0.740798 14:-0.837184 15:-0.847447 16:-0.0104058 17:-0.47627 18:-0.524142 
-0 -0 64 64 1:-0.972138 2:-0.874829 3:-0.895621 4:-0.966456 5:-0.823948 6:-0.796295 7:-0.989582 8:-0.938514 9:-0.820238 10:-0.48643 11:-0.54023 12:-0.384615 13:-0.514774 14:-0.559956 15:-0.505105 16:-0.158169 17:-0.494137 18:-0.410122 
-0 -0 41.23605598673459 23.6709044508436 1:-0.83994 2:-0.0170028 3:0.99132 4:-0.956985 5:-0.712248 6:0.00843251 7:-0.994014 8:-0.961352 9:-0.827553 10:-0.490605 11:-0.374932 12:-0.211538 13:-0.767755 14:-0.810781 15:-0.806607 16:0.0197711 17:-0.32775 18:-0.353112 
-0 -0 0 64 1:-0.978687 2:-0.901055 3:-0.850364 4:-0.991814 5:-0.940994 6:-0.882125 7:-0.994882 8:-0.968625 9:-0.888773 10:-0.586639 11:-0.673782 12:-0.643029 13:-0.42872 14:-0.686469 15:-0.584384 16:-0.191467 17:-0.640424 18:-0.62071 
-64 -0 64 64 1:-0.989576 2:-0.90423 3:-0.916219 4:-0.991561 5:-0.927868 6:-0.904533 7:-0.996751 8:-0.965267 9:-0.843833 10:-0.745303 11:-0.936508 12:-0.908654 13:-0.600829 14:-0.823982 15:-0.745345 16:-0.240375 17:-0.852596 18:-0.884817 
-0 -0 20.1366060626757 64 1:-0.896058 2:-0.54886 3:-0.181856 4:-0.967895 5:-0.859471 6:-0.705129 7:-0.987044 8:-0.92252 9:-0.741287 10:-0.431106 11:-0.443897 12:-0.475962 13:-0.589425 14:-0.687569 15:-0.78979 16:-0.114464 17:-0.421552 18:-0.531123 
-64 -44.76266609946584 64 64 1:-0.956154 2:-0.788328 3:-0.643553 4:-0.975938 5:-0.865153 6:-0.782325 7:-0.992077 8:-0.953108 9:-0.830603 10:-0.792276 11:-0.784346 12:-0.719952 13:-0.725246 14:-0.837184 15:-0.864264 16:-0.420395 17:-0.700726 18:-0.723095 
-0 -0 64 48.46277364018117 1:-0.977708 2:-0.86278 3:-0.826859 4:-0.975812 5:-0.793011 6:-0.616555 7:-0.994293 8:-0.969391 9:-0.867671 10:-0.599165 11:-0.690203 12:-0.584135 13:-0.6817 14:-0.832783 15:-0.730931 16:-0.118626 17:-0.649358 18:-0.727749 
-64 -64 64 64 1:-0.974848 2:-0.864599 3:-0.711247 4:-0.975358 5:-0.868048 6:-0.669845 7:-0.990563 8:-0.943746 9:-0.752651 10:-0.640919 11:-0.621237 12:-0.510817 13:-0.654743 14:-0.653465 15:-0.494294 16:-0.457856 17:-0.668342 18:-0.588133 
-64 -64 64 64 1:-0.943519 2:-0.731043 3:-0.718911 4:-0.93702 5:-0.687017 6:-0.608344 7:-0.977548 8:-0.857844 9:-0.452076 10:-0.565762 11:-0.434045 12:-0.247596 13:-0.597719 14:-0.468647 15:-0.22042 16:-0.514048 17:-0.414852 18:-0.268179 
-0 -0 64 64 1:-0.95242 2:-0.826919 3:-0.854239 4:-0.990828 5:-0.957783 6:-0.940622 7:-0.995313 8:-0.970646 9:-0.921948 10:-0.543841 11:-0.463602 12:-0.292067 13:-0.505443 14:-0.645765 15:-0.645646 16:-0.12487 17:-0.481854 18:-0.401978 
-0 -0 64 64 1:-0.947169 2:-0.696733 3:-0.599048 4:-0.968467 5:-0.814018 6:-0.681102 7:-0.987354 8:-0.904353 9:-0.632893 10:-0.330898 11:-0.301587 12:-0.186298 13:-0.485744 14:-0.509351 15:-0.375375 16:-0.176899 17:-0.3177 18:-0.289122 
-0 -0 0 14.84433727846571 1:-0.945301 2:-0.871237 3:-0.845846 4:-0.958269 5:-0.910202 6:-0.871118 7:-0.961595 8:-0.935996 9:-0.856733 10:0.329854 11:-0.288451 12:-0.526442 13:0.635044 14:-0.133113 15:-0.384985 16:0.810614 17:0.171413 18:-0.273997 
-0 -0 5.383203940214562 0 1:-0.685956 2:-0.585821 3:-0.796125 4:-0.721272 5:-0.696678 6:-0.843666 7:-0.727728 8:-0.705064 9:-0.66804 10:0.768267 11:0.603722 12:0.411058 13:0.819596 14:0.759076 15:0.491892 16:0.869927 17:0.824679 18:0.752182 
-64 -63.13330762886908 64 64 1:-0.949835 2:-0.777564 3:-0.788752 4:-0.965979 5:-0.829194 6:-0.747777 7:-0.989353 8:-0.931349 9:-0.796968 10:-0.506263 11:-0.510673 12:-0.307692 13:-0.644375 14:-0.678768 15:-0.622823 16:-0.430801 17:-0.619207 18:-0.627691 
-64 -64 40.17030722093433 64 1:-0.786998 2:0.248839 3:0.584759 4:-0.831843 5:-0.16999 6:0.115565 7:-0.965413 8:-0.641669 9:0.243812 10:-0.438413 11:-0.330049 12:-0.111779 13:-0.504406 14:-0.513751 15:-0.47027 16:-0.319459 17:-0.432719 18:-0.396161 
-0 -0 0 64 1:-0.818983 2:-0.287547 3:-0.114136 4:-0.905821 5:-0.65249 6:-0.649714 7:-0.948295 8:-0.709971 9:-0.289121 10:-0.341336 11:-0.324576 12:-0.290865 13:-0.244168 14:-0.222222 15:-0.1003 16:-0.147763 17:-0.245114 18:-0.146015 
-36.06551355344439 -0 21.08242650549211 27.33050449029147 1:-0.912003 2:-0.646358 3:-0.574124 4:-0.9327 5:-0.658777 6:-0.570728 7:-0.972818 8:-0.831849 9:-0.542001 10:-0.620042 11:-0.564313 12:-0.453125 13:-0.425609 14:-0.418042 15:-0.218018 16:-0.28512 17:-0.506421 18:-0.334497 
-0 -0 -55.63552257873626 0 1:-0.992974 2:-0.682348 3:-0.236576 4:-0.994136 5:-0.79961 6:-0.00788126 7:-0.999944 8:-0.985524 9:-0.765891 10:-0.676409 11:-0.608101 12:-0.293269 13:-0.799896 14:-0.743674 15:-0.678078 16:0.0790843 17:-0.624791 18:-0.526469 
-64 -64 -64 64 1:-0.968419 2:-0.711146 3:-0.718241 4:-0.953244 5:-0.653392 6:-0.478141 7:-0.997124 8:-0.964373 9:-0.853287 10:-0.73382 11:-0.751505 12:-0.649038 13:-0.821669 14:-0.853685 15:-0.848649 16:-0.486993 17:-0.58794 18:-0.561373 
-64 -0 -0 64 1:-0.999899 2:-0.998168 3:-0.892935 4:-0.99993 5:-0.997894 6:-0.933545 7:-1 8:-1 9:-0.999896 10:-0.85595 11:-0.922277 12:-0.875 13:-0.912908 14:-0.9989 15:-0.921922 16:-0.508845 17:-0.277499 18:-0.74171 
-0 -0 -0 5.474901737056905 1:-0.981172 2:-0.5894 3:-0.270511 4:-0.965647 5:-0.287962 6:0.604224 7:-0.999173 8:-0.898282 9:-0.0183839 10:-0.361169 11:-0.153804 12:0.0528846 13:-0.414204 14:-0.234323 15:0.0606607 16:-0.260146 17:-0.149079 18:0.000581734 
-0 -64 -0 64 1:-0.98254 2:-0.797984 3:-0.659217 4:-0.990611 5:-0.871769 6:-0.711949 7:-0.998809 8:-0.95588 9:-0.701425 10:-0.461378 11:-0.342091 12:-0.19351 13:-0.634007 14:-0.547855 15:-0.366967 16:-0.489074 17:-0.374651 18:-0.303083 
-0 -0 -44.40534163530801 64 1:-0.999991 2:-0.999868 3:-0.998365 4:-0.999988 5:-0.999875 6:-0.997975 7:-0.999988 8:-0.999982 9:-0.999978 10:0.0897704 11:-0.621237 12:-0.838942 13:0.177812 14:-0.640264 15:-0.895495 16:0.240375 17:0.453936 18:0.36242 
-64 -0 -64 64 1:-0.997863 2:-0.948351 3:-0.922924 4:-0.998643 5:-0.963589 6:-0.913438 7:-0.999952 8:-0.991945 9:-0.898683 10:-0.89666 11:-0.918993 12:-0.81851 13:-0.821669 14:-0.831683 15:-0.692492 16:-0.181061 17:-0.907314 18:-0.898778 
-0 -0 -0 64 1:-0.976789 2:-0.639724 3:-0.176728 4:-0.970343 5:-0.392982 6:0.268129 7:-0.999126 8:-0.940118 9:-0.553905 10:-0.633612 11:-0.477833 12:-0.34976 13:-0.62986 14:-0.556656 15:-0.302102 16:-0.502601 17:-0.497487 18:-0.424084 
-0 -0 -0 64 1:-0.998623 2:-0.925166 3:-0.792865 4:-0.996903 5:-0.889789 6:-0.554273 7:-0.999981 8:-0.997393 9:-0.92698 10:-0.772443 11:-0.701149 12:-0.576923 13:-0.862105 14:-0.812981 15:-0.793393 16:0.783559 17:-0.561139 18:-0.582315 
-0 -0 -13.23303698227399 64 1:-0.982371 2:-0.663612 3:-0.202914 4:-0.991229 5:-0.838649 6:-0.716445 7:-0.999341 8:-0.934864 9:-0.525578 10:-0.402923 11:-0.323481 12:-0.34375 13:-0.374806 14:-0.266227 15:-0.0690691 16:-0.295525 17:-0.283082 18:-0.158813 
-64 -64 -0 64 1:-0.974219 2:-0.765003 3:-0.610373 4:-0.980842 5:-0.776697 6:-0.632382 7:-0.99758 8:-0.924407 9:-0.631218 10:-0.750522 11:-0.587302 12:-0.429087 13:-0.609124 14:-0.466447 15:-0.181982 16:-0.708637 17:-0.596873 18:-0.368237 
-0 -0 -3.945921284672692 64 1:-0.999994 2:-0.999944 3:-0.999412 4:-0.999998 5:-0.999869 6:-0.997913 7:-0.999995 8:-0.99999 9:-0.999988 10:0.213987 11:-0.326765 12:-0.820913 13:-0.167444 14:-0.718372 15:-0.848649 16:-0.0478668 17:0.288666 18:0.320535 
-0 -0 -0 8.939563265283548 1:-0.990348 2:-0.723496 3:-0.0285492 4:-0.991256 5:-0.77246 6:0.368875 7:-0.999945 8:-0.986973 9:-0.766943 10:-0.867432 11:-0.707718 12:-0.545673 13:-0.860031 14:-0.744774 15:-0.682883 16:-0.197711 17:-0.638191 18:-0.583479 
-64 -0 -0 64 1:-0.995837 2:-0.94559 3:-0.863057 4:-0.998214 5:-0.969858 6:-0.878955 7:-0.999869 8:-0.990635 9:-0.919382 10:-0.76618 11:-0.705528 12:-0.680288 13:-0.825816 14:-0.752475 15:-0.592793 16:-0.539022 17:-0.750977 18:-0.666085 
-64 -0 -0 0 1:-0.998784 2:-0.969421 3:-0.646557 4:-0.998937 5:-0.973311 6:-0.791005 7:-0.999997 8:-0.999821 9:-0.972889 10:-0.983299 11:-0.852217 12:-0.740385 13:-1 14:-0.905391 15:-0.783784 16:-0.388137 17:-0.689559 18:-0.748691 
-0 -0 -0 64 1:-0.999788 2:-0.99356 3:-0.942146 4:-0.999888 5:-0.996724 6:-0.936229 7:-0.999986 8:-0.999964 9:-0.989986 10:-0.849687 11:-0.893815 12:-0.736779 13:-0.767755 14:-0.831683 15:-0.735736 16:0.452653 17:0.0195422 18:-0.866201 
-0 -0 -0 64 1:-0.98561 2:-0.767283 3:-0.47993 4:-0.985296 5:-0.782697 6:-0.474408 7:-0.998995 8:-0.944874 9:-0.428449 10:-0.58977 11:-0.428571 12:-0.175481 13:-0.613271 14:-0.49725 15:-0.305706 16:-0.367326 17:-0.3177 18:-0.287958 
-0 -0 -0 64 1:-0.986665 2:-0.78498 3:-0.216482 4:-0.995752 5:-0.933088 6:-0.711592 7:-0.99981 8:-0.981177 9:-0.821719 10:-0.522965 11:-0.459223 12:-0.545673 13:-0.794712 14:-0.733773 15:-0.798198 16:-0.401665 17:-0.532105 18:-0.575334 
-0 -0 -0 42.29398355674908 1:-0.999904 2:-0.996979 3:-0.900001 4:-0.999907 5:-0.997282 6:-0.889538 7:-0.999984 8:-0.999981 9:-0.99206 10:-0.717119 11:-0.792009 12:-0.521635 13:-0.723173 14:-0.848185 15:-0.682883 16:0.376691 17:0.738693 18:-0.719604 
-0 -0 -2.008933572235433 58.56030074458514 1:-0.998858 2:-0.959287 3:-0.853701 4:-0.99827 5:-0.925698 6:-0.665085 7:-0.999984 8:-0.997703 9:-0.937683 10:-0.817328 11:-0.727422 12:-0.574519 13:-0.878694 14:-0.829483 15:-0.69009 16:0.704475 17:-0.755444 18:-0.763816 
-0 -2.019918952142378 -38.03000653249823 64 1:-0.958985 2:-0.580675 3:-0.017176 4:-0.935061 5:-0.295418 6:0.393331 7:-0.998285 8:-0.946244 9:-0.623767 10:-0.565762 11:-0.483306 12:-0.461538 13:-0.659927 14:-0.521452 15:-0.455856 16:-0.463059 17:-0.418202 18:-0.310064 
-64 -37.79359974440511 -0 64 1:-0.971898 2:-0.721307 3:-0.199091 4:-0.992003 5:-0.914402 6:-0.708905 7:-0.999228 8:-0.969175 9:-0.796943 10:-0.52714 11:-0.471264 12:-0.528846 13:-0.781234 14:-0.738174 15:-0.800601 16:-0.533819 17:-0.535455 18:-0.575334 
-64 -64 -0 64 1:-0.940512 2:-0.0474381 3:0.537139 4:-0.965102 5:-0.638495 6:0.0114167 7:-0.996806 8:-0.905559 9:-0.364165 10:-0.601253 11:-0.492063 12:0.0420673 13:-0.699326 14:-0.559956 15:-0.417417 16:-0.711759 17:-0.562256 18:-0.351949 
-41.35937344284414 -0 -6.042599319000974 0 1:-0.999092 2:-0.973325 3:-0.927402 4:-0.999513 5:-0.982896 6:-0.920112 7:-0.999983 8:-0.998569 9:-0.944527 10:-0.9238 11:-0.899288 12:-0.760817 13:-0.878694 14:-0.820682 15:-0.674474 16:0.630593 17:-0.887214 18:-0.894124 
-64 -64 -0 64 1:-0.981359 2:-0.692325 3:-0.441776 4:-0.982283 5:-0.733969 6:-0.442861 7:-0.998645 8:-0.904455 9:-0.223183 10:-0.569937 11:-0.383689 12:-0.258413 13:-0.612234 14:-0.418042 15:-0.276877 16:-0.565036 17:-0.412619 18:-0.279814 
-0 -0 -10.07774683406905 0 1:-0.993766 2:-0.780346 3:-0.124653 4:-0.9894 5:-0.643099 6:0.178788 7:-0.999947 8:-0.985887 9:-0.739271 10:-0.569937 11:-0.481117 12:-0.486779 13:-0.639191 14:-0.509351 15:-0.436637 16:0.159209 17:-0.389168 18:-0.310064 
-64 -64 -0 64 1:-0.981809 2:-0.844834 3:-0.642624 4:-0.991863 5:-0.904309 6:-0.793977 7:-0.999306 8:-0.979064 9:-0.86544 10:-0.897704 11:-0.808429 12:-0.713942 13:-0.852773 14:-0.850385 15:-0.823423 16:-0.747138 17:-0.795645 18:-0.762653 
-0 -0 -0 32.22504592721796 1:-0.985383 2:-0.531766 3:0.226866 4:-0.989429 5:-0.701583 6:-0.157169 7:-0.999812 8:-0.945593 9:-0.279666 10:-0.539666 11:-0.337712 12:-0.115385 13:-0.624676 14:-0.536854 15:-0.478679 16:-0.295525 17:-0.481854 18:-0.413613 
-46.09159224239904 -64 -0 64 1:-0.921987 2:-0.252623 3:0.84925 4:-0.978995 5:-0.784239 6:-0.0708889 7:-0.999096 8:-0.978769 9:-0.853024 10:-0.549061 11:-0.377121 12:-0.205529 13:-0.858994 14:-0.830583 15:-0.806607 16:-0.470343 17:-0.428252 18:-0.377545 
-64 -40.05457966062483 -64 64 1:-0.880021 2:-0.380028 3:-0.124001 4:-0.941233 5:-0.701862 6:-0.6635 7:-0.977337 8:-0.779967 9:-0.339106 10:-0.421712 11:-0.345375 12:-0.308894 13:-0.384137 14:-0.276128 15:-0.113514 16:-0.382934 17:-0.289782 18:-0.163467 
-0 -0 -0 20.12192265177002 1:-0.997442 2:-0.891371 3:-0.284579 4:-0.998831 5:-0.964202 6:-0.728209 7:-0.999981 8:-0.995103 9:-0.879309 10:-0.549061 11:-0.43514 12:-0.576923 13:-0.845516 14:-0.742574 15:-0.801802 16:0.398543 17:-0.523171 18:-0.576498 
-0 -0 -2.8513373747169 0 1:-0.997284 2:-0.893662 3:-0.689106 4:-0.998534 5:-0.959252 6:-0.853705 7:-0.999978 8:-0.994028 9:-0.864289 10:-0.72547 11:-0.608101 12:-0.429087 13:-0.842405 14:-0.705171 15:-0.658859 16:0.601457 17:-0.631491 18:-0.628854 
-0 -0 -64 0 1:-0.998139 2:-0.932692 3:-0.80648 4:-0.998537 5:-0.951764 6:-0.794672 7:-0.999977 8:-0.994575 9:-0.903239 10:-0.645094 11:-0.464696 12:-0.239183 13:-0.786418 14:-0.69637 15:-0.573574 16:0.342352 17:-0.679509 18:-0.647469 
-0 -0 -64 64 1:-0.996867 2:-0.947287 3:-0.796433 4:-0.996401 5:-0.948017 6:-0.811873 7:-0.999832 8:-0.985448 9:-0.884074 10:-0.662839 11:-0.661741 12:-0.716346 13:-0.707621 14:-0.585259 15:-0.591592 16:-0.309053 17:-0.696259 18:-0.655614 
-64 -0 -0 64 1:-0.996558 2:-0.927616 3:-0.839337 4:-0.995671 5:-0.877956 6:-0.635167 7:-0.999919 8:-0.991991 9:-0.908032 10:-0.756785 11:-0.739464 12:-0.578125 13:-0.836185 14:-0.842684 15:-0.708108 16:-0.314256 17:-0.762144 18:-0.766143 
-64 -0 -0 0 1:-0.995613 2:-0.919852 3:-0.634237 4:-0.996959 5:-0.943064 6:-0.785237 7:-0.99999 8:-0.996814 9:-0.92386 10:-0.957203 11:-0.816092 12:-0.710337 13:-0.972006 14:-0.854785 15:-0.771772 16:-0.323621 17:-0.797878 18:-0.760326 
-0 -0 -0 64 1:-0.973294 2:-0.403795 3:0.304258 4:-0.980353 5:-0.616462 6:-0.0978806 7:-0.999398 8:-0.913065 9:-0.168327 10:-0.522965 11:-0.337712 12:-0.110577 13:-0.611198 14:-0.535754 15:-0.476276 16:-0.450572 17:-0.48297 18:-0.414776 
-48.12652106571847 -0 -64 64 1:-0.994925 2:-0.894422 3:-0.795412 4:-0.996158 5:-0.922377 6:-0.776419 7:-0.999882 8:-0.985362 9:-0.868482 10:-0.578288 11:-0.475643 12:-0.242788 13:-0.747019 14:-0.708471 15:-0.587988 16:-0.421436 17:-0.681742 18:-0.65096 
-64 -64 -64 64 1:-0.86772 2:0.046252 3:0.514725 4:-0.897846 5:-0.311028 6:0.0618089 7:-0.986737 8:-0.746413 9:0.125498 10:-0.505219 11:-0.342091 12:-0.114183 13:-0.592535 14:-0.537954 15:-0.477477 16:-0.556712 17:-0.484087 18:-0.414776 
-0 -0 -0 4.657379932309437 1:-0.998356 2:-0.835897 3:-0.364067 4:-0.998555 5:-0.898907 6:-0.176124 7:-0.99998 8:-0.996396 9:-0.850381 10:-0.719207 11:-0.621237 12:-0.301683 13:-0.822706 14:-0.753575 15:-0.678078 16:0.758585 17:-0.610274 18:-0.522978 
-20.07531577049745 -0 -0 64 1:-0.983878 2:-0.888675 3:-0.878565 4:-0.997278 5:-0.970934 6:-0.945703 7:-0.999558 8:-0.986903 9:-0.937306 10:-0.606472 11:-0.47017 12:-0.199519 13:-0.688958 14:-0.69637 15:-0.624024 16:-0.442248 17:-0.557789 18:-0.445026 
-64 -64 -15.02853701745129 64 1:-0.990125 2:-0.912068 3:-0.900894 4:-0.988064 5:-0.875746 6:-0.814546 7:-0.998801 8:-0.969538 9:-0.853162 10:-0.647182 11:-0.543514 12:-0.295673 13:-0.65578 14:-0.589659 15:-0.50991 16:-0.574402 17:-0.58124 18:-0.44619 
-64 -64 -0 64 1:-0.958544 2:-0.472676 3:0.153047 4:-0.960026 5:-0.561633 6:0.661787 7:-0.998499 8:-0.95422 9:-0.666805 10:-0.830898 11:-0.71538 12:-0.546875 13:-0.816485 14:-0.738174 15:-0.696096 16:-0.686785 17:-0.651591 18:-0.586969 
-0 -0 -0 64 1:-0.997777 2:-0.909359 3:-0.631991 4:-0.998022 5:-0.931946 6:-0.617488 7:-0.999961 8:-0.99103 9:-0.74398 10:-0.841336 11:-0.793103 12:-0.680288 13:-0.865215 14:-0.79758 15:-0.741742 16:0.110302 17:-0.806812 18:-0.799884 
-0 -0 -0 64 1:-0.997335 2:-0.93444 3:-0.796946 4:-0.997136 5:-0.948457 6:-0.785584 7:-0.999938 8:-0.990155 9:-0.844719 10:-0.798539 11:-0.66393 12:-0.457933 13:-0.841369 14:-0.674367 15:-0.485886 16:-0.289282 17:-0.715243 18:-0.611402 
-0 -0 -64 0 1:-0.995344 2:-0.852897 3:-0.758041 4:-0.990781 5:-0.806897 6:-0.514272 7:-0.999925 8:-0.990453 9:-0.895037 10:-0.731733 11:-0.725233 12:-0.604567 13:-0.838258 14:-0.827283 15:-0.811411 16:-0.0260146 17:-0.585706 18:-0.573008 
-0 -0 -0 4.79501155974277 1:-0.999947 2:-0.998685 3:-0.970808 4:-0.999968 5:-0.999483 6:-0.967147 7:-0.999987 8:-0.999983 9:-0.999846 10:-0.598121 11:-0.913519 12:-0.826923 13:-0.372732 14:-0.855886 15:-0.87988 16:0.335068 17:0.691792 18:-0.44968 
-15.46133514393426 -0 -29.68367017898167 64 1:-0.948392 2:0.0564095 3:0.085988 4:-0.956966 5:-0.474778 6:0.0637812 7:-0.997101 8:-0.874296 9:-0.154906 10:-0.305846 11:-0.472359 12:0.0420673 13:-0.414204 14:-0.251925 15:-0.126727 16:-0.186264 17:-0.0608599 18:-0.0122164 
-64 -64 -0 64 1:-0.993707 2:-0.909156 3:-0.829465 4:-0.988603 5:-0.893304 6:-0.724126 7:-0.999518 8:-0.980631 9:-0.892681 10:-0.731733 11:-0.694581 12:-0.591346 13:-0.835148 14:-0.739274 15:-0.6 16:-0.602497 17:-0.786711 18:-0.646306 
-0 -0 -0 64 1:-0.999982 2:-0.999374 3:-0.992182 4:-0.999966 5:-0.999113 6:-0.980872 7:-0.999989 8:-0.999987 9:-0.999706 10:-0.275574 11:-0.878489 12:-0.41226 13:-0.505443 14:-0.90209 15:-0.694895 16:0.457856 17:0.769961 18:-0.325189 
-0 -0 -0 48.18621816404212 1:-0.987824 2:-0.705698 3:-0.223533 4:-0.993867 5:-0.858914 6:-0.727086 7:-0.999667 8:-0.950206 9:-0.561938 10:-0.400835 11:-0.320197 12:-0.348558 13:-0.387247 14:-0.266227 15:-0.0606607 16:-0.23205 17:-0.279732 18:-0.15765 
-64 -64 -64 64 1:-0.97928 2:-0.746669 3:-0.619708 4:-0.992344 5:-0.913809 6:-0.833195 7:-0.999076 8:-0.964091 9:-0.771091 10:-0.685804 11:-0.643131 12:-0.514423 13:-0.717989 14:-0.709571 15:-0.715315 16:-0.542144 17:-0.637074 18:-0.627691 
-64 -64 -64 64 1:-0.991495 2:-0.873898 3:-0.793163 4:-0.993863 5:-0.906328 6:-0.7706 7:-0.999665 8:-0.978466 9:-0.853122 10:-0.577244 11:-0.487685 12:-0.251202 13:-0.734578 14:-0.713971 15:-0.597598 16:-0.587929 17:-0.680625 18:-0.652123 
-12.556282016132 -54.1015707838714 -0 64 1:-0.950123 2:-0.426385 3:-0.2015 4:-0.912083 5:-0.0167585 6:0.758344 7:-0.995011 8:-0.810349 9:0.164533 10:-0.351775 11:-0.164751 12:0.0576923 13:-0.392431 14:-0.237624 15:0.0594595 16:-0.32154 17:-0.159129 18:0.0017452 
-24.70667165375006 -0 -0 22.17188581945978 1:-0.999767 2:-0.995381 3:-0.775417 4:-0.999827 5:-0.99479 6:-0.867096 7:-0.999999 8:-0.999998 9:-0.998968 10:-0.925887 11:-0.918993 12:-0.825721 13:-0.963712 14:-0.987899 15:-0.864264 16:-0.484912 17:-0.223897 18:-0.728912 
-12.10450142737308 -0 -0 64 1:-0.984547 2:-0.571499 3:-0.174007 4:-0.987633 5:-0.728556 6:0.0763292 7:-0.999794 8:-0.973601 9:-0.719873 10:-0.667015 11:-0.608101 12:-0.293269 13:-0.791602 14:-0.739274 15:-0.678078 16:-0.420395 17:-0.622557 18:-0.527632 
-0 -64 -0 64 1:-0.989432 2:-0.843601 3:-0.759723 4:-0.987505 5:-0.818108 6:-0.65792 7:-0.999096 8:-0.951431 9:-0.591275 10:-0.617954 11:-0.453749 12:-0.254808 13:-0.63297 14:-0.458746 15:-0.2 16:-0.555671 17:-0.430486 18:-0.289122 
-0 -0 -0 -64 1:-0.983026 2:-0.791512 3:-0.467012 4:-0.983002 5:-0.810485 6:-0.473624 7:-0.998394 8:-0.946822 9:-0.334795 10:-0.522965 11:-0.413246 12:-0.192308 13:-0.554173 14:-0.490649 15:-0.291291 16:-0.468262 17:-0.398102 18:-0.27167 
-0 -0 -0 -64 1:-0.962943 2:-0.669216 3:-0.423851 4:-0.961063 5:-0.688567 6:-0.422466 7:-0.994884 8:-0.901371 9:-0.306428 10:-0.593946 11:-0.449371 12:-0.182692 13:-0.635044 14:-0.515952 15:-0.308108 16:-0.491155 17:-0.376884 18:-0.286795 
-0 -0 -64 -0 1:-0.99986 2:-0.998644 3:-0.944513 4:-0.99993 5:-0.998948 6:-0.951991 7:-0.999967 8:-0.999932 9:-0.957737 10:-0.448852 11:-0.500821 12:-0.484375 13:-0.414204 14:-0.773377 15:-0.712913 16:-0.332986 17:-0.451703 18:-0.716114 
-0 -64 -0 -60.54918245823108 1:-0.980285 2:-0.875863 3:-0.860201 4:-0.994263 5:-0.970261 6:-0.941905 7:-0.998677 8:-0.983539 9:-0.923305 10:-0.551148 11:-0.473454 12:-0.372596 13:-0.768792 14:-0.685369 15:-0.651652 16:-0.727367 17:-0.59464 18:-0.439209 
-64 -64 -0 -0 1:-0.960194 2:-0.957367 3:-0.889424 4:-0.993799 5:-0.988645 6:-0.945706 7:-0.994037 8:-0.99143 9:-0.931457 10:-0.922756 11:-0.78763 12:-0.323317 13:-0.921203 14:-0.852585 15:-0.619219 16:-0.933403 17:-0.865997 18:-0.489238 
-12.6366943037948 -64 -41.26082917979809 -64 1:-0.955226 2:-0.829022 3:-0.85558 4:-0.992591 5:-0.959407 6:-0.941054 7:-0.997443 8:-0.974874 9:-0.92328 10:-0.636743 11:-0.50301 12:-0.307692 13:-0.739762 14:-0.716172 15:-0.663664 16:-0.645161 17:-0.61474 18:-0.463642 
-64 -54.80176735920082 -0 -0 1:-0.995024 2:-0.947395 3:-0.731415 4:-0.996392 5:-0.966934 6:-0.712773 7:-0.999522 8:-0.991033 9:-0.779592 10:-0.925887 11:-0.89272 12:-0.527644 13:-0.918092 14:-0.875688 15:-0.563964 16:-0.912591 17:-0.985483 18:-0.648633 
-64 -64 -0 -0 1:-0.978035 2:-0.867582 3:-0.70941 4:-0.978297 5:-0.873461 6:-0.670546 7:-0.993894 8:-0.948754 9:-0.757141 10:-0.800626 11:-0.681445 12:-0.516827 13:-0.816485 14:-0.708471 15:-0.505105 16:-0.8564 17:-0.769961 18:-0.6242 
-64 -64 -0 -0 1:-0.985421 2:-0.890841 3:-0.707272 4:-0.985314 5:-0.905107 6:-0.687703 7:-0.996533 8:-0.964016 9:-0.758484 10:-0.813152 11:-0.689108 12:-0.508413 13:-0.842405 14:-0.709571 15:-0.515916 16:-0.913632 17:-0.780011 18:-0.609075 
-64 -64 -0 -0 1:-0.977934 2:-0.866788 3:-0.708535 4:-0.978972 5:-0.878404 6:-0.676096 7:-0.993884 8:-0.948554 9:-0.755312 10:-0.797495 11:-0.669403 12:-0.518029 13:-0.816485 14:-0.70407 15:-0.512312 16:-0.8564 17:-0.765494 18:-0.613729 
-54.73701709908266 -0 -0 -0 1:-0.964578 2:-0.602375 3:0.526116 4:-0.975951 5:-0.757304 6:-0.0188267 7:-0.997624 8:-0.958262 9:-0.28128 10:-0.822547 11:-0.673782 12:0.0420673 13:-0.820632 14:-0.750275 15:-0.451051 16:-0.912591 17:-0.857063 18:-0.341478 
-0 -0 -64 -19.73102090111115 1:-0.999845 2:-0.997727 3:-0.81369 4:-0.999895 5:-0.998671 6:-0.863096 7:-0.999983 8:-0.999959 9:-0.988934 10:-0.208768 11:-0.388068 12:-0.134615 13:-0.25972 14:-0.474147 15:-0.427027 16:0.62539 17:-0.127862 18:-0.391507 
-0 -52.95221612782309 -0 -64 1:-0.94582 2:-0.406616 3:0.537773 4:-0.963584 5:-0.643663 6:0.0117176 7:-0.996349 8:-0.917327 9:-0.251876 10:-0.622129 11:-0.460317 12:0.0564904 13:-0.717989 14:-0.647965 15:-0.41021 16:-0.752341 17:-0.708543 18:-0.368237 
-64 -64 -0 -0 1:-0.8365 2:0.370456 3:0.684007 4:-0.900221 5:-0.475528 6:0.0651837 7:-0.981751 8:-0.815885 9:-0.367421 10:-0.606472 11:-0.496442 12:0.0456731 13:-0.720062 14:-0.574257 15:-0.458258 16:-0.755463 17:-0.593523 18:-0.378709 
-0 -64 -0 -0 1:-0.932281 2:-0.702174 3:-0.58123 4:-0.944787 5:-0.7288 6:-0.58389 7:-0.984264 8:-0.877092 9:-0.566818 10:-0.639875 11:-0.477833 12:-0.465144 13:-0.484707 14:-0.355336 15:-0.240841 16:-0.718002 17:-0.468453 18:-0.379872 
-3.042260315829655 -64 -0 -0 1:-0.956191 2:-0.741272 3:-0.586767 4:-0.961168 5:-0.75086 6:-0.58488 7:-0.990811 8:-0.915585 9:-0.555888 10:-0.741127 11:-0.582923 12:-0.497596 13:-0.616382 14:-0.435644 15:-0.210811 16:-0.831426 17:-0.595757 18:-0.35893 
-64 -0 -0 -0 1:-0.992073 2:-0.930365 3:-0.611235 4:-0.993572 5:-0.94647 6:-0.603305 7:-0.999019 8:-0.979549 9:-0.638365 10:-0.95929 11:-0.899288 12:-0.454327 13:-0.939865 14:-0.875688 15:-0.245646 16:-0.952133 17:-0.994417 18:-0.454334 
-64 -64 -0 -0 1:-0.923789 2:-0.664656 3:-0.576401 4:-0.943768 5:-0.672553 6:-0.572621 7:-0.983893 8:-0.852765 9:-0.551112 10:-0.791232 11:-0.633279 12:-0.460337 13:-0.65578 14:-0.480748 15:-0.226426 16:-0.791883 17:-0.632607 18:-0.364747 
-34.18193474316472 -64 -64 -25.00691285096368 1:-0.842927 2:-0.313991 3:-0.111872 4:-0.925563 5:-0.688807 6:-0.672361 7:-0.972914 8:-0.755249 9:-0.306295 10:-0.481211 11:-0.386973 12:-0.304087 13:-0.459824 14:-0.358636 15:-0.198799 16:-0.48283 17:-0.346734 18:-0.168121 
-0 -64 -64 -0 1:-0.843229 2:-0.31399 3:-0.11961 4:-0.923898 5:-0.67531 6:-0.681856 7:-0.97264 8:-0.754055 9:-0.319526 10:-0.479123 11:-0.390257 12:-0.316106 13:-0.453603 14:-0.337734 15:-0.224024 16:-0.479709 17:-0.3512 18:-0.207679 
-0 -0 -0 -64 1:-0.845163 2:-0.341017 3:-0.110765 4:-0.92393 5:-0.680739 6:-0.663389 7:-0.972222 8:-0.752519 9:-0.30073 10:-0.460334 11:-0.36289 12:-0.294471 13:-0.43183 14:-0.30143 15:-0.113514 16:-0.470343 17:-0.335567 18:-0.15765 
-64 -0 -52.75073466035003 -64 1:-0.84284 2:-0.312564 3:-0.109277 4:-0.922289 5:-0.670214 6:-0.652651 7:-0.972525 8:-0.752988 9:-0.298221 10:-0.470772 11:-0.386973 12:-0.293269 13:-0.448419 14:-0.316832 15:-0.111111 16:-0.475546 17:-0.357901 18:-0.162304 
-64 -64 -0 -0 1:-0.969907 2:-0.704284 3:-0.41539 4:-0.969963 5:-0.737314 6:-0.521019 7:-0.996696 8:-0.905086 9:-0.107897 10:-0.656576 11:-0.552271 12:-0.300481 13:-0.684811 14:-0.562156 15:-0.317718 16:-0.687825 17:-0.620324 18:-0.286795 
-64 -64 -0 -1.033107058202685 1:-0.932619 2:-0.533388 3:-0.377166 4:-0.93544 5:-0.584366 6:-0.37834 7:-0.985379 8:-0.787019 9:-0.254712 10:-0.588727 11:-0.434045 12:-0.247596 13:-0.615345 14:-0.471947 15:-0.287688 16:-0.62435 17:-0.451703 18:-0.199535 
-64 -64 -0 -0 1:-0.932585 2:-0.514713 3:-0.368329 4:-0.93486 5:-0.569203 6:-0.351335 7:-0.985452 8:-0.78431 9:-0.0311253 10:-0.585595 11:-0.411056 12:-0.24399 13:-0.615345 14:-0.452145 15:-0.276877 16:-0.623309 17:-0.457286 18:-0.297266 
-64 -0 -0 -0 1:-0.980073 2:-0.796146 3:-0.408486 4:-0.98103 5:-0.836327 6:-0.384537 7:-0.997901 8:-0.935534 9:-0.0799293 10:-0.806889 11:-0.731801 12:-0.277644 13:-0.828927 14:-0.735974 15:-0.270871 16:-0.831426 17:-0.835846 18:-0.300756 
-64 -0 -0 -0 1:-0.960974 2:-0.480279 3:0.418998 4:-0.980525 5:-0.795899 6:-0.248354 7:-0.998924 8:-0.968525 9:0.0389337 10:-0.791232 11:-0.71538 12:-0.141827 13:-0.841369 14:-0.79758 15:-0.478679 16:-0.827263 17:-0.863763 18:-0.454334 
-0 -0 -0 -4.575694191553273 1:-0.999989 2:-0.999946 3:-0.997407 4:-0.999996 5:-0.999922 6:-0.998286 7:-0.99999 8:-0.999986 9:-0.999972 10:0.519833 11:0.195402 12:-0.560096 13:0.444272 14:-0.577558 15:-0.583183 16:0.346514 17:0.599107 18:0.559046 
-64 -64 -41.32320027453052 -0 1:-0.803299 2:0.207651 3:0.556416 4:-0.853312 5:-0.259965 6:0.068529 7:-0.978546 8:-0.708425 9:0.170258 10:-0.525052 11:-0.363985 12:-0.109375 13:-0.622602 14:-0.575358 15:-0.505105 16:-0.550468 17:-0.519821 18:-0.44619 
-64 -64 -0 -0 1:-0.800447 2:0.224157 3:0.567827 4:-0.849454 5:-0.22578 6:0.100805 7:-0.978088 8:-0.684952 9:0.235274 10:-0.524008 11:-0.360701 12:-0.114183 13:-0.618455 14:-0.565457 15:-0.476276 16:-0.545265 17:-0.500838 18:-0.41943 
-64 -64 -0 -0 1:-0.802127 2:0.180574 3:0.563554 4:-0.846371 5:-0.193343 6:0.108366 7:-0.978101 8:-0.687879 9:0.229812 10:-0.525052 11:-0.3815 12:-0.121394 13:-0.612234 14:-0.545655 15:-0.477477 16:-0.546306 17:-0.501954 18:-0.415939 
-16.11313779855399 -0 -0 -64 1:-0.999847 2:-0.997919 3:-0.924617 4:-0.999849 5:-0.997939 6:-0.910666 7:-0.999983 8:-0.999957 9:-0.861684 10:-0.721294 11:-0.885057 12:-0.918269 13:-0.587351 14:-0.778878 15:-0.763363 16:0.526535 17:-0.159129 18:-0.903432 
-64 -64 -0 -0 1:-0.991268 2:-0.905905 3:-0.916637 4:-0.993225 5:-0.92996 6:-0.905351 7:-0.998395 8:-0.967783 9:-0.84546 10:-0.916493 11:-0.96497 12:-0.920673 13:-0.828927 14:-0.869087 15:-0.763363 16:-0.847034 17:-0.926298 18:-0.902269 
-64 -64 -0 -0 1:-0.994181 2:-0.930333 3:-0.917494 4:-0.996207 5:-0.96012 6:-0.907662 7:-0.999513 8:-0.983709 9:-0.848622 10:-0.949896 11:-0.980296 12:-0.919471 13:-0.889062 14:-0.909791 15:-0.758559 16:-0.83871 17:-0.948632 18:-0.904596 
-64 -64 -0 -0 1:-0.991539 2:-0.907117 3:-0.916502 4:-0.993892 5:-0.936427 6:-0.905309 7:-0.998556 8:-0.969303 9:-0.845001 10:-0.933194 11:-0.971538 12:-0.923077 13:-0.843442 14:-0.872387 15:-0.757357 16:-0.885536 17:-0.939698 18:-0.902269 
-64 -0 -0 -51.39262771743822 1:-0.999871 2:-0.999743 3:-0.999895 4:-0.999916 5:-0.999888 6:-0.999816 7:-0.999948 8:-0.999897 9:-0.999947 10:-0.848643 11:-0.846743 12:-0.108173 13:-0.773976 14:-0.719472 15:-0.19039 16:-0.683663 17:-0.711893 18:-0.428738 
-0 -0 -19.1955428480956 -0 1:-0.998902 2:-0.942951 3:0.0178916 4:-0.999157 5:-0.97794 6:-0.0716838 7:-0.999973 8:-0.999814 9:-0.12371 10:0.0271399 11:-0.650794 12:0.200721 13:-0.171591 14:-0.533553 15:-0.0978979 16:0.51717 17:-0.267448 18:-0.00639907 
-64 -61.57752236596804 -0 -64 1:-0.886562 2:0.423367 3:0.18123 4:-0.903597 5:-0.299933 6:0.155367 7:-0.988084 8:-0.794976 9:0.00626911 10:-0.307933 11:-0.490969 12:0.0420673 13:-0.437014 14:-0.311331 15:-0.157958 16:-0.208117 17:-0.0988275 18:-0.0122164 
-64 -64 -64 -14.23875906314175 1:-0.884856 2:0.412644 3:0.0685999 4:-0.904921 5:-0.327735 6:0.11503 7:-0.98799 8:-0.794386 9:-0.0927784 10:-0.305846 11:-0.477833 12:-0.183894 13:-0.432867 14:-0.30473 15:-0.117117 16:-0.203954 17:-0.0943607 18:-0.0936591 
-64 -0 -0 -64 1:-0.959662 2:-0.9226 3:-0.99633 4:-0.928341 5:-0.837135 6:-0.987974 7:-0.989828 8:-0.932164 9:-0.993532 10:-0.73904 11:-0.654078 12:-0.456731 13:-0.757387 14:-0.70407 15:-0.181982 16:-0.629553 17:-0.592406 18:-0.415939 
-0 -0 -0 -64 1:-0.940704 2:-0.449551 3:-0.177515 4:-0.907973 5:-0.124312 6:0.645881 7:-0.993598 8:-0.830257 9:0.310341 10:-0.364301 11:-0.216201 12:0.0564904 13:-0.33126 14:-0.218922 15:0.0834835 16:-0.325702 17:-0.226131 18:-0.0250145 
-64 -64 -0 -0 1:-0.884185 2:-0.225307 3:-0.131794 4:-0.79705 5:0.340998 6:0.926668 7:-0.98026 8:-0.701916 9:0.366008 10:-0.409186 11:-0.224959 12:0.0576923 13:-0.426646 14:-0.259626 15:0.0546547 16:-0.349636 17:-0.238414 18:-0.0133799 
-64 -64 -0 -0 1:-0.882388 2:-0.219755 3:-0.21033 4:-0.79581 5:0.343518 6:0.867056 7:-0.979949 8:-0.690899 9:0.36236 10:-0.397704 11:-0.203065 12:-0.159856 13:-0.422499 14:-0.256326 15:-0.0306306 16:-0.33923 17:-0.231714 18:-0.0180337 
-64 -64 -0 -0 1:-0.987954 2:-0.868979 3:-0.691487 4:-0.990694 5:-0.910724 6:-0.795456 7:-0.999144 8:-0.979917 9:-0.837903 10:-0.824635 11:-0.798577 12:-0.713942 13:-0.885951 14:-0.89989 15:-0.891892 16:-0.815817 17:-0.821329 18:-0.763816 
-64 -64 -0 -0 1:-0.980885 2:-0.892795 3:-0.736122 4:-0.992075 5:-0.927169 6:-0.793636 7:-0.999275 8:-0.985506 9:-0.84612 10:-0.916493 11:-0.795293 12:-0.733173 13:-0.877657 14:-0.870187 15:-0.846246 16:-0.824142 17:-0.825796 18:-0.714951 
-64 -0 -64 -64 1:-0.999777 2:-0.995957 3:-0.909878 4:-0.999781 5:-0.996427 6:-0.917028 7:-0.999981 8:-0.999827 9:-0.934434 10:-0.692067 11:-0.818281 12:-0.850962 13:-0.803007 14:-0.918592 15:-0.945946 16:0.108221 17:-0.708543 18:-0.894124 
-64 -64 -0 -0 1:-0.963027 2:-0.802314 3:-0.64491 4:-0.98236 5:-0.873379 6:-0.782484 7:-0.996619 8:-0.963006 9:-0.834029 10:-0.919624 11:-0.828134 12:-0.727163 13:-0.906687 14:-0.892189 15:-0.878679 16:-0.898023 17:-0.840313 18:-0.761489 
-64 -64 -0 -0 1:-0.95959 2:-0.79392 3:-0.645336 4:-0.979101 5:-0.867603 6:-0.783097 7:-0.995112 8:-0.959046 9:-0.833807 10:-0.887265 11:-0.811713 12:-0.725962 13:-0.878694 14:-0.880088 15:-0.878679 16:-0.83871 17:-0.805695 18:-0.761489 
-0 -0 -37.454254263197 -0 1:-0.999955 2:-0.999534 3:-0.960996 4:-0.999945 5:-0.999508 6:-0.947226 7:-0.999983 8:-0.999972 9:-0.994021 10:-0.00104384 11:-0.27422 12:-0.277644 13:-0.0585796 14:-0.29923 15:-0.362162 16:0.491155 17:0.0809604 18:-0.406632 
-0 -64 -0 -0 1:-0.999948 2:-0.999543 3:-0.961025 4:-0.999924 5:-0.999507 6:-0.94688 7:-0.999836 8:-0.999955 9:-0.994006 10:-0.216075 11:-0.243569 12:-0.294471 13:-0.429756 14:-0.289329 15:-0.363363 16:-0.941727 17:-0.457286 18:-0.411286 
-64 -64 -0 -0 1:-0.95098 2:-0.74284 3:-0.722066 4:-0.943573 5:-0.697913 6:-0.609363 7:-0.984684 8:-0.881734 9:-0.503439 10:-0.679541 11:-0.488779 12:-0.25601 13:-0.693105 14:-0.50385 15:-0.224024 16:-0.772112 17:-0.518705 18:-0.329843 
-64 -64 -0 -0 1:-0.949517 2:-0.740478 3:-0.720274 4:-0.943301 5:-0.696943 6:-0.611461 7:-0.984462 8:-0.875589 9:-0.465514 10:-0.674322 11:-0.477833 12:-0.259615 13:-0.688958 14:-0.49725 15:-0.236036 16:-0.768991 17:-0.497487 18:-0.325189 
-0 -0 -0 -22.08335324185305 1:-0.993154 2:-0.932642 3:-0.0727052 4:-0.992324 5:-0.914959 6:0.408204 7:-0.999722 8:-0.991305 9:-0.61523 10:-0.807933 11:-0.743842 12:-0.456731 13:-0.831001 14:-0.784378 15:-0.441441 16:-0.763788 17:-0.906198 18:-0.372891 
-0 -0 -0 -4.270713218819863 1:-0.999878 2:-0.997899 3:-0.811337 4:-0.999846 5:-0.998417 6:-0.828693 7:-0.999985 8:-0.999975 9:-0.993312 10:-0.292276 11:-0.584018 12:-0.533654 13:-0.266978 14:-0.29703 15:-0.357357 16:0.746098 17:0.374651 18:-0.383362 
-0 -13.48612775490594 -0 -0.7815881388539655 1:-0.998043 2:-0.974668 3:-0.0549772 4:-0.996379 5:-0.972839 6:0.382699 7:-0.999468 8:-0.998523 9:-0.616922 10:-0.721294 11:-0.621237 12:-0.477163 13:-0.748056 14:-0.553355 15:-0.431832 16:-0.905307 17:-0.841429 18:-0.368237 
-64 -64 -39.48877758425834 -64 1:-0.880356 2:-0.391424 3:0.0362947 4:-0.81766 5:0.031512 6:0.503781 7:-0.990475 8:-0.897864 9:-0.5461 10:-0.60334 11:-0.488779 12:-0.442308 13:-0.689995 14:-0.535754 15:-0.472673 16:-0.569199 17:-0.467337 18:-0.304247 
-0 -0 -7.309492203576736 -0 1:-1 2:-0.999997 3:-1 4:-1 5:-1 6:-1 7:-0.999993 8:-0.999993 9:-0.999993 10:0.22547 11:0.142857 12:-0.180288 13:0.166407 14:0.0836084 15:-0.302102 16:0.00312175 17:0.343384 18:0.190227 
-0 -64 -0 -0 1:-0.97728 2:-0.887161 3:-0.899861 4:-0.971575 5:-0.831656 6:-0.80006 7:-0.995323 8:-0.948959 9:-0.848506 10:-0.724426 11:-0.627805 12:-0.411058 13:-0.70451 14:-0.627063 15:-0.529129 16:-0.721124 17:-0.639308 18:-0.526469 
-0 -64 -0 -64 1:-0.984929 2:-0.907286 3:-0.89641 4:-0.983342 5:-0.874704 6:-0.797278 7:-0.997988 8:-0.966846 9:-0.830156 10:-0.670146 11:-0.578544 12:-0.397837 13:-0.634007 14:-0.580858 15:-0.521922 16:-0.639958 17:-0.523171 18:-0.470622 
-0 -64 -64 -0 1:-0.977249 2:-0.880327 3:-0.898767 4:-0.971354 5:-0.829714 6:-0.797657 7:-0.995267 8:-0.947706 9:-0.833694 10:-0.713987 11:-0.616858 12:-0.444712 13:-0.699326 14:-0.618262 15:-0.521922 16:-0.719043 17:-0.641541 18:-0.512507 
-0 -64 -0 -64 1:-0.97726 2:-0.880572 3:-0.897667 4:-0.971533 5:-0.829748 6:-0.796943 7:-0.995295 8:-0.947717 9:-0.836605 10:-0.712944 11:-0.614669 12:-0.397837 13:-0.697252 14:-0.616062 15:-0.523123 16:-0.71488 17:-0.632607 18:-0.481094 
-64 -0 -0 -64 1:-0.998378 2:-0.985012 3:-0.99885 4:-0.998803 5:-0.988885 6:-0.999187 7:-0.999868 8:-0.996458 9:-0.997372 10:-0.822547 11:-0.853311 12:-0.647837 13:-0.838258 14:-0.845985 15:-0.550751 16:-0.64308 17:-0.829146 18:-0.762653 
-0 -0 -0 -64 1:-0.974391 2:-0.773446 3:-0.603801 4:-0.985835 5:-0.863841 6:-0.693439 7:-0.998207 8:-0.959568 9:-0.646306 10:-0.464509 11:-0.393541 12:-0.195913 13:-0.639191 14:-0.543454 15:-0.431832 16:-0.526535 17:-0.474037 18:-0.341478 
-0 -0 -0 -64 1:-0.975392 2:-0.77751 3:-0.605624 4:-0.985681 5:-0.869641 6:-0.716686 7:-0.998082 8:-0.95331 9:-0.689534 10:-0.440501 11:-0.366174 12:-0.189904 13:-0.645412 14:-0.567657 15:-0.382583 16:-0.493236 17:-0.400335 18:-0.367074 
-0 -64 -0 -64 1:-0.950884 2:-0.730554 3:-0.599063 4:-0.970933 5:-0.844291 6:-0.694272 7:-0.993122 8:-0.926314 9:-0.640576 10:-0.249478 11:-0.16913 12:-0.1875 13:-0.537584 14:-0.454345 15:-0.401802 16:-0.463059 17:-0.20603 18:-0.291449 
-0 -64 -0 -64 1:-0.954512 2:-0.707294 3:-0.599134 4:-0.974056 5:-0.82278 6:-0.682141 7:-0.993202 8:-0.918008 9:-0.636077 10:-0.480167 11:-0.353038 12:-0.189904 13:-0.660964 14:-0.563256 15:-0.38018 16:-0.59001 17:-0.429369 18:-0.303083 
-0 -64 -0 -15.92792113782706 1:-0.99104 2:-0.922756 3:-0.802399 4:-0.993993 5:-0.948191 6:-0.79964 7:-0.998962 8:-0.976273 9:-0.852532 10:-0.727557 11:-0.696771 12:-0.700721 13:-0.641265 14:-0.59736 15:-0.598799 16:-0.705515 17:-0.72976 18:-0.667248 
-0 -64 -64 -64 1:-0.985758 2:-0.902955 3:-0.800507 4:-0.987534 5:-0.921936 6:-0.792721 7:-0.99729 8:-0.965894 9:-0.841923 10:-0.69833 11:-0.689108 12:-0.697115 13:-0.668222 14:-0.590759 15:-0.6 16:-0.667014 17:-0.711893 18:-0.656777 
-0 -64 -0 -64 1:-0.988125 2:-0.914395 3:-0.800634 4:-0.990769 5:-0.939641 6:-0.793667 7:-0.998113 8:-0.968711 9:-0.845321 10:-0.722338 11:-0.681445 12:-0.692308 13:-0.688958 14:-0.60396 15:-0.59039 16:-0.709677 17:-0.73646 18:-0.652123 
-0 -0 -64 -0 1:-0.999825 2:-0.996845 3:-0.803007 4:-0.999839 5:-0.996635 6:-0.806595 7:-0.999981 8:-0.999947 9:-0.861781 10:-0.501044 11:-0.670498 12:-0.701923 13:-0.411094 14:-0.689769 15:-0.619219 16:0.633715 17:-0.325516 18:-0.660268 
-0 -0 -0 -53.29931539978288 1:-0.999997 2:-0.999968 3:-0.999334 4:-0.999991 5:-0.999968 6:-0.99858 7:-0.999991 8:-0.999987 9:-0.999976 10:0.271399 11:-0.186645 12:-0.623798 13:0.353033 14:0.0979098 15:-0.423423 16:0.170656 17:0.623674 18:0.529959 
-64 -64 -0 -0 1:-0.988093 2:-0.9233 3:-0.853126 4:-0.995479 5:-0.952887 6:-0.883512 7:-0.99838 8:-0.980442 9:-0.902909 10:-0.813152 11:-0.735085 12:-0.655048 13:-0.820632 14:-0.779978 15:-0.614414 16:-0.89282 17:-0.795645 18:-0.6847 
-64 -64 -0 -0 1:-0.984614 2:-0.914829 3:-0.853047 4:-0.994452 5:-0.953284 6:-0.883705 7:-0.997626 8:-0.975745 9:-0.891984 10:-0.764092 11:-0.701149 12:-0.65625 13:-0.785381 14:-0.764576 15:-0.607207 16:-0.849116 17:-0.74316 18:-0.661431 
-0 -0 -0 -64 1:-0.999732 2:-0.995723 3:-0.720817 4:-0.99954 5:-0.991223 6:-0.478848 7:-0.999985 8:-0.999962 9:-0.898493 10:-0.606472 11:-0.691297 12:-0.715144 13:-0.749093 14:-0.861386 15:-0.855856 16:0.716961 17:0.0642099 18:-0.636998 
-64 -0 -0 -0 1:-0.999 2:-0.998977 3:-0.998568 4:-0.997959 5:-0.998174 6:-0.932963 7:-0.999766 8:-0.999277 9:-0.999853 10:-1 11:-0.980296 12:-0.44351 13:-1 14:-0.957096 15:-0.992793 16:-0.921956 17:-0.977666 18:-0.458988 
-64 -64 -12.80869236763311 -64 1:-0.979771 2:-0.783104 3:-0.709282 4:-0.967799 5:-0.702475 6:-0.469916 7:-0.999343 8:-0.983753 9:-0.846866 10:-0.826722 11:-0.801861 12:-0.663462 13:-0.895283 14:-0.886689 15:-0.866667 16:-0.721124 17:-0.774428 18:-0.570681 
-64 -64 -0 -64 1:-0.972705 2:-0.769596 3:-0.709062 4:-0.964145 5:-0.701331 6:-0.472885 7:-0.998448 8:-0.976463 9:-0.841172 10:-0.786013 11:-0.756979 12:-0.655048 13:-0.852773 14:-0.865787 15:-0.853453 16:-0.740895 17:-0.672808 18:-0.566027 
-0 -0 -0 -48.89764085750974 1:-0.999705 2:-0.995404 3:-0.707486 4:-0.999532 5:-0.991101 6:-0.476491 7:-0.999985 8:-0.999965 9:-0.873736 10:-0.569937 11:-0.650794 12:-0.667067 13:-0.75013 14:-0.861386 15:-0.854655 16:0.720083 17:0.146845 18:-0.634671 
-64 -64 -0 -0 1:-0.963489 2:-0.922544 3:-0.996511 4:-0.985007 5:-0.974578 6:-0.996679 7:-0.995814 8:-0.978299 9:-0.997457 10:-0.805846 11:-0.756979 12:-0.438702 13:-0.896319 14:-0.867987 15:-0.758559 16:-0.82102 17:-0.783361 18:-0.667248 
-64 -64 -0 -0 1:-0.916039 2:-0.905653 3:-0.201009 4:-0.97976 5:-0.973104 6:-0.748022 7:-0.983153 8:-0.972321 9:-0.819766 10:-0.94572 11:-0.788725 12:-0.61899 13:-0.976153 14:-0.905391 15:-0.806607 16:-0.952133 17:-0.918481 18:-0.690518 
-64 -64 -0 -31.57097260978018 1:-0.908889 2:-0.576933 3:-0.191127 4:-0.973683 5:-0.865579 6:-0.718445 7:-0.993381 8:-0.935083 9:-0.817111 10:-0.558455 11:-0.489874 12:-0.496394 13:-0.804044 14:-0.759076 15:-0.793393 16:-0.675338 17:-0.571189 18:-0.581152 
-64 -0 -0 -0 1:-0.974916 2:-0.807387 3:-0.229268 4:-0.992484 5:-0.927631 6:-0.718414 7:-0.999195 8:-0.980619 9:-0.765307 10:-0.805846 11:-0.761357 12:-0.508413 13:-0.878694 14:-0.873487 15:-0.787387 16:-0.779396 17:-0.841429 18:-0.569517 
-0 -0 -33.24632327984588 -64 1:-0.999462 2:-0.986882 3:-0.183621 4:-0.999822 5:-0.996348 6:-0.746676 7:-0.999985 8:-0.999936 9:-0.777758 10:-0.497912 11:-0.584018 12:-0.536058 13:-0.525143 14:-0.716172 15:-0.78018 16:0.524454 17:-0.31435 18:-0.555556 
-0 -0 -0.7974272146302932 -64 1:-0.99947 2:-0.983169 3:-0.225779 4:-0.997555 5:-0.945058 6:-0.139409 7:-0.99998 8:-0.999879 9:-0.690191 10:-0.542797 11:-0.69896 12:-0.576923 13:-0.936755 14:-0.929593 15:-0.614414 16:0.292404 17:-0.520938 18:-0.605585 
-0 -21.11965556822482 -0 -64 1:-0.97402 2:-0.615327 3:-0.0558225 4:-0.977768 5:-0.719721 6:0.173013 7:-0.998992 8:-0.967397 9:-0.634324 10:-0.784969 11:-0.726327 12:-0.550481 13:-0.737688 14:-0.710671 15:-0.622823 16:-0.702393 17:-0.71636 18:-0.592787 
-0 -0 -9.871900271639388 -0 1:-0.999701 2:-0.991128 3:-0.43826 4:-0.999759 5:-0.990356 6:-0.501593 7:-0.999984 8:-0.999939 9:-0.875791 10:-0.64405 11:-0.809524 12:-0.722356 13:-0.636081 14:-0.853685 15:-0.765766 16:0.397503 17:-0.389168 18:-0.88598 
-64 -64 -0 -0 1:-0.92657 2:-0.316951 3:0.247184 4:-0.92435 5:-0.468736 6:0.75567 7:-0.995186 8:-0.929153 9:-0.613559 10:-0.823591 11:-0.720854 12:-0.549279 13:-0.820632 14:-0.732673 15:-0.693694 16:-0.73153 17:-0.676159 18:-0.589296 
-64 -64 -0 -0 1:-0.924848 2:-0.317216 3:0.250097 4:-0.924137 5:-0.469252 6:0.755188 7:-0.995193 8:-0.929858 9:-0.66038 10:-0.826722 11:-0.723043 12:-0.554087 13:-0.819596 14:-0.733773 15:-0.693694 16:-0.73153 17:-0.680625 18:-0.638162 
-0 -0 -0 -64 1:-0.999779 2:-0.994026 3:-0.796082 4:-0.99987 5:-0.99852 6:-0.894259 7:-0.999987 8:-0.999961 9:-0.944675 10:-0.590814 11:-0.851122 12:-0.71875 13:-0.609124 14:-0.760176 15:-0.824625 16:0.468262 17:-0.220547 18:-0.778941 
