svm_type nu_svr
kernel_type rbf
gamma 0.0555556
nr_class 2
total_sv 109
rho -76.053
probA 8.25151
SV
27.55940746037062 1:0.134624 2:0.957323 3:0.170815 4:-0.0582075 5:0.0492571 6:0.184942 7:-0.236175 8:0.231553 9:0.42528 10:0.884058 11:0.305832 12:0.965986 13:0.857391 14:0.874439 15:0.588506 16:0.120555 17:0.842105 18:0.944828 
512 1:-0.674684 2:-0.300018 3:-0.120209 4:-0.680143 5:-0.475207 6:0.201521 7:-0.994004 8:-0.984226 9:-0.665951 10:-0.634783 11:-0.524893 12:0.0702948 13:-0.770435 14:-0.698057 15:-0.604598 16:-0.503903 17:-0.591479 18:-0.496552 
-482.012066781728 1:-0.255817 2:0.303482 3:0.634172 4:-0.683346 5:-0.603968 6:-0.019885 7:-0.838932 8:-0.82131 9:-0.181093 10:-0.455072 11:-0.260313 12:0.761905 13:-0.697391 14:-0.566517 15:-0.181609 16:-0.953166 17:-0.794486 18:-0.22069 
512 1:-0.207433 2:0.0168829 3:-0.0357325 4:-0.452321 5:-0.312883 6:0.288911 7:-0.781366 8:-0.717229 9:-0.474324 10:-0.408696 11:-0.211949 12:0.235828 13:-0.551304 14:-0.497758 15:-0.514943 16:-0.717259 17:-0.58396 18:-0.236782 
212.4793172580908 1:0.361944 2:-0.134765 3:-0.129748 4:-0.387243 5:-0.602039 6:-0.683075 7:0.534002 8:0.210494 9:-0.0352915 10:-0.0492754 11:0.288762 12:0.31746 13:0.116522 14:0.267564 15:0.526437 16:-0.575022 17:-0.085213 18:0.48046 
512 1:-0.648444 2:-0.725569 3:-0.763954 4:-0.60265 5:-0.648551 6:-0.641307 7:-0.472756 8:-0.573918 9:-0.283591 10:-0.504348 11:-0.174964 12:0.283447 13:-0.46087 14:-0.192825 15:0.250575 16:-0.875108 17:-0.566416 18:0.222989 
-233.337559710674 1:0.147879 2:-0.175625 3:-0.11242 4:-0.600143 5:-0.709211 6:-0.679355 7:-0.184106 8:-0.126463 9:-0.0510197 10:-0.373913 11:-0.0725462 12:0.260771 13:-0.457391 14:-0.375187 15:0.443678 16:-0.762359 17:-0.521303 18:0.243678 
-153.6937704531505 1:-0.0486532 2:-0.387327 3:-0.199261 4:-0.739329 5:-0.802879 6:-0.729233 7:-0.56481 8:-0.575653 9:-0.657331 10:0.24058 11:0.342817 12:-0.0272109 13:-0.314783 14:-0.351271 15:-0.694253 16:-0.417173 17:-0.0526316 18:-0.170115 
-91.8067172941801 1:-0.687792 2:-0.58478 3:-0.45841 4:-0.673826 5:-0.57822 6:-0.434222 7:-0.784387 8:-0.54652 9:-0.0260994 10:-0.191304 11:0.140825 12:0.544218 13:-0.133913 14:0.00747384 15:0.245977 16:-0.529922 17:-0.175439 18:0.349425 
11.59332680630975 1:-0.574417 2:-0.696524 3:-0.753931 4:-0.5205 5:-0.601511 6:-0.62268 7:-0.254918 8:-0.443983 9:-0.239042 10:-0.417391 11:-0.0583215 12:0.371882 13:-0.346087 14:-0.0612855 15:0.365517 16:-0.807459 17:-0.418546 18:0.342529 
-13.4679260414847 1:0.534975 2:0.352681 3:1 4:-0.612259 5:-0.581904 6:0.0266467 7:-0.808048 8:-0.787422 9:-0.774687 10:0.284058 11:0.590327 12:0.478458 13:-0.526957 14:-0.560538 15:-0.705747 16:-0.306158 17:0.132832 18:0.227586 
123.1565675459785 1:-0.814101 2:-0.714457 3:-0.374399 4:-0.250494 5:-0.0144422 6:0.691386 7:-0.960238 8:-0.940979 9:0.261276 10:-0.773913 11:-0.633001 12:0.142857 13:-0.533913 14:-0.267564 15:0.462069 16:-0.828274 17:-0.558897 18:0.133333 
-512 1:-0.61748 2:-0.782567 3:-0.88668 4:-0.956927 5:-0.964434 6:-0.982728 7:-0.900067 8:-0.905425 9:-0.921689 10:-0.252174 11:-0.00711238 12:0.154195 13:-0.645217 14:-0.847534 15:-0.542529 16:-0.571552 17:-0.52381 18:-0.149425 
512 1:-0.920229 2:-0.918518 3:-0.857572 4:-0.836993 5:-0.875379 6:-0.78682 7:-0.898476 8:-0.893996 9:-0.895646 10:-0.889855 11:-0.786629 12:-0.417234 13:-1 14:-0.877429 15:-0.652874 16:-1 17:-1 18:-0.616092 
425.5507463101794 1:-0.643036 2:-0.729693 3:-0.827194 4:-0.736931 5:-0.777896 6:-0.778316 7:-0.672491 8:-0.699069 9:-0.738764 10:-0.35942 11:-0.0668563 12:0.231293 13:-0.565217 14:-0.536622 15:-0.434483 16:-0.826539 17:-0.684211 18:-0.436782 
512 1:-0.538356 2:-0.698895 3:-0.646043 4:-0.736663 5:-0.739066 6:-0.632661 7:-0.665218 8:-0.623092 9:-0.505873 10:-0.863768 11:-0.638691 12:-0.222222 13:-0.673043 14:-0.512706 15:0.0597701 16:-0.921943 17:-0.804511 18:-0.211494 
353.1581516348725 1:-0.136721 2:-0.0765907 3:-0.160783 4:0.682174 5:0.850351 6:1 7:-0.233675 8:0.34791 9:0.995032 10:0.156522 11:0.561878 12:0.952381 13:0.415652 14:0.638266 15:0.972414 16:-0.380746 17:0.0877193 18:0.822989 
512 1:-0.924844 2:-0.908074 3:-0.846117 4:-0.934223 5:-0.935041 6:-0.824659 7:-0.947202 8:-0.887476 9:-0.828716 10:-0.753623 11:-0.675676 12:-0.519274 13:-0.652174 14:-0.54858 15:-0.425287 16:-0.859497 17:-0.902256 18:-0.535632 
512 1:-0.59676 2:-0.654591 3:-0.220844 4:-0.90604 5:-0.890829 6:-0.778746 7:-0.918988 8:-0.945662 9:-0.77141 10:-0.64058 11:-0.391181 12:-0.253968 13:-0.968696 14:-0.961136 15:-0.818391 16:-0.949696 17:-0.807018 18:-0.482759 
512 1:-0.660598 2:-0.278961 3:-0.139643 4:-0.649667 5:-0.52389 6:-0.0486679 7:-0.993196 8:-0.983127 9:-0.741708 10:-0.669565 11:-0.556188 12:0.0453515 13:-0.843478 14:-0.724963 15:-0.636782 16:-0.564614 17:-0.611529 18:-0.468966 
322.4554029561794 1:-0.68788 2:-0.628846 3:-0.339471 4:-0.606633 5:-0.152974 6:0.294212 7:-0.96532 8:-0.941832 9:-0.594127 10:-0.843478 11:-0.652916 12:-0.226757 13:-0.756522 14:-0.626308 15:-0.174713 16:-0.899393 17:-0.909774 18:-0.618391 
-512 1:-0.832919 2:-0.875121 3:-0.889918 4:-0.945406 5:-0.926344 6:-0.91761 7:-0.862357 8:-0.852279 9:-0.868347 10:-0.57971 11:-0.473684 12:-0.358277 13:-0.565217 14:-0.55157 15:-0.358621 16:-0.830009 17:-0.704261 18:-0.43908 
512 1:-0.74218 2:-0.782785 3:-0.834359 4:-0.787398 5:-0.816958 6:-0.788453 7:-0.815322 8:-0.803393 9:-0.775882 10:-0.626087 11:-0.428165 12:0.0680272 13:-0.721739 14:-0.68012 15:-0.510345 16:-0.880312 17:-0.804511 18:-0.57931 
-512 1:-0.598958 2:-0.714063 3:-0.674281 4:-0.793768 5:-0.80722 6:-0.811544 7:-0.71196 8:-0.737388 9:-0.783139 10:-0.672464 11:-0.519203 12:-0.492063 13:-0.561739 14:-0.67713 15:-0.83908 16:-0.666956 17:-0.551378 18:-0.533333 
-187.2333200708204 1:-0.806666 2:-0.816815 3:-0.865014 4:-0.792094 5:-0.7003 6:-0.635796 7:-0.824803 8:-0.831123 9:-0.83475 10:-0.295652 11:-0.311522 12:-0.244898 13:-0.370435 14:-0.61435 15:-0.577011 16:-0.413703 17:-0.45614 18:-0.542529 
-512 1:-0.840927 2:-0.7283 3:-0.579876 4:-0.86985 5:-0.787996 6:-0.553059 7:-0.863907 8:-0.733179 9:-0.414948 10:-0.773913 11:-0.749644 12:-0.560091 13:-0.732174 14:-0.748879 15:-0.703448 16:-0.857762 17:-0.827068 18:-0.662069 
-512 1:-0.809816 2:-0.817269 3:-0.864766 4:-0.795327 5:-0.70115 6:-0.635457 7:-0.839661 8:-0.833702 9:-0.83467 10:-0.414493 11:-0.348506 12:-0.244898 13:-0.485217 14:-0.635277 15:-0.581609 16:-0.60451 17:-0.508772 18:-0.542529 
-318.9915241817676 1:0.493957 2:0.339039 3:0.989565 4:-0.654994 5:-0.607776 6:-0.00326111 7:-0.856826 8:-0.858627 9:-0.782102 10:0.101449 11:0.45377 12:0.494331 13:-0.766957 14:-0.748879 15:-0.717241 16:-0.462272 17:-0.203008 18:0.0574713 
-512 1:-0.850859 2:-0.883758 3:-0.89057 4:-0.947964 5:-0.934484 6:-0.920931 7:-0.882178 8:-0.881086 9:-0.874926 10:-0.626087 11:-0.522048 12:-0.399093 13:-0.575652 14:-0.599402 15:-0.37931 16:-0.824805 17:-0.711779 18:-0.471264 
-99.83018734193435 1:-0.552397 2:-0.766082 3:-0.892738 4:-0.925942 5:-0.943079 6:-0.978609 7:-0.820916 8:-0.834008 9:-0.912386 10:0.026087 11:0.294452 12:0.328798 13:-0.0991304 14:-0.243647 15:-0.425287 16:-0.373807 17:-0.115288 18:0.0873563 
512 1:-0.37728 2:-0.409871 3:-0.157543 4:-0.824923 5:-0.812085 6:-0.722282 7:-0.735188 8:-0.650657 9:-0.188332 10:-0.550725 11:-0.283073 12:0.0793651 13:-0.676522 14:-0.638266 15:0.149425 16:-0.91327 17:-0.799499 18:0.0344828 
512 1:-0.57457 2:-0.568758 3:-0.605001 4:-0.875887 5:-0.883401 6:-0.852437 7:-0.865909 8:-0.808988 9:-0.650517 10:-0.597101 11:-0.43101 12:-0.272109 13:-0.756522 14:-0.766816 15:-0.712644 16:-0.838682 17:-0.691729 18:-0.445977 
512 1:-0.852616 2:-0.867376 3:-0.837851 4:-0.873551 5:-0.887962 6:-0.817389 7:-0.803057 8:-0.755995 9:-0.795114 10:-0.214493 11:-0.217639 12:-0.435374 13:0.0191304 14:0.0433483 15:-0.252874 16:-0.507372 17:-0.443609 18:-0.347126 
103.9353395407136 1:-0.415574 2:-0.420084 3:-0.391818 4:-0.42248 5:-0.447808 6:-0.357643 7:-0.248102 8:-0.0142086 9:0.370602 10:-0.0695652 11:0.192034 12:0.419501 13:-0.0226087 14:0.100149 15:0.262069 16:-0.58196 17:-0.145363 18:0.34023 
512 1:-0.698359 2:-0.687033 3:-0.633179 4:-0.817972 5:-0.807178 6:-0.72234 7:-0.789444 8:-0.729622 9:-0.541366 10:-0.243478 11:0.0611664 12:0.421769 13:-0.509565 14:-0.446936 15:0.0137931 16:-0.764094 17:-0.548872 18:0.11954 
-270.8340136777313 1:-0.225204 2:-0.525862 3:-0.606377 4:-0.432151 5:-0.503978 6:-0.585959 7:0.00435742 8:-0.0515396 9:-0.364278 10:-0.4 11:-0.0213371 12:0.0204082 13:0.193043 14:0.414051 15:0.402299 16:-0.60451 17:-0.16792 18:0.243678 
-512 1:-0.923658 2:-0.879509 3:-0.957065 4:-0.944318 5:-0.909825 6:-0.941452 7:-0.927647 8:-0.830895 9:-0.806407 10:-0.973913 11:-1 12:-0.884354 13:-0.777391 14:-0.829596 15:-0.650575 16:-0.928881 17:-1 18:-0.882759 
431.1533971056048 1:-0.38774 2:-0.138829 3:0.465908 4:-0.594229 5:-0.459743 6:0.00576632 7:-0.954063 8:-0.921084 9:0.286765 10:-0.565217 11:-0.254623 12:0.258503 13:-0.735652 14:-0.515695 15:-0.321839 16:-0.857762 17:-0.548872 18:-0.163218 
36.51665556408937 1:-0.577942 2:-0.641308 3:-0.220782 4:-0.886041 5:-0.888326 6:-0.778576 7:-0.910817 8:-0.927001 9:-0.770182 10:-0.611594 11:-0.359886 12:-0.251701 13:-0.975652 14:-0.958146 15:-0.818391 16:-0.930616 17:-0.804511 18:-0.478161 
512 1:-0.538831 2:-0.698141 3:-0.825081 4:-0.698361 5:-0.753779 6:-0.77531 7:-0.565574 8:-0.614305 9:-0.73316 10:0.0753623 11:0.189189 12:0.297052 13:-0.269565 14:-0.258595 15:-0.372414 16:-0.614918 17:-0.348371 18:-0.310345 
-512 1:-0.82643 2:-0.84393 3:-0.745757 4:-0.821351 5:-0.839643 6:-0.690373 7:-0.756956 8:-0.780914 9:-0.673016 10:-0.721739 11:-0.519203 12:-0.0975057 13:-0.711304 14:-0.533632 15:-0.156322 16:-0.928881 17:-0.814536 18:-0.374713 
-512 1:-0.929256 2:-0.883867 3:-0.957901 4:-0.949644 5:-0.916539 6:-0.941762 7:-0.936391 8:-0.853647 9:-0.807318 10:-1 11:-1 12:-0.907029 13:-0.857391 14:-0.895366 15:-0.694253 16:-0.967042 17:-1 18:-0.910345 
512 1:-0.921884 2:-0.901819 3:-0.844788 4:-0.932331 5:-0.930899 6:-0.821575 7:-0.945255 8:-0.879886 9:-0.828345 10:-0.736232 11:-0.658606 12:-0.505669 13:-0.631304 14:-0.521674 15:-0.395402 16:-0.854293 17:-0.897243 18:-0.542529 
-512 1:-0.919319 2:-0.876031 3:-0.956541 4:-0.940345 5:-0.903553 6:-0.94076 7:-0.920766 8:-0.816657 9:-0.802392 10:-0.924638 11:-0.991465 12:-0.866213 13:-0.68 14:-0.754858 15:-0.634483 16:-0.878578 17:-0.949875 18:-0.843678 
480.3174402182484 1:-0.321416 2:-0.461346 3:-0.611999 4:-0.748441 5:-0.810069 6:-0.847729 7:-0.488393 8:-0.503426 9:-0.608561 10:-0.205797 11:-0.135135 12:-0.179138 13:-0.182609 14:-0.303438 15:-0.606897 16:-0.45013 17:-0.220551 18:-0.268966 
512 1:-0.688682 2:-0.740516 3:-0.763943 4:-0.609514 5:-0.651272 6:-0.637675 7:-0.539694 8:-0.602093 9:-0.285548 10:-0.53913 11:-0.237553 12:0.281179 13:-0.485217 14:-0.22272 15:0.257471 16:-0.888985 17:-0.588972 18:0.213793 
-512 1:-0.827707 2:-0.715735 3:-0.580449 4:-0.854538 5:-0.775972 6:-0.552654 7:-0.809263 8:-0.65417 9:-0.411796 10:-0.605797 11:-0.610242 12:-0.54195 13:-0.478261 14:-0.563528 15:-0.671264 16:-0.633998 17:-0.611529 18:-0.609195 
249.5949579485719 1:-0.956418 2:-0.899868 3:-0.532537 4:-0.437989 5:-0.202006 6:0.615179 7:-0.984559 8:-0.971758 9:-0.401175 10:-0.849275 11:-0.880512 12:-0.181406 13:-0.652174 14:-0.452915 15:0.390805 16:-0.777971 17:-0.676692 18:-0.0850575 
466.67113233424 1:-0.329987 2:-0.143066 3:0.222954 4:-0.373617 5:-0.251837 6:0.830001 7:-0.805812 8:-0.748855 9:-0.494895 10:-0.652174 11:-0.433855 12:-0.176871 13:-0.533913 14:-0.426009 15:-0.498851 16:-0.717259 17:-0.521303 18:-0.23908 
-455.2927562138649 1:1 2:0.676819 3:0.566097 4:0.537712 5:0.199489 6:0.131361 7:0.643503 8:1 9:0.759701 10:0.310145 11:0.607397 12:0.655329 13:0.311304 14:0.207773 15:-0.0804598 16:-0.307892 17:0.085213 18:0.131034 
-512 1:-0.614295 2:-0.719934 3:-0.676918 4:-0.811496 5:-0.81209 6:-0.810909 7:-0.764666 8:-0.766555 9:-0.782939 10:-0.768116 11:-0.556188 12:-0.494331 13:-0.718261 14:-0.736921 15:-0.848276 16:-0.830009 17:-0.66416 18:-0.558621 
512 1:-0.325422 2:-0.462568 3:-0.612218 4:-0.750941 5:-0.811089 6:-0.847982 7:-0.497331 8:-0.509088 9:-0.608816 10:-0.249275 11:-0.15505 12:-0.188209 13:-0.25913 14:-0.339312 15:-0.616092 16:-0.509107 17:-0.270677 18:-0.28046 
-292.6003310303958 1:-0.85928 2:-0.870396 3:-0.760265 4:-0.844255 5:-0.866034 6:-0.700336 7:-0.832798 8:-0.845964 9:-0.706455 10:-0.785507 11:-0.604552 12:-0.142857 13:-0.812174 14:-0.626308 15:-0.22069 16:-0.972246 17:-0.909774 18:-0.42069 
-218.9344928712436 1:-0.815801 2:-0.665086 3:0.203785 4:-0.929843 5:-0.953573 6:-0.689721 7:-0.998488 8:-0.997013 9:-0.94172 10:-0.895652 11:-0.755334 12:-0.410431 13:-1 14:-1 15:-0.993103 16:-0.281873 17:-0.822055 18:-0.742529 
-512 1:-0.403036 2:-0.213342 3:0.195099 4:-0.468947 5:-0.339264 6:0.782775 7:-0.935884 8:-0.905415 9:-0.504026 10:-0.785507 11:-0.544808 12:-0.165533 13:-0.749565 14:-0.587444 15:-0.487356 16:-0.856028 17:-0.749373 18:-0.298851 
99.3790701004305 1:-0.544682 2:-0.595953 3:-0.630424 4:-0.745411 5:-0.743503 6:-0.704608 7:-0.559353 8:-0.500924 9:-0.494783 10:0.368116 11:0.661451 12:0.54195 13:0.0156522 14:0.0732436 15:0.135632 16:-0.439722 17:0.120301 18:0.388506 
512 1:-0.965185 2:-0.930862 3:-0.97818 4:-0.988045 5:-0.979549 6:-0.978761 7:-0.990645 8:-0.975449 9:-0.879484 10:-1 11:-1 12:-1 13:-1 14:-1 15:-0.944828 16:-0.878578 17:-1 18:-1 
-512 1:-0.979596 2:-0.970082 3:-0.760134 4:-0.980353 5:-0.970656 6:-0.886604 7:-0.999359 8:-0.999101 9:-0.922208 10:-0.927536 11:-0.849218 12:-0.424036 13:-1 14:-1 15:-0.577011 16:0.901127 17:-0.566416 18:-0.634483 
-512 1:-0.812909 2:-0.81759 3:-0.864588 4:-0.798792 5:-0.701144 6:-0.635022 7:-0.858383 8:-0.837732 9:-0.835102 10:-0.573913 11:-0.422475 12:-0.263039 13:-0.631304 14:-0.674141 15:-0.586207 16:-0.80052 17:-0.671679 18:-0.588506 
20.53428283988412 1:-0.244189 2:0.783855 3:0.18277 4:-0.372218 5:-0.126037 6:0.164145 7:-0.74924 8:-0.513828 9:0.419218 10:0.24058 11:-0.00711238 12:0.965986 13:0.14087 14:0.303438 15:0.514943 16:-0.535126 17:-0.140351 18:0.735632 
512 1:0.347633 2:0.234167 3:0.977383 4:-0.697654 5:-0.64527 6:-0.0353921 7:-0.843615 8:-0.901549 9:-0.806839 10:-0.0521739 11:0.311522 12:0.46712 13:-0.812174 14:-0.829596 15:-0.737931 16:-0.575022 17:-0.185464 18:-0.0321839 
-512 1:-0.812157 2:-0.788221 3:-0.632046 4:-0.892639 5:-0.867996 6:-0.739601 7:-0.916521 8:-0.870205 9:-0.638785 10:-0.66087 11:-0.45377 12:0.333333 13:-0.787826 14:-0.733931 15:-0.149425 16:-0.906331 17:-0.857143 18:-0.250575 
-512 1:-0.274079 2:-0.0543684 3:0.23321 4:-0.281542 5:-0.17336 6:0.85372 7:-0.678629 8:-0.568339 9:-0.462467 10:-0.518841 11:-0.294452 12:-0.154195 13:-0.38087 14:-0.303438 15:-0.498851 16:-0.599306 17:-0.315789 18:-0.193103 
-512 1:-0.603584 2:-0.568773 3:-0.740726 4:-0.364027 5:-0.424307 6:-0.476929 7:-0.865005 8:-0.84818 9:-0.806596 10:-0.721739 11:-0.644381 12:-0.430839 13:-0.777391 14:-0.802691 15:-0.836782 16:-0.776236 17:-0.654135 18:-0.402299 
-512 1:-0.484996 2:-0.641003 3:-0.753459 4:-0.428166 5:-0.551975 6:-0.62703 7:0.0261659 8:-0.208433 9:-0.231645 10:-0.17971 11:0.271693 12:0.399093 13:-0.0295652 14:0.294469 15:0.418391 16:-0.637467 17:-0.0100251 18:0.4 
512 1:-0.993676 2:-0.992018 3:-0.899635 4:-0.958784 5:-0.945569 6:-0.905144 7:-0.996469 8:-0.990052 9:-0.90185 10:-0.872464 11:-0.903272 12:-0.560091 13:-1 14:-1 15:-0.813793 16:-0.666956 17:-1 18:-0.901149 
9.214026968448474 1:-0.704848 2:-0.630235 3:-0.048538 4:-0.0391488 5:-0.0658476 6:0.417775 7:-0.935266 8:-0.940687 9:-0.619445 10:-0.768116 11:-0.581792 12:-0.290249 13:-0.645217 14:-0.518685 15:-0.291954 16:-0.894189 17:-0.681704 18:-0.197701 
512 1:-0.962585 2:-0.929621 3:-0.972321 4:-0.982063 5:-0.971638 6:-0.971596 7:-0.98677 8:-0.960284 9:-0.870309 10:-1 11:-1 12:-1 13:-1 14:-1 15:-0.901149 16:-0.91327 17:-1 18:-1 
-512 1:-0.992795 2:-0.985424 3:-0.707592 4:-0.993552 5:-0.992242 6:-0.714002 7:-0.999408 8:-0.999665 9:-0.809386 10:-0.742029 11:-0.937411 12:-0.764172 13:-0.773913 14:-0.901345 15:-0.875862 16:0.698179 17:-0.263158 18:-0.912644 
-512 1:-0.793564 2:-0.827191 3:-0.74492 4:-0.797743 5:-0.817367 6:-0.691297 7:-0.676736 8:-0.720318 9:-0.667348 10:-0.582609 11:-0.302987 12:-0.0861678 13:-0.544348 14:-0.336323 15:-0.135632 16:-0.856028 17:-0.684211 18:-0.271264 
-431.5857441758851 1:-0.529647 2:-0.373956 3:-0.226229 4:0.18201 5:0.428815 6:0.917024 7:-0.736612 8:-0.495595 9:0.774561 10:-0.147826 11:0.083926 12:0.714286 13:-0.0365217 14:0.28849 15:0.855172 16:-0.71379 17:-0.428571 18:0.657471 
512 1:-0.376637 2:-0.47682 3:-0.61143 4:-0.794585 5:-0.829351 6:-0.849205 7:-0.686272 8:-0.622107 9:-0.610825 10:-0.46087 11:-0.291607 12:-0.206349 13:-0.554783 14:-0.55157 15:-0.655172 16:-0.708586 17:-0.516291 18:-0.36092 
287.7799310841322 1:0.529166 2:0.418585 3:0.561478 4:0.0775131 5:0.00903438 6:0.111426 7:-0.159152 8:0.212837 9:0.665838 10:-0.057971 11:0.311522 12:0.62585 13:-0.0886957 14:0.0313901 15:-0.108046 16:-0.51431 17:-0.200501 18:0.0689655 
-512 1:-0.841386 2:-0.749064 3:-0.510934 4:-0.847778 5:-0.763851 6:-0.500095 7:-0.965136 8:-0.905421 9:-0.238135 10:-0.684058 11:-0.459459 12:0.23356 13:-0.693913 14:-0.539611 15:-0.0390805 16:-0.842151 17:-0.786967 18:-0.0413793 
-490.957297472175 1:-0.942146 2:-0.92078 3:-0.802031 4:-0.921232 5:-0.930539 6:-0.748388 7:-0.981861 8:-0.977684 9:-0.835645 10:-0.956522 11:-0.877667 12:-0.433107 13:-1 14:-0.886398 15:-0.544828 16:-0.941023 17:-1 18:-0.747126 
173.321865248981 1:0.339508 2:0.729539 3:0.696983 4:-0.248709 5:-0.327754 6:0.105133 7:-0.242134 8:-0.209406 9:0.0832417 10:-0.191304 11:0.0469417 12:0.965986 13:-0.408696 14:-0.22272 15:-0.0275862 16:-0.78144 17:-0.483709 18:0.062069 
512 1:-0.992836 2:-0.99154 3:-0.982894 4:-1 5:-0.997978 6:-0.866432 7:-1 8:-1 9:-1 10:-0.997101 11:-1 12:-0.793651 13:-0.0678261 14:-0.775785 15:-0.825287 16:0.743278 17:-0.0225564 18:-0.772414 
-512 1:-0.640357 2:-0.73333 3:-0.677696 4:-0.83307 5:-0.822818 6:-0.812223 7:-0.821074 8:-0.802306 9:-0.790862 10:-0.826087 11:-0.604552 12:-0.501134 13:-0.78087 14:-0.778774 15:-0.852874 16:-0.876843 17:-0.719298 18:-0.574713 
512 1:-0.876828 2:-0.807521 3:-0.30645 4:-0.993647 5:-0.995705 6:-0.904766 7:-0.984026 8:-0.981176 9:-0.844751 10:-0.927536 11:-0.798009 12:-0.240363 13:-0.867826 14:-0.859492 15:-0.583908 16:-0.947962 17:-1 18:-0.381609 
512 1:-0.968724 2:-0.974185 3:-1 4:-0.943028 5:-0.946879 6:-0.919992 7:-0.998082 8:-0.998688 9:-0.996007 10:-1 11:-1 12:-0.773243 13:-1 14:-1 15:-0.905747 16:-0.443192 17:-0.719298 18:-0.894253 
-512 1:-0.809066 2:-0.697534 3:-0.475008 4:-0.806825 5:-0.695572 6:-0.45496 7:-0.924814 8:-0.810356 9:-0.114939 10:-0.536232 11:-0.320057 12:0.408163 13:-0.565217 14:-0.437967 15:0.183908 16:-0.795317 17:-0.684211 18:0.213793 
-512 1:-0.835272 2:-0.828306 3:-0.852674 4:-0.70591 5:-0.784567 6:-0.749704 7:-0.835438 8:-0.758707 9:-0.834493 10:-0.533333 11:-0.334282 12:-0.269841 13:-0.57913 14:-0.372197 15:-0.328736 16:-0.745013 17:-0.654135 18:-0.331034 
-512 1:-0.821143 2:-0.82384 3:-0.866086 4:-0.806273 5:-0.709201 6:-0.63683 7:-0.875596 8:-0.865719 9:-0.836537 10:-0.62029 11:-0.467994 12:-0.281179 13:-0.711304 14:-0.727952 15:-0.6 16:-0.852559 17:-0.766917 18:-0.609195 
-126.6777075305924 1:-0.842949 2:-0.87258 3:-0.935726 4:-0.788032 5:-0.78417 6:-0.826251 7:-0.84638 8:-0.821678 9:-0.793997 10:-0.655072 11:-0.496444 12:0.0226757 13:-0.516522 14:-0.381166 15:-0.197701 16:-0.854293 17:-0.741855 18:-0.234483 
242.7817066014962 1:-1 2:-1 3:-0.893712 4:-0.996918 5:-1 6:-0.940957 7:-0.999749 8:-0.999994 9:-0.959716 10:-0.13913 11:-0.775249 12:-0.843537 13:-0.92 14:-0.919283 15:-0.914943 16:1 17:0.14787 18:-1 
512 1:0.882617 2:0.584577 3:0.563689 4:0.401139 5:0.130089 6:0.118953 7:0.359956 8:0.698682 9:0.753908 10:0.194203 11:0.507824 12:0.659864 13:0.168696 14:0.142003 15:-0.0942529 16:-0.372073 17:0.00250627 18:0.124138 
190.4143659492841 1:-0.691003 2:-0.367819 3:-0.210888 4:-0.637901 5:-0.560558 6:-0.0526892 7:-0.994006 8:-0.982469 9:-0.732585 10:-0.73913 11:-0.618777 12:-0.0702948 13:-0.878261 14:-0.7429 15:-0.636782 16:-0.54033 17:-0.639098 18:-0.475862 
-205.5203826830218 1:-0.865411 2:-0.873586 3:-0.837599 4:-0.884403 5:-0.895346 6:-0.817652 7:-0.837221 8:-0.782157 9:-0.797321 10:-0.365217 11:-0.317212 12:-0.442177 13:-0.14087 14:-0.0881913 15:-0.278161 16:-0.620121 17:-0.551378 18:-0.390805 
445.5450820024308 1:-0.492779 2:-0.680362 3:-0.628065 4:-0.699461 5:-0.698385 6:-0.606919 7:-0.640206 8:-0.593485 9:-0.496011 10:-0.855072 11:-0.627312 12:-0.138322 13:-0.610435 14:-0.437967 15:0.195402 16:-0.918474 17:-0.786967 18:-0.193103 
-512 1:-0.939419 2:-0.899704 3:-0.961819 4:-0.960058 5:-0.938263 6:-0.948156 7:-0.9512 8:-0.897572 9:-0.824382 10:-1 11:-1 12:-0.93424 13:-0.954783 14:-0.988042 15:-0.74023 16:-0.989592 17:-1 18:-0.951724 
-512 1:0.0182092 2:0.136653 3:-0.0383434 4:-0.292237 5:-0.233282 6:0.322549 7:-0.59799 8:-0.46114 9:-0.448746 10:-0.121739 11:-0.0355619 12:0.319728 13:-0.314783 14:-0.318386 15:-0.464368 16:-0.507372 17:-0.265664 18:-0.0965517 
-305.9559346430211 1:0.176198 2:-0.162622 3:0.0227444 4:0.76721 5:0.532165 6:0.561846 7:-0.305406 8:-0.371278 9:-0.358391 10:0.0811594 11:0.300142 12:0.0566893 13:0.0226087 14:0.237668 15:-0.0321839 16:-0.406765 17:0.0952381 18:0.386207 
-512 1:-0.158716 2:-0.225007 3:0.706437 4:-0.827117 5:-0.746048 6:-0.175831 7:-0.958869 8:-0.976454 9:-0.888506 10:-0.742029 11:-0.394026 12:0.319728 13:-1 14:-0.928251 15:-0.829885 16:-0.921943 17:-0.701754 18:-0.393103 
512 1:-0.993544 2:-0.966569 3:0.138677 4:-0.942519 5:-0.950758 6:-0.525103 7:-0.997214 8:-0.99585 9:-0.85558 10:-0.321739 11:-0.513514 12:-0.412698 13:-1 14:-0.99701 15:-0.777011 16:-0.616652 17:-0.997494 18:-0.473563 
512 1:-0.870912 2:-0.805496 3:-0.85389 4:-0.681402 5:-0.623051 6:-0.510334 7:-0.995677 8:-0.995877 9:-0.967226 10:-1 11:-1 12:-0.852608 13:-1 14:-0.991031 15:-0.967816 16:-0.661752 17:-0.709273 18:-0.816092 
-512 1:-0.660881 2:-0.758386 3:-0.6823 4:-0.861171 5:-0.840654 6:-0.817777 7:-0.853154 8:-0.861087 9:-0.808444 10:-0.915942 11:-0.698435 12:-0.519274 13:-0.913043 14:-0.874439 15:-0.88046 16:-0.970512 17:-0.882206 18:-0.641379 
-395.7863681622706 1:0.614419 2:0.867181 3:0.687277 4:-0.00976265 5:-0.224024 6:0.134094 7:0.256465 8:0.121788 9:0.0979365 10:0.084058 11:0.277383 12:0.979592 13:-0.0956522 14:0.103139 15:0.045977 16:-0.616652 17:-0.150376 18:0.257471 
-512 1:-0.928054 2:-0.866466 3:-0.608897 4:-0.954797 5:-0.919273 6:-0.5992 7:-0.994057 8:-0.987806 9:-0.52533 10:-0.907246 11:-0.931721 12:-0.646259 13:-0.895652 14:-0.949178 15:-0.786207 16:-0.677363 17:-0.927318 18:-0.790805 
31.14947192233115 1:-0.800863 2:-0.777018 3:-0.260532 4:-0.947963 5:-0.926134 6:-0.811422 7:-0.992914 8:-0.992901 9:-0.885478 10:-0.828986 11:-0.721195 12:-0.433107 13:-1 14:-1 15:-0.91954 16:-0.784909 17:-0.729323 18:-0.728736 
-512 1:-0.0660482 2:-0.386837 3:-0.2008 4:-0.753354 5:-0.815791 6:-0.729216 7:-0.60914 8:-0.616116 9:-0.656338 10:0.15942 11:0.325747 12:-0.015873 13:-0.492174 14:-0.527653 15:-0.689655 16:-0.554206 17:-0.235589 18:-0.17931 
512 1:-0.800311 2:-0.808757 3:-0.694778 4:-0.889194 5:-0.847621 6:-0.700363 7:-0.896312 8:-0.846412 9:-0.669242 10:-0.947826 11:-0.832148 12:-0.433107 13:-0.895652 14:-0.850523 15:-0.255172 16:-0.984389 17:-0.989975 18:-0.567816 
-147.38057026672 1:0.183965 2:0.0925006 3:-0.150292 4:1 5:1 6:0.997742 7:0.31684 8:0.920057 9:1 10:0.634783 11:1 12:0.997732 13:0.906087 14:0.988042 15:0.988506 16:-0.0667823 17:0.639098 18:1 
-6.820191454429871 1:0.581213 2:-0.0456352 3:-0.126129 4:-0.242595 5:-0.529321 6:-0.665522 7:1 8:0.515092 9:0.000720019 10:0.356522 11:0.590327 12:0.356009 13:0.707826 14:0.751868 15:0.632184 16:-0.274935 17:0.330827 18:0.634483 
-319.2811379429077 1:-0.768746 2:-0.0613106 3:-0.00749145 4:-0.792547 5:-0.640524 6:-0.129645 7:-0.988217 8:-0.978816 9:-0.223205 10:-0.675362 11:-0.687055 12:0.292517 13:-0.833043 14:-0.662182 15:-0.126437 16:-0.727667 17:-0.528822 18:-0.016092 
512 1:-0.907464 2:-0.908243 3:-0.919213 4:-0.989048 5:-0.989414 6:-1 7:-0.994162 8:-0.986363 9:-0.972354 10:-0.808696 11:-0.661451 12:-0.306122 13:-0.989565 14:-1 15:-0.735632 16:-0.718994 17:-0.944862 18:-0.521839 
328.2544446928519 1:-0.799324 2:-0.846297 3:-0.724167 4:-0.943499 5:-0.921189 6:-0.849005 7:-0.988417 8:-0.985618 9:-0.891054 10:-1 11:-0.97724 12:-0.732426 13:-1 14:-1 15:-1 16:-0.97745 17:-1 18:-0.898851 
512 1:-0.83005 2:-0.84536 3:-0.869213 4:-0.885112 5:-0.878011 6:-0.805938 7:-0.917972 8:-0.883456 9:-0.806706 10:-0.817391 11:-0.692745 12:-0.356009 13:-0.833043 14:-0.790732 15:-0.593103 16:-0.9549 17:-0.934837 18:-0.648276 
377.0835437625723 1:0.104524 2:-0.211306 3:0.0185786 4:0.724388 5:0.488094 6:0.56113 7:-0.470068 8:-0.485695 9:-0.386002 10:-0.107246 11:0.13229 12:0.0226757 13:-0.109565 14:0.0852018 15:-0.0252874 16:-0.500434 17:-0.140351 18:0.232184 
310.4003661437081 1:-0.98992 2:-0.981932 3:-0.77177 4:-0.999204 5:-0.999956 6:-0.781411 7:-0.999412 8:-0.999602 9:-0.905049 10:-0.863768 11:-0.903272 12:-0.600907 13:0.0991304 14:-0.348281 15:-0.606897 16:0.767563 17:-0.350877 18:-0.629885 
